NEAT_ParametersStart
PopulationSize 45
DynamicCompatibility true
MinSpecies 3
MaxSpecies 12
InnovationsForever false
AllowClones true
YoungAgeTreshold 1
YoungAgeFitnessBoost 1.10000000000000008882
SpeciesDropoffAge 3
StagnationDelta 20.00000000000000000000
OldAgeTreshold 30
OldAgePenalty 1.00000000000000000000
DetectCompetetiveCoevolutionStagnation false
KillWorstSpeciesEach 15
KillWorstAge 10
SurvivalRate 0.10000000000000000555
CrossoverRate 0.75000000000000000000
OverallMutationRate 0.80000000000000004441
InterspeciesCrossoverRate 0.00010000000000000000
MultipointCrossoverRate 0.40000000000000002220
RouletteWheelSelection false
PhasedSearching false
DeltaCoding false
SimplifyingPhaseMPCTreshold 20
SimplifyingPhaseStagnationTreshold 30
ComplexityFloorGenerations 40
NoveltySearch_K 15
NoveltySearch_P_min 0.50000000000000000000
NoveltySearch_Dynamic_Pmin true
NoveltySearch_No_Archiving_Stagnation_Treshold 150
NoveltySearch_Pmin_lowering_multiplier 0.90000000000000002220
NoveltySearch_Pmin_min 0.05000000000000000278
NoveltySearch_Quick_Archiving_Min_Evaluations 8
NoveltySearch_Pmin_raising_multiplier 1.10000000000000008882
NoveltySearch_Recompute_Sparseness_Each 25
MutateAddNeuronProb 0.05000000000000000278
SplitRecurrent true
SplitLoopedRecurrent true
NeuronTries -842150451
MutateAddLinkProb 0.05999999999999999778
MutateAddLinkFromBiasProb 0.00000000000000000000
MutateRemLinkProb 0.01000000000000000021
MutateRemSimpleNeuronProb 0.00000000000000000000
LinkTries 32
RecurrentProb 0.00000000000000000000
RecurrentLoopProb 0.25000000000000000000
MutateWeightsProb 0.90000000000000002220
MutateWeightsSevereProb 0.20000000000000001110
WeightMutationRate 0.25000000000000000000
WeightMutationMaxPower 2.50000000000000000000
WeightReplacementMaxPower 6.00000000000000000000
MaxWeight 8.00000000000000000000
MutateActivationAProb 0.00000000000000000000
MutateActivationBProb 0.00000000000000000000
ActivationAMutationMaxPower 0.00000000000000000000
ActivationBMutationMaxPower 0.00000000000000000000
TimeConstantMutationMaxPower 0.00000000000000000000
BiasMutationMaxPower 1.00000000000000000000
MinActivationA 4.20000000000000017764
MaxActivationA 4.79999999999999982236
MinActivationB 0.00000000000000000000
MaxActivationB 0.00000000000000000000
MutateNeuronActivationTypeProb 0.00000000000000000000
ActivationFunction_SignedSigmoid_Prob 0.50000000000000000000
ActivationFunction_UnsignedSigmoid_Prob 0.00000000000000000000
ActivationFunction_Tanh_Prob 0.25000000000000000000
ActivationFunction_TanhCubic_Prob 0.00000000000000000000
ActivationFunction_SignedStep_Prob 0.25000000000000000000
ActivationFunction_UnsignedStep_Prob 0.00000000000000000000
ActivationFunction_SignedGauss_Prob 0.00000000000000000000
ActivationFunction_UnsignedGauss_Prob 0.00000000000000000000
ActivationFunction_Abs_Prob 0.00000000000000000000
ActivationFunction_SignedSine_Prob 0.00000000000000000000
ActivationFunction_UnsignedSine_Prob 0.00000000000000000000
ActivationFunction_Linear_Prob 0.00000000000000000000
ActivationFunction_Relu_Prob 0.00000000000000000000
ActivationFunction_Softplus_Prob 0.00000000000000000000
MutateNeuronTimeConstantsProb 0.00000000000000000000
MutateNeuronBiasesProb 0.00000000000000000000
MinNeuronTimeConstant 0.00000000000000000000
MaxNeuronTimeConstant 0.00000000000000000000
MinNeuronBias 0.00000000000000000000
MaxNeuronBias 0.00000000000000000000
DisjointCoeff 1.00000000000000000000
ExcessCoeff 1.00000000000000000000
ActivationADiffCoeff 0.00000000000000000000
ActivationBDiffCoeff 0.00000000000000000000
WeightDiffCoeff 4.00000000000000000000
TimeConstantDiffCoeff 0.00000000000000000000
BiasDiffCoeff 0.00000000000000000000
ActivationFunctionDiffCoeff 0.00000000000000000000
CompatTreshold 5.89999999999999769074
MinCompatTreshold 0.20000000000000001110
CompatTresholdModifier 0.29999999999999998890
CompatTreshChangeInterval_Generations 1
CompatTreshChangeInterval_Evaluations 10
DivisionThreshold 0.02999999999999999889
VarianceThreshold 0.02999999999999999889
BandThreshold 0.29999999999999998890
InitialDepth 3
MaxDepth 3
IterationLevel 1
TournamentSize 4
CPPN_Bias 1.00000000000000000000
Width 2.00000000000000000000
Height 2.00000000000000000000
Qtree_X 0.00000000000000000000
Qtree_Y 0.00000000000000000000
Leo false
LeoThreshold 0.10000000000000000555
LeoSeed false
GeometrySeed false
Elitism 0.05000000000000000278
NEAT_ParametersEnd
InnovationDatabaseStart
NextInnovNum: 1367
NextNeuronID: 385
InnovationDatabaseEnd

GenomeStart 10755
Neuron 1 1 0.00000000 1 0.00000000 0.00000000 0.00000000 0.00000000
Neuron 2 1 0.00000000 1 0.00000000 0.00000000 0.00000000 0.00000000
Neuron 3 1 0.00000000 1 0.00000000 0.00000000 0.00000000 0.00000000
Neuron 4 1 0.00000000 1 0.00000000 0.00000000 0.00000000 0.00000000
Neuron 5 1 0.00000000 1 0.00000000 0.00000000 0.00000000 0.00000000
Neuron 6 1 0.00000000 1 0.00000000 0.00000000 0.00000000 0.00000000
Neuron 7 1 0.00000000 1 0.00000000 0.00000000 0.00000000 0.00000000
Neuron 8 1 0.00000000 1 0.00000000 0.00000000 0.00000000 0.00000000
Neuron 9 1 0.00000000 1 0.00000000 0.00000000 0.00000000 0.00000000
Neuron 10 1 0.00000000 1 0.00000000 0.00000000 0.00000000 0.00000000
Neuron 11 1 0.00000000 1 0.00000000 0.00000000 0.00000000 0.00000000
Neuron 12 1 0.00000000 1 0.00000000 0.00000000 0.00000000 0.00000000
Neuron 13 1 0.00000000 1 0.00000000 0.00000000 0.00000000 0.00000000
Neuron 14 1 0.00000000 1 0.00000000 0.00000000 0.00000000 0.00000000
Neuron 15 2 0.00000000 1 0.00000000 0.00000000 0.00000000 0.00000000
Neuron 16 4 1.00000000 0 4.50000000 0.00000000 0.00000000 0.00000000
Neuron 17 4 1.00000000 0 4.50000000 0.00000000 0.00000000 0.00000000
Neuron 18 4 1.00000000 0 4.50000000 0.00000000 0.00000000 0.00000000
Neuron 19 4 1.00000000 0 4.50000000 0.00000000 0.00000000 0.00000000
Neuron 20 4 1.00000000 0 4.50000000 0.00000000 0.00000000 0.00000000
Link 1 16 1 0 0.28604999
Link 2 16 2 0 -0.25788141
Link 3 16 3 0 0.41019929
Link 4 16 4 0 0.25904111
Link 5 16 5 0 0.31485946
Link 6 16 6 0 0.57737968
Link 7 16 7 0 -0.07858516
Link 8 16 8 0 0.11795404
Link 9 16 9 0 0.17831965
Link 10 16 10 0 0.85851619
Link 11 16 11 0 0.85653249
Link 12 16 12 0 0.49183630
Link 13 16 13 0 -0.02218696
Link 14 16 14 0 0.28034303
Link 15 16 15 0 0.50080874
Link 1 17 16 0 -0.76998199
Link 2 17 17 0 -0.11029389
Link 3 17 18 0 0.21024201
Link 4 17 19 0 -0.80904569
Link 5 17 20 0 -0.35651723
Link 6 17 21 0 0.24292734
Link 7 17 22 0 0.39094211
Link 8 17 23 0 -0.35706656
Link 9 17 24 0 0.45762505
Link 10 17 25 0 0.09756767
Link 11 17 26 0 0.14371166
Link 12 17 27 0 -0.21967223
Link 13 17 28 0 0.26548051
Link 14 17 29 0 0.32270272
Link 15 17 30 0 0.07177953
Link 1 18 31 0 -0.93771172
Link 2 18 32 0 -0.51902829
Link 3 18 33 0 -0.82543413
Link 4 18 34 0 -0.73696097
Link 5 18 35 0 0.31180761
Link 6 18 36 0 -0.20804468
Link 7 18 37 0 0.37498093
Link 8 18 38 0 -0.00650044
Link 9 18 39 0 0.04367199
Link 10 18 40 0 0.11325419
Link 11 18 41 0 -0.31116672
Link 12 18 42 0 -0.06985687
Link 13 18 43 0 0.29282510
Link 14 18 44 0 0.03994873
Link 15 18 45 0 0.00289926
Link 1 19 46 0 -0.16565447
Link 2 19 47 0 -0.05783258
Link 3 19 48 0 -0.19965209
Link 4 19 49 0 -0.09646901
Link 5 19 50 0 -0.23523667
Link 6 19 51 0 0.55110324
Link 7 19 52 0 -0.29074984
Link 8 19 53 0 -0.24506363
Link 9 19 54 0 -0.21945860
Link 10 19 55 0 0.68324839
Link 11 19 56 0 0.12100589
Link 12 19 57 0 0.27732170
Link 13 19 58 0 0.14450514
Link 14 19 59 0 -0.26526688
Link 15 19 60 0 -0.11740471
Link 1 20 61 0 -0.37513352
Link 2 20 62 0 0.02606281
Link 3 20 63 0 0.26252022
Link 4 20 64 0 0.28678243
Link 5 20 65 0 -0.03588977
Link 6 20 66 0 -0.29532762
Link 7 20 67 0 0.81212806
Link 8 20 68 0 -0.47468490
Link 9 20 69 0 -0.44819483
Link 10 20 70 0 0.27268288
Link 11 20 71 0 0.24610126
Link 12 20 72 0 -0.35798212
Link 13 20 73 0 0.31318094
Link 14 20 74 0 -0.16147343
Link 15 20 75 0 0.57194739
GenomeEnd

GenomeStart 10756
Neuron 1 1 0.00000000 1 0.00000000 0.00000000 0.00000000 0.00000000
Neuron 2 1 0.00000000 1 0.00000000 0.00000000 0.00000000 0.00000000
Neuron 3 1 0.00000000 1 0.00000000 0.00000000 0.00000000 0.00000000
Neuron 4 1 0.00000000 1 0.00000000 0.00000000 0.00000000 0.00000000
Neuron 5 1 0.00000000 1 0.00000000 0.00000000 0.00000000 0.00000000
Neuron 6 1 0.00000000 1 0.00000000 0.00000000 0.00000000 0.00000000
Neuron 7 1 0.00000000 1 0.00000000 0.00000000 0.00000000 0.00000000
Neuron 8 1 0.00000000 1 0.00000000 0.00000000 0.00000000 0.00000000
Neuron 9 1 0.00000000 1 0.00000000 0.00000000 0.00000000 0.00000000
Neuron 10 1 0.00000000 1 0.00000000 0.00000000 0.00000000 0.00000000
Neuron 11 1 0.00000000 1 0.00000000 0.00000000 0.00000000 0.00000000
Neuron 12 1 0.00000000 1 0.00000000 0.00000000 0.00000000 0.00000000
Neuron 13 1 0.00000000 1 0.00000000 0.00000000 0.00000000 0.00000000
Neuron 14 1 0.00000000 1 0.00000000 0.00000000 0.00000000 0.00000000
Neuron 15 2 0.00000000 1 0.00000000 0.00000000 0.00000000 0.00000000
Neuron 16 4 1.00000000 0 4.50000000 0.00000000 0.00000000 0.00000000
Neuron 17 4 1.00000000 0 4.50000000 0.00000000 0.00000000 0.00000000
Neuron 18 4 1.00000000 0 4.50000000 0.00000000 0.00000000 0.00000000
Neuron 19 4 1.00000000 0 4.50000000 0.00000000 0.00000000 0.00000000
Neuron 20 4 1.00000000 0 4.50000000 0.00000000 0.00000000 0.00000000
Link 1 16 1 0 0.93845943
Link 2 16 2 0 -0.30706199
Link 3 16 3 0 0.79123766
Link 4 16 4 0 -1.40444655
Link 5 16 5 0 0.50320444
Link 6 16 6 0 0.51081118
Link 7 16 7 0 -0.21893216
Link 8 16 8 0 1.04126293
Link 9 16 9 0 2.55887020
Link 10 16 10 0 -0.65416234
Link 11 16 11 0 0.85653249
Link 12 16 12 0 -1.36610004
Link 13 16 13 0 -0.44682341
Link 14 16 14 0 1.70702255
Link 15 16 15 0 -2.15192114
Link 1 17 16 0 -0.30738242
Link 2 17 17 0 0.05134740
Link 3 17 18 0 -0.54547258
Link 4 17 19 0 0.00955610
Link 5 17 20 0 0.89553323
Link 6 17 21 0 0.75260552
Link 7 17 22 0 2.67012543
Link 8 17 23 0 -0.36671804
Link 9 17 24 0 0.59156316
Link 10 17 25 0 0.50861384
Link 11 17 26 0 0.39915158
Link 12 17 27 0 -0.02300905
Link 13 17 28 0 0.05473494
Link 14 17 29 0 0.32827807
Link 15 17 30 0 0.43335890
Link 1 18 31 0 -0.36850337
Link 2 18 32 0 -0.97619556
Link 3 18 33 0 0.54257332
Link 4 18 34 0 -0.63590656
Link 5 18 35 0 0.77782525
Link 6 18 36 0 -0.21220760
Link 7 18 37 0 0.20435194
Link 8 18 38 0 -0.20342112
Link 9 18 39 0 -0.90303721
Link 10 18 40 0 -0.16740165
Link 11 18 41 0 -0.39721938
Link 12 18 42 0 0.45853297
Link 13 18 43 0 -0.98380611
Link 14 18 44 0 0.41788232
Link 15 18 45 0 -1.96113468
Link 1 19 46 0 -1.36316740
Link 2 19 47 0 2.06506546
Link 3 19 48 0 -0.99992370
Link 4 19 49 0 -0.11390271
Link 5 19 50 0 -0.34075442
Link 6 19 51 0 -0.61799982
Link 7 19 52 0 -0.56041902
Link 8 19 53 0 -0.52640614
Link 9 19 54 0 -0.55359050
Link 10 19 55 0 0.47022919
Link 11 19 56 0 0.35451064
Link 12 19 57 0 0.93747521
Link 13 19 58 0 -2.83492538
Link 14 19 59 0 1.81438643
Link 15 19 60 0 -0.30482651
Link 1 20 61 0 -1.47036653
Link 2 20 62 0 -0.47541734
Link 3 20 63 0 -0.65883358
Link 4 20 64 0 -0.26630356
Link 5 20 65 0 -0.14632863
Link 6 20 66 0 -0.07128361
Link 7 20 67 0 0.08178198
Link 8 20 68 0 -1.58230652
Link 9 20 69 0 3.96655171
Link 10 20 70 0 0.27268288
Link 11 20 71 0 -0.57899716
Link 12 20 72 0 0.31604968
Link 13 20 73 0 -1.91625721
Link 14 20 74 0 -2.13965270
Link 15 20 75 0 0.71578112
GenomeEnd

GenomeStart 10757
Neuron 1 1 0.00000000 1 0.00000000 0.00000000 0.00000000 0.00000000
Neuron 2 1 0.00000000 1 0.00000000 0.00000000 0.00000000 0.00000000
Neuron 3 1 0.00000000 1 0.00000000 0.00000000 0.00000000 0.00000000
Neuron 4 1 0.00000000 1 0.00000000 0.00000000 0.00000000 0.00000000
Neuron 5 1 0.00000000 1 0.00000000 0.00000000 0.00000000 0.00000000
Neuron 6 1 0.00000000 1 0.00000000 0.00000000 0.00000000 0.00000000
Neuron 7 1 0.00000000 1 0.00000000 0.00000000 0.00000000 0.00000000
Neuron 8 1 0.00000000 1 0.00000000 0.00000000 0.00000000 0.00000000
Neuron 9 1 0.00000000 1 0.00000000 0.00000000 0.00000000 0.00000000
Neuron 10 1 0.00000000 1 0.00000000 0.00000000 0.00000000 0.00000000
Neuron 11 1 0.00000000 1 0.00000000 0.00000000 0.00000000 0.00000000
Neuron 12 1 0.00000000 1 0.00000000 0.00000000 0.00000000 0.00000000
Neuron 13 1 0.00000000 1 0.00000000 0.00000000 0.00000000 0.00000000
Neuron 14 1 0.00000000 1 0.00000000 0.00000000 0.00000000 0.00000000
Neuron 15 2 0.00000000 1 0.00000000 0.00000000 0.00000000 0.00000000
Neuron 16 4 1.00000000 0 4.50000000 0.00000000 0.00000000 0.00000000
Neuron 17 4 1.00000000 0 4.50000000 0.00000000 0.00000000 0.00000000
Neuron 18 4 1.00000000 0 4.50000000 0.00000000 0.00000000 0.00000000
Neuron 19 4 1.00000000 0 4.50000000 0.00000000 0.00000000 0.00000000
Neuron 20 4 1.00000000 0 4.50000000 0.00000000 0.00000000 0.00000000
Link 1 16 1 0 -0.69779046
Link 2 16 2 0 1.55275124
Link 3 16 3 0 0.78194430
Link 4 16 4 0 0.86658834
Link 5 16 5 0 0.31485946
Link 6 16 6 0 0.74073000
Link 7 16 7 0 -0.01937925
Link 8 16 8 0 -0.41756951
Link 9 16 9 0 4.93942076
Link 10 16 10 0 1.18060091
Link 11 16 11 0 1.63727226
Link 12 16 12 0 1.07901242
Link 13 16 13 0 -0.87145986
Link 14 16 14 0 3.72904189
Link 15 16 15 0 -1.73299356
Link 1 17 16 0 2.94042787
Link 2 17 17 0 -0.11029389
Link 3 17 18 0 -1.30118717
Link 4 17 19 0 -0.12844478
Link 5 17 20 0 1.04983291
Link 6 17 21 0 1.26228370
Link 7 17 22 0 1.52287363
Link 8 17 23 0 -0.37636952
Link 9 17 24 0 0.45762505
Link 10 17 25 0 0.91966002
Link 11 17 26 0 -1.19818720
Link 12 17 27 0 -0.26876888
Link 13 17 28 0 -0.15601062
Link 14 17 29 0 0.30082858
Link 15 17 30 0 1.64732023
Link 1 18 31 0 -0.93771172
Link 2 18 32 0 -4.60277108
Link 3 18 33 0 1.91058077
Link 4 18 34 0 -0.53485214
Link 5 18 35 0 -0.38714255
Link 6 18 36 0 -0.26634457
Link 7 18 37 0 1.80730613
Link 8 18 38 0 -0.00650044
Link 9 18 39 0 -2.14905669
Link 10 18 40 0 0.20954009
Link 11 18 41 0 -0.48327204
Link 12 18 42 0 0.98692282
Link 13 18 43 0 -1.92742698
Link 14 18 44 0 0.71097446
Link 15 18 45 0 -3.57519761
Link 1 19 46 0 -2.56068033
Link 2 19 47 0 4.04422132
Link 3 19 48 0 -1.80019532
Link 4 19 49 0 -0.09646901
Link 5 19 50 0 -0.49769585
Link 6 19 51 0 1.51492069
Link 7 19 52 0 -0.83008820
Link 8 19 53 0 -0.24506363
Link 9 19 54 0 -1.15982543
Link 10 19 55 0 1.61009552
Link 11 19 56 0 0.12100589
Link 12 19 57 0 0.01570178
Link 13 19 58 0 1.19167150
Link 14 19 59 0 3.89403974
Link 15 19 60 0 -0.11740471
Link 1 20 61 0 -0.42548906
Link 2 20 62 0 0.86005738
Link 3 20 63 0 -0.00421155
Link 4 20 64 0 0.33631779
Link 5 20 65 0 1.78988006
Link 6 20 66 0 0.15276040
Link 7 20 67 0 -0.64856410
Link 8 20 68 0 -3.49050493
Link 9 20 69 0 -5.55027924
Link 10 20 70 0 -1.17503891
Link 11 20 71 0 1.05636769
Link 12 20 72 0 0.99008148
Link 13 20 73 0 0.52937407
Link 14 20 74 0 -1.08822901
Link 15 20 75 0 0.90823084
GenomeEnd

GenomeStart 10758
Neuron 1 1 0.00000000 1 0.00000000 0.00000000 0.00000000 0.00000000
Neuron 2 1 0.00000000 1 0.00000000 0.00000000 0.00000000 0.00000000
Neuron 3 1 0.00000000 1 0.00000000 0.00000000 0.00000000 0.00000000
Neuron 4 1 0.00000000 1 0.00000000 0.00000000 0.00000000 0.00000000
Neuron 5 1 0.00000000 1 0.00000000 0.00000000 0.00000000 0.00000000
Neuron 6 1 0.00000000 1 0.00000000 0.00000000 0.00000000 0.00000000
Neuron 7 1 0.00000000 1 0.00000000 0.00000000 0.00000000 0.00000000
Neuron 8 1 0.00000000 1 0.00000000 0.00000000 0.00000000 0.00000000
Neuron 9 1 0.00000000 1 0.00000000 0.00000000 0.00000000 0.00000000
Neuron 10 1 0.00000000 1 0.00000000 0.00000000 0.00000000 0.00000000
Neuron 11 1 0.00000000 1 0.00000000 0.00000000 0.00000000 0.00000000
Neuron 12 1 0.00000000 1 0.00000000 0.00000000 0.00000000 0.00000000
Neuron 13 1 0.00000000 1 0.00000000 0.00000000 0.00000000 0.00000000
Neuron 14 1 0.00000000 1 0.00000000 0.00000000 0.00000000 0.00000000
Neuron 15 2 0.00000000 1 0.00000000 0.00000000 0.00000000 0.00000000
Neuron 16 4 1.00000000 0 4.50000000 0.00000000 0.00000000 0.00000000
Neuron 17 4 1.00000000 0 4.50000000 0.00000000 0.00000000 0.00000000
Neuron 18 4 1.00000000 0 4.50000000 0.00000000 0.00000000 0.00000000
Neuron 19 4 1.00000000 0 4.50000000 0.00000000 0.00000000 0.00000000
Neuron 20 4 1.00000000 0 4.50000000 0.00000000 0.00000000 0.00000000
Link 1 16 1 0 -0.42945646
Link 2 16 2 0 -0.59253212
Link 3 16 3 0 -0.77201147
Link 4 16 4 0 0.81997131
Link 5 16 5 0 -2.74190497
Link 6 16 6 0 -0.31048006
Link 7 16 7 0 -1.14261299
Link 8 16 8 0 1.67579043
Link 9 16 9 0 3.97892697
Link 10 16 10 0 1.18060091
Link 11 16 11 0 1.98800623
Link 12 16 12 0 1.07901242
Link 13 16 13 0 -0.35834834
Link 14 16 14 0 -0.00222737
Link 15 16 15 0 -1.10705893
Link 1 17 16 0 -0.65138706
Link 2 17 17 0 -0.18016602
Link 3 17 18 0 3.49156163
Link 4 17 19 0 -1.91991943
Link 5 17 20 0 -0.08280435
Link 6 17 21 0 -0.79027680
Link 7 17 22 0 0.60579242
Link 8 17 23 0 -0.63692129
Link 9 17 24 0 -4.64699240
Link 10 17 25 0 1.02479628
Link 11 17 26 0 1.35721915
Link 12 17 27 0 0.89963225
Link 13 17 28 0 -0.15601062
Link 14 17 29 0 0.52848521
Link 15 17 30 0 -3.22605060
Link 1 18 31 0 -0.95541246
Link 2 18 32 0 -0.02160710
Link 3 18 33 0 -2.29909666
Link 4 18 34 0 -0.92289499
Link 5 18 35 0 2.39797662
Link 6 18 36 0 -0.21637051
Link 7 18 37 0 -0.74001281
Link 8 18 38 0 -0.56941435
Link 9 18 39 0 2.95376446
Link 10 18 40 0 0.13034456
Link 11 18 41 0 3.96984771
Link 12 18 42 0 -0.86318552
Link 13 18 43 0 0.19063387
Link 14 18 44 0 0.45614490
Link 15 18 45 0 -3.92516861
Link 1 19 46 0 0.59208197
Link 2 19 47 0 1.39330729
Link 3 19 48 0 1.86904507
Link 4 19 49 0 -0.51258889
Link 5 19 50 0 -1.31803339
Link 6 19 51 0 2.18554347
Link 7 19 52 0 -1.07492294
Link 8 19 53 0 0.17777032
Link 9 19 54 0 -0.72498245
Link 10 19 55 0 2.35581530
Link 11 19 56 0 1.16733299
Link 12 19 57 0 -1.76482436
Link 13 19 58 0 -0.26804789
Link 14 19 59 0 4.66783654
Link 15 19 60 0 0.36823634
Link 1 20 61 0 -0.18980987
Link 2 20 62 0 0.44058046
Link 3 20 63 0 -0.91442610
Link 4 20 64 0 0.33631779
Link 5 20 65 0 1.89715262
Link 6 20 66 0 0.56247139
Link 7 20 67 0 -3.49412519
Link 8 20 68 0 -2.53313929
Link 9 20 69 0 1.22061831
Link 10 20 70 0 0.65942869
Link 11 20 71 0 -0.86208686
Link 12 20 72 0 0.80788598
Link 13 20 73 0 0.96665853
Link 14 20 74 0 -1.37919248
Link 15 20 75 0 1.84209723
GenomeEnd

GenomeStart 10759
Neuron 1 1 0.00000000 1 0.00000000 0.00000000 0.00000000 0.00000000
Neuron 2 1 0.00000000 1 0.00000000 0.00000000 0.00000000 0.00000000
Neuron 3 1 0.00000000 1 0.00000000 0.00000000 0.00000000 0.00000000
Neuron 4 1 0.00000000 1 0.00000000 0.00000000 0.00000000 0.00000000
Neuron 5 1 0.00000000 1 0.00000000 0.00000000 0.00000000 0.00000000
Neuron 6 1 0.00000000 1 0.00000000 0.00000000 0.00000000 0.00000000
Neuron 7 1 0.00000000 1 0.00000000 0.00000000 0.00000000 0.00000000
Neuron 8 1 0.00000000 1 0.00000000 0.00000000 0.00000000 0.00000000
Neuron 9 1 0.00000000 1 0.00000000 0.00000000 0.00000000 0.00000000
Neuron 10 1 0.00000000 1 0.00000000 0.00000000 0.00000000 0.00000000
Neuron 11 1 0.00000000 1 0.00000000 0.00000000 0.00000000 0.00000000
Neuron 12 1 0.00000000 1 0.00000000 0.00000000 0.00000000 0.00000000
Neuron 13 1 0.00000000 1 0.00000000 0.00000000 0.00000000 0.00000000
Neuron 14 1 0.00000000 1 0.00000000 0.00000000 0.00000000 0.00000000
Neuron 15 2 0.00000000 1 0.00000000 0.00000000 0.00000000 0.00000000
Neuron 16 4 1.00000000 0 4.50000000 0.00000000 0.00000000 0.00000000
Neuron 17 4 1.00000000 0 4.50000000 0.00000000 0.00000000 0.00000000
Neuron 18 4 1.00000000 0 4.50000000 0.00000000 0.00000000 0.00000000
Neuron 19 4 1.00000000 0 4.50000000 0.00000000 0.00000000 0.00000000
Neuron 20 4 1.00000000 0 4.50000000 0.00000000 0.00000000 0.00000000
Link 1 16 1 0 0.47488327
Link 2 16 2 0 0.37450789
Link 3 16 3 0 -0.42898342
Link 4 16 4 0 -0.73265786
Link 5 16 5 0 -0.61557360
Link 6 16 6 0 0.57737968
Link 7 16 7 0 -0.31220435
Link 8 16 8 0 -0.41756951
Link 9 16 9 0 -0.39565722
Link 10 16 10 0 1.18060091
Link 11 16 11 0 0.85653249
Link 12 16 12 0 1.07901242
Link 13 16 13 0 -0.02218696
Link 14 16 14 0 -0.93621536
Link 15 16 15 0 0.76100955
Link 1 17 16 0 2.94042787
Link 2 17 17 0 -0.11029389
Link 3 17 18 0 -1.14725944
Link 4 17 19 0 -1.95432905
Link 5 17 20 0 -0.38219093
Link 6 17 21 0 0.24292734
Link 7 17 22 0 0.39094211
Link 8 17 23 0 -0.61726737
Link 9 17 24 0 0.45762505
Link 10 17 25 0 0.09756767
Link 11 17 26 0 0.14371166
Link 12 17 27 0 -0.26876888
Link 13 17 28 0 -0.62245552
Link 14 17 29 0 0.87411878
Link 15 17 30 0 -0.35161949
Link 1 18 31 0 -0.93771172
Link 2 18 32 0 -3.60069582
Link 3 18 33 0 -0.82543413
Link 4 18 34 0 -1.06534013
Link 5 18 35 0 -0.38714255
Link 6 18 36 0 -0.50533311
Link 7 18 37 0 -1.29918820
Link 8 18 38 0 -0.00650044
Link 9 18 39 0 0.04367199
Link 10 18 40 0 0.11325419
Link 11 18 41 0 1.62427900
Link 12 18 42 0 -1.45913572
Link 13 18 43 0 -1.48292489
Link 14 18 44 0 0.71097446
Link 15 18 45 0 0.72804956
Link 1 19 46 0 -2.21058535
Link 2 19 47 0 0.19270054
Link 3 19 48 0 1.44155705
Link 4 19 49 0 2.13763848
Link 5 19 50 0 -0.07577746
Link 6 19 51 0 1.51492069
Link 7 19 52 0 -0.35171056
Link 8 19 53 0 -0.24506363
Link 9 19 54 0 0.99806207
Link 10 19 55 0 1.04756310
Link 11 19 56 0 0.12100589
Link 12 19 57 0 -2.82705161
Link 13 19 58 0 1.19167150
Link 14 19 59 0 0.71155431
Link 15 19 60 0 -0.58731346
Link 1 20 61 0 -0.37513352
Link 2 20 62 0 0.44058046
Link 3 20 63 0 -0.31168554
Link 4 20 64 0 0.33631779
Link 5 20 65 0 1.07315286
Link 6 20 66 0 -0.29532762
Link 7 20 67 0 2.42335277
Link 8 20 68 0 -0.52912229
Link 9 20 69 0 -0.72850734
Link 10 20 70 0 0.27268288
Link 11 20 71 0 0.82786035
Link 12 20 72 0 2.43464461
Link 13 20 73 0 0.93771172
Link 14 20 74 0 -0.45466475
Link 15 20 75 0 -2.00982696
GenomeEnd

GenomeStart 10760
Neuron 1 1 0.00000000 1 0.00000000 0.00000000 0.00000000 0.00000000
Neuron 2 1 0.00000000 1 0.00000000 0.00000000 0.00000000 0.00000000
Neuron 3 1 0.00000000 1 0.00000000 0.00000000 0.00000000 0.00000000
Neuron 4 1 0.00000000 1 0.00000000 0.00000000 0.00000000 0.00000000
Neuron 5 1 0.00000000 1 0.00000000 0.00000000 0.00000000 0.00000000
Neuron 6 1 0.00000000 1 0.00000000 0.00000000 0.00000000 0.00000000
Neuron 7 1 0.00000000 1 0.00000000 0.00000000 0.00000000 0.00000000
Neuron 8 1 0.00000000 1 0.00000000 0.00000000 0.00000000 0.00000000
Neuron 9 1 0.00000000 1 0.00000000 0.00000000 0.00000000 0.00000000
Neuron 10 1 0.00000000 1 0.00000000 0.00000000 0.00000000 0.00000000
Neuron 11 1 0.00000000 1 0.00000000 0.00000000 0.00000000 0.00000000
Neuron 12 1 0.00000000 1 0.00000000 0.00000000 0.00000000 0.00000000
Neuron 13 1 0.00000000 1 0.00000000 0.00000000 0.00000000 0.00000000
Neuron 14 1 0.00000000 1 0.00000000 0.00000000 0.00000000 0.00000000
Neuron 15 2 0.00000000 1 0.00000000 0.00000000 0.00000000 0.00000000
Neuron 16 4 1.00000000 0 4.50000000 0.00000000 0.00000000 0.00000000
Neuron 17 4 1.00000000 0 4.50000000 0.00000000 0.00000000 0.00000000
Neuron 18 4 1.00000000 0 4.50000000 0.00000000 0.00000000 0.00000000
Neuron 19 4 1.00000000 0 4.50000000 0.00000000 0.00000000 0.00000000
Neuron 20 4 1.00000000 0 4.50000000 0.00000000 0.00000000 0.00000000
Link 1 16 1 0 -0.20587023
Link 2 16 2 0 0.64743492
Link 3 16 3 0 -0.45847193
Link 4 16 4 0 1.09715568
Link 5 16 5 0 -0.50120548
Link 6 16 6 0 2.57271035
Link 7 16 7 0 -0.19539476
Link 8 16 8 0 -0.14980773
Link 9 16 9 0 -1.66759239
Link 10 16 10 0 1.01955855
Link 11 16 11 0 0.85653249
Link 12 16 12 0 0.78542436
Link 13 16 13 0 -0.02218696
Link 14 16 14 0 -0.09237142
Link 15 16 15 0 0.63090915
Link 1 17 16 0 1.08522294
Link 2 17 17 0 -1.47462386
Link 3 17 18 0 2.05640202
Link 4 17 19 0 -1.51577807
Link 5 17 20 0 -0.36935408
Link 6 17 21 0 -0.09155552
Link 7 17 22 0 0.39094211
Link 8 17 23 0 -0.48716697
Link 9 17 24 0 0.45762505
Link 10 17 25 0 0.09756767
Link 11 17 26 0 0.14371166
Link 12 17 27 0 -0.24422056
Link 13 17 28 0 -1.41441084
Link 14 17 29 0 -1.42870495
Link 15 17 30 0 -0.13991998
Link 1 18 31 0 -0.93771172
Link 2 18 32 0 -2.82190924
Link 3 18 33 0 -0.82543413
Link 4 18 34 0 -0.50723289
Link 5 18 35 0 -0.03766747
Link 6 18 36 0 -0.35668890
Link 7 18 37 0 -0.46210364
Link 8 18 38 0 -2.35389264
Link 9 18 39 0 0.04367199
Link 10 18 40 0 0.11325419
Link 11 18 41 0 -0.05135883
Link 12 18 42 0 1.57150487
Link 13 18 43 0 -0.81730094
Link 14 18 44 0 1.13590655
Link 15 18 45 0 0.78617206
Link 1 19 46 0 -0.16948836
Link 2 19 47 0 -0.78494799
Link 3 19 48 0 -0.31974242
Link 4 19 49 0 -0.09646901
Link 5 19 50 0 -0.23523667
Link 6 19 51 0 1.03301196
Link 7 19 52 0 -0.32123020
Link 8 19 53 0 -0.24506363
Link 9 19 54 0 -0.74373608
Link 10 19 55 0 0.68324839
Link 11 19 56 0 0.12100589
Link 12 19 57 0 0.18164617
Link 13 19 58 0 0.66808832
Link 14 19 59 0 0.43311106
Link 15 19 60 0 -0.11740471
Link 1 20 61 0 -0.37513352
Link 2 20 62 0 0.23332164
Link 3 20 63 0 0.21231727
Link 4 20 64 0 0.31155011
Link 5 20 65 0 0.87699514
Link 6 20 66 0 -0.29532762
Link 7 20 67 0 2.16806544
Link 8 20 68 0 1.94683676
Link 9 20 69 0 0.81847591
Link 10 20 70 0 1.23241371
Link 11 20 71 0 0.65123447
Link 12 20 72 0 1.03833125
Link 13 20 73 0 1.06500442
Link 14 20 74 0 1.26236763
Link 15 20 75 0 -2.01660207
GenomeEnd

GenomeStart 10761
Neuron 1 1 0.00000000 1 0.00000000 0.00000000 0.00000000 0.00000000
Neuron 2 1 0.00000000 1 0.00000000 0.00000000 0.00000000 0.00000000
Neuron 3 1 0.00000000 1 0.00000000 0.00000000 0.00000000 0.00000000
Neuron 4 1 0.00000000 1 0.00000000 0.00000000 0.00000000 0.00000000
Neuron 5 1 0.00000000 1 0.00000000 0.00000000 0.00000000 0.00000000
Neuron 6 1 0.00000000 1 0.00000000 0.00000000 0.00000000 0.00000000
Neuron 7 1 0.00000000 1 0.00000000 0.00000000 0.00000000 0.00000000
Neuron 8 1 0.00000000 1 0.00000000 0.00000000 0.00000000 0.00000000
Neuron 9 1 0.00000000 1 0.00000000 0.00000000 0.00000000 0.00000000
Neuron 10 1 0.00000000 1 0.00000000 0.00000000 0.00000000 0.00000000
Neuron 11 1 0.00000000 1 0.00000000 0.00000000 0.00000000 0.00000000
Neuron 12 1 0.00000000 1 0.00000000 0.00000000 0.00000000 0.00000000
Neuron 13 1 0.00000000 1 0.00000000 0.00000000 0.00000000 0.00000000
Neuron 14 1 0.00000000 1 0.00000000 0.00000000 0.00000000 0.00000000
Neuron 15 2 0.00000000 1 0.00000000 0.00000000 0.00000000 0.00000000
Neuron 16 4 1.00000000 0 4.50000000 0.00000000 0.00000000 0.00000000
Neuron 17 4 1.00000000 0 4.50000000 0.00000000 0.00000000 0.00000000
Neuron 18 4 1.00000000 0 4.50000000 0.00000000 0.00000000 0.00000000
Neuron 19 4 1.00000000 0 4.50000000 0.00000000 0.00000000 0.00000000
Neuron 20 4 1.00000000 0 4.50000000 0.00000000 0.00000000 0.00000000
Link 1 16 1 0 0.93845943
Link 2 16 2 0 0.26149784
Link 3 16 3 0 0.79123766
Link 4 16 4 0 -1.09697256
Link 5 16 5 0 -0.88035218
Link 6 16 6 0 0.51081118
Link 7 16 7 0 -0.21893216
Link 8 16 8 0 1.11145550
Link 9 16 9 0 2.23918882
Link 10 16 10 0 0.44702177
Link 11 16 11 0 0.85653249
Link 12 16 12 0 -1.36610004
Link 13 16 13 0 -0.44682341
Link 14 16 14 0 1.12495828
Link 15 16 15 0 -0.61609241
Link 1 17 16 0 -0.30738242
Link 2 17 17 0 -0.13969847
Link 3 17 18 0 -0.54547258
Link 4 17 19 0 -1.64256341
Link 5 17 20 0 0.34665784
Link 6 17 21 0 0.75260552
Link 7 17 22 0 1.25534074
Link 8 17 23 0 -0.36671804
Link 9 17 24 0 0.59156316
Link 10 17 25 0 0.90848261
Link 11 17 26 0 1.18874172
Link 12 17 27 0 -2.26894246
Link 13 17 28 0 0.58842738
Link 14 17 29 0 0.04720260
Link 15 17 30 0 0.85954988
Link 1 18 31 0 -0.36850337
Link 2 18 32 0 -1.09071627
Link 3 18 33 0 2.47012238
Link 4 18 34 0 -0.63590656
Link 5 18 35 0 1.55948057
Link 6 18 36 0 -0.21220760
Link 7 18 37 0 1.09114353
Link 8 18 38 0 -0.20342112
Link 9 18 39 0 -0.79507798
Link 10 18 40 0 -0.16740165
Link 11 18 41 0 -0.39721938
Link 12 18 42 0 0.45853297
Link 13 18 43 0 2.01562929
Link 14 18 44 0 0.41788232
Link 15 18 45 0 -1.96113468
Link 1 19 46 0 -1.36316740
Link 2 19 47 0 1.24800866
Link 3 19 48 0 -0.99992370
Link 4 19 49 0 -1.04258095
Link 5 19 50 0 -1.81334880
Link 6 19 51 0 0.67673578
Link 7 19 52 0 0.50131993
Link 8 19 53 0 -0.52640614
Link 9 19 54 0 -0.55359050
Link 10 19 55 0 0.68324839
Link 11 19 56 0 0.35451064
Link 12 19 57 0 0.14651174
Link 13 19 58 0 0.34797776
Link 14 19 59 0 1.33371990
Link 15 19 60 0 -0.78518785
Link 1 20 61 0 -0.23657949
Link 2 20 62 0 -0.47541734
Link 3 20 63 0 -0.10145115
Link 4 20 64 0 -0.38471538
Link 5 20 65 0 1.21517838
Link 6 20 66 0 -0.60451827
Link 7 20 67 0 -0.52040162
Link 8 20 68 0 3.58403272
Link 9 20 69 0 -2.99923704
Link 10 20 70 0 0.27268288
Link 11 20 71 0 -0.57899716
Link 12 20 72 0 0.31604968
Link 13 20 73 0 -3.61259804
Link 14 20 74 0 4.13043611
Link 15 20 75 0 4.40491958
GenomeEnd

GenomeStart 10762
Neuron 1 1 0.00000000 1 0.00000000 0.00000000 0.00000000 0.00000000
Neuron 2 1 0.00000000 1 0.00000000 0.00000000 0.00000000 0.00000000
Neuron 3 1 0.00000000 1 0.00000000 0.00000000 0.00000000 0.00000000
Neuron 4 1 0.00000000 1 0.00000000 0.00000000 0.00000000 0.00000000
Neuron 5 1 0.00000000 1 0.00000000 0.00000000 0.00000000 0.00000000
Neuron 6 1 0.00000000 1 0.00000000 0.00000000 0.00000000 0.00000000
Neuron 7 1 0.00000000 1 0.00000000 0.00000000 0.00000000 0.00000000
Neuron 8 1 0.00000000 1 0.00000000 0.00000000 0.00000000 0.00000000
Neuron 9 1 0.00000000 1 0.00000000 0.00000000 0.00000000 0.00000000
Neuron 10 1 0.00000000 1 0.00000000 0.00000000 0.00000000 0.00000000
Neuron 11 1 0.00000000 1 0.00000000 0.00000000 0.00000000 0.00000000
Neuron 12 1 0.00000000 1 0.00000000 0.00000000 0.00000000 0.00000000
Neuron 13 1 0.00000000 1 0.00000000 0.00000000 0.00000000 0.00000000
Neuron 14 1 0.00000000 1 0.00000000 0.00000000 0.00000000 0.00000000
Neuron 15 2 0.00000000 1 0.00000000 0.00000000 0.00000000 0.00000000
Neuron 16 4 1.00000000 0 4.50000000 0.00000000 0.00000000 0.00000000
Neuron 17 4 1.00000000 0 4.50000000 0.00000000 0.00000000 0.00000000
Neuron 18 4 1.00000000 0 4.50000000 0.00000000 0.00000000 0.00000000
Neuron 19 4 1.00000000 0 4.50000000 0.00000000 0.00000000 0.00000000
Neuron 20 4 1.00000000 0 4.50000000 0.00000000 0.00000000 0.00000000
Link 1 16 1 0 0.28604999
Link 2 16 2 0 0.14213995
Link 3 16 3 0 1.45568713
Link 4 16 4 0 1.22403638
Link 5 16 5 0 0.31485946
Link 6 16 6 0 0.57737968
Link 7 16 7 0 -0.07858516
Link 8 16 8 0 0.11795404
Link 9 16 9 0 0.17831965
Link 10 16 10 0 0.85851619
Link 11 16 11 0 0.85653249
Link 12 16 12 0 -0.62712485
Link 13 16 13 0 -0.90867336
Link 14 16 14 0 0.22106083
Link 15 16 15 0 0.68323313
Link 1 17 16 0 -0.76998199
Link 2 17 17 0 -0.86417737
Link 3 17 18 0 0.21024201
Link 4 17 19 0 -0.80904569
Link 5 17 20 0 -0.35651723
Link 6 17 21 0 0.24292734
Link 7 17 22 0 0.39094211
Link 8 17 23 0 -0.35706656
Link 9 17 24 0 -1.25408185
Link 10 17 25 0 0.09756767
Link 11 17 26 0 0.90614032
Link 12 17 27 0 -0.21967223
Link 13 17 28 0 0.26548051
Link 14 17 29 0 0.32270272
Link 15 17 30 0 0.07177953
Link 1 18 31 0 -0.93771172
Link 2 18 32 0 -1.24170659
Link 3 18 33 0 -0.82543413
Link 4 18 34 0 -0.73696097
Link 5 18 35 0 0.31180761
Link 6 18 36 0 -0.09169286
Link 7 18 37 0 0.37498093
Link 8 18 38 0 0.82032228
Link 9 18 39 0 -0.72684408
Link 10 18 40 0 0.11325419
Link 11 18 41 0 -0.27881710
Link 12 18 42 0 -0.06985687
Link 13 18 43 0 -0.19432661
Link 14 18 44 0 0.03994873
Link 15 18 45 0 0.00289926
Link 1 19 46 0 -0.16565447
Link 2 19 47 0 -0.05783258
Link 3 19 48 0 -0.19965209
Link 4 19 49 0 -0.09646901
Link 5 19 50 0 -0.23523667
Link 6 19 51 0 -0.24283578
Link 7 19 52 0 -0.29074984
Link 8 19 53 0 -0.24506363
Link 9 19 54 0 -0.21945860
Link 10 19 55 0 0.68324839
Link 11 19 56 0 0.12100589
Link 12 19 57 0 0.27732170
Link 13 19 58 0 0.14450514
Link 14 19 59 0 -0.37879574
Link 15 19 60 0 -0.11740471
Link 1 20 61 0 -0.37513352
Link 2 20 62 0 0.02606281
Link 3 20 63 0 0.26252022
Link 4 20 64 0 0.28678243
Link 5 20 65 0 -0.03588977
Link 6 20 66 0 1.02436903
Link 7 20 67 0 -0.39442121
Link 8 20 68 0 0.85218360
Link 9 20 69 0 -0.28293710
Link 10 20 70 0 -0.07736442
Link 11 20 71 0 0.24610126
Link 12 20 72 0 -0.35798212
Link 13 20 73 0 -5.56181524
Link 14 20 74 0 -0.32319102
Link 15 20 75 0 5.66747032
GenomeEnd

GenomeStart 10763
Neuron 1 1 0.00000000 1 0.00000000 0.00000000 0.00000000 0.00000000
Neuron 2 1 0.00000000 1 0.00000000 0.00000000 0.00000000 0.00000000
Neuron 3 1 0.00000000 1 0.00000000 0.00000000 0.00000000 0.00000000
Neuron 4 1 0.00000000 1 0.00000000 0.00000000 0.00000000 0.00000000
Neuron 5 1 0.00000000 1 0.00000000 0.00000000 0.00000000 0.00000000
Neuron 6 1 0.00000000 1 0.00000000 0.00000000 0.00000000 0.00000000
Neuron 7 1 0.00000000 1 0.00000000 0.00000000 0.00000000 0.00000000
Neuron 8 1 0.00000000 1 0.00000000 0.00000000 0.00000000 0.00000000
Neuron 9 1 0.00000000 1 0.00000000 0.00000000 0.00000000 0.00000000
Neuron 10 1 0.00000000 1 0.00000000 0.00000000 0.00000000 0.00000000
Neuron 11 1 0.00000000 1 0.00000000 0.00000000 0.00000000 0.00000000
Neuron 12 1 0.00000000 1 0.00000000 0.00000000 0.00000000 0.00000000
Neuron 13 1 0.00000000 1 0.00000000 0.00000000 0.00000000 0.00000000
Neuron 14 1 0.00000000 1 0.00000000 0.00000000 0.00000000 0.00000000
Neuron 15 2 0.00000000 1 0.00000000 0.00000000 0.00000000 0.00000000
Neuron 16 4 1.00000000 0 4.50000000 0.00000000 0.00000000 0.00000000
Neuron 17 4 1.00000000 0 4.50000000 0.00000000 0.00000000 0.00000000
Neuron 18 4 1.00000000 0 4.50000000 0.00000000 0.00000000 0.00000000
Neuron 19 4 1.00000000 0 4.50000000 0.00000000 0.00000000 0.00000000
Neuron 20 4 1.00000000 0 4.50000000 0.00000000 0.00000000 0.00000000
Link 1 16 1 0 0.35555589
Link 2 16 2 0 -0.19322795
Link 3 16 3 0 0.79123766
Link 4 16 4 0 -1.80767235
Link 5 16 5 0 -0.88035218
Link 6 16 6 0 0.51081118
Link 7 16 7 0 -0.21893216
Link 8 16 8 0 1.04126293
Link 9 16 9 0 2.55887020
Link 10 16 10 0 1.29085856
Link 11 16 11 0 0.85653249
Link 12 16 12 0 -1.36610004
Link 13 16 13 0 2.56666768
Link 14 16 14 0 1.60844776
Link 15 16 15 0 -2.20748009
Link 1 17 16 0 -0.30738242
Link 2 17 17 0 0.05134740
Link 3 17 18 0 -0.54547258
Link 4 17 19 0 1.93245109
Link 5 17 20 0 0.34665784
Link 6 17 21 0 0.75260552
Link 7 17 22 0 1.25962096
Link 8 17 23 0 0.28528703
Link 9 17 24 0 0.59156316
Link 10 17 25 0 0.50861384
Link 11 17 26 0 0.10167241
Link 12 17 27 0 -0.02300905
Link 13 17 28 0 0.05473494
Link 14 17 29 0 0.32827807
Link 15 17 30 0 0.85954988
Link 1 18 31 0 -0.36850337
Link 2 18 32 0 -1.09071627
Link 3 18 33 0 0.54257332
Link 4 18 34 0 -0.63590656
Link 5 18 35 0 0.77782525
Link 6 18 36 0 -0.21220760
Link 7 18 37 0 1.09114353
Link 8 18 38 0 -0.20342112
Link 9 18 39 0 -0.79507798
Link 10 18 40 0 -0.16740165
Link 11 18 41 0 -0.39721938
Link 12 18 42 0 0.45853297
Link 13 18 43 0 0.22106464
Link 14 18 44 0 -0.63988922
Link 15 18 45 0 -1.96113468
Link 1 19 46 0 -1.36316740
Link 2 19 47 0 1.67033906
Link 3 19 48 0 -0.99992370
Link 4 19 49 0 -0.11390271
Link 5 19 50 0 0.39619129
Link 6 19 51 0 1.19844970
Link 7 19 52 0 -0.56041902
Link 8 19 53 0 -0.52640614
Link 9 19 54 0 -0.44257942
Link 10 19 55 0 0.68324839
Link 11 19 56 0 0.35451064
Link 12 19 57 0 2.25358593
Link 13 19 58 0 0.34797776
Link 14 19 59 0 1.82811976
Link 15 19 60 0 -0.30482651
Link 1 20 61 0 -0.23657949
Link 2 20 62 0 -0.47541734
Link 3 20 63 0 -1.59855953
Link 4 20 64 0 -0.26630356
Link 5 20 65 0 -0.14632863
Link 6 20 66 0 -0.07128361
Link 7 20 67 0 0.08178198
Link 8 20 68 0 -0.63798754
Link 9 20 69 0 -2.99923704
Link 10 20 70 0 0.27268288
Link 11 20 71 0 -0.57899716
Link 12 20 72 0 0.31604968
Link 13 20 73 0 3.40577410
Link 14 20 74 0 -0.44514298
Link 15 20 75 0 -0.16919462
GenomeEnd

GenomeStart 10764
Neuron 1 1 0.00000000 1 0.00000000 0.00000000 0.00000000 0.00000000
Neuron 2 1 0.00000000 1 0.00000000 0.00000000 0.00000000 0.00000000
Neuron 3 1 0.00000000 1 0.00000000 0.00000000 0.00000000 0.00000000
Neuron 4 1 0.00000000 1 0.00000000 0.00000000 0.00000000 0.00000000
Neuron 5 1 0.00000000 1 0.00000000 0.00000000 0.00000000 0.00000000
Neuron 6 1 0.00000000 1 0.00000000 0.00000000 0.00000000 0.00000000
Neuron 7 1 0.00000000 1 0.00000000 0.00000000 0.00000000 0.00000000
Neuron 8 1 0.00000000 1 0.00000000 0.00000000 0.00000000 0.00000000
Neuron 9 1 0.00000000 1 0.00000000 0.00000000 0.00000000 0.00000000
Neuron 10 1 0.00000000 1 0.00000000 0.00000000 0.00000000 0.00000000
Neuron 11 1 0.00000000 1 0.00000000 0.00000000 0.00000000 0.00000000
Neuron 12 1 0.00000000 1 0.00000000 0.00000000 0.00000000 0.00000000
Neuron 13 1 0.00000000 1 0.00000000 0.00000000 0.00000000 0.00000000
Neuron 14 1 0.00000000 1 0.00000000 0.00000000 0.00000000 0.00000000
Neuron 15 2 0.00000000 1 0.00000000 0.00000000 0.00000000 0.00000000
Neuron 16 4 1.00000000 0 4.50000000 0.00000000 0.00000000 0.00000000
Neuron 17 4 1.00000000 0 4.50000000 0.00000000 0.00000000 0.00000000
Neuron 18 4 1.00000000 0 4.50000000 0.00000000 0.00000000 0.00000000
Neuron 19 4 1.00000000 0 4.50000000 0.00000000 0.00000000 0.00000000
Neuron 20 4 1.00000000 0 4.50000000 0.00000000 0.00000000 0.00000000
Link 1 16 1 0 -0.20587023
Link 2 16 2 0 1.54872280
Link 3 16 3 0 -0.39522232
Link 4 16 4 0 -2.14139225
Link 5 16 5 0 0.19959105
Link 6 16 6 0 -0.65289773
Link 7 16 7 0 -3.18814661
Link 8 16 8 0 0.42371136
Link 9 16 9 0 0.09576708
Link 10 16 10 0 -0.48294397
Link 11 16 11 0 0.74117252
Link 12 16 12 0 -1.24214911
Link 13 16 13 0 -1.04615925
Link 14 16 14 0 -0.02988477
Link 15 16 15 0 0.53010651
Link 1 17 16 0 1.03944518
Link 2 17 17 0 -0.15472884
Link 3 17 18 0 0.00395596
Link 4 17 19 0 -1.80021058
Link 5 17 20 0 0.88938185
Link 6 17 21 0 -1.03038117
Link 7 17 22 0 2.17757195
Link 8 17 23 0 -0.98019349
Link 9 17 24 0 1.28734703
Link 10 17 25 0 0.47535630
Link 11 17 26 0 -0.54448073
Link 12 17 27 0 -0.19645909
Link 13 17 28 0 -0.88445693
Link 14 17 29 0 0.59841075
Link 15 17 30 0 -1.37864315
Link 1 18 31 0 -2.49629200
Link 2 18 32 0 -1.71210364
Link 3 18 33 0 -0.74784082
Link 4 18 34 0 3.66643269
Link 5 18 35 0 0.83425398
Link 6 18 36 0 -0.35668890
Link 7 18 37 0 -2.36194952
Link 8 18 38 0 0.99136326
Link 9 18 39 0 1.64268929
Link 10 18 40 0 0.74582660
Link 11 18 41 0 -1.50327692
Link 12 18 42 0 -1.94712668
Link 13 18 43 0 -0.81730094
Link 14 18 44 0 0.84292886
Link 15 18 45 0 0.36547441
Link 1 19 46 0 1.51002151
Link 2 19 47 0 0.18882135
Link 3 19 48 0 -1.78760643
Link 4 19 49 0 0.38778344
Link 5 19 50 0 -1.16681417
Link 6 19 51 0 2.11954720
Link 7 19 52 0 0.20704520
Link 8 19 53 0 0.38407544
Link 9 19 54 0 -1.26972259
Link 10 19 55 0 -0.45883053
Link 11 19 56 0 -0.50195318
Link 12 19 57 0 -0.52020325
Link 13 19 58 0 -1.35696738
Link 14 19 59 0 0.21635335
Link 15 19 60 0 1.44933927
Link 1 20 61 0 -0.37513352
Link 2 20 62 0 1.49076052
Link 3 20 63 0 -1.13202307
Link 4 20 64 0 1.98800813
Link 5 20 65 0 -0.64175848
Link 6 20 66 0 -4.80684835
Link 7 20 67 0 0.65681936
Link 8 20 68 0 0.96168782
Link 9 20 69 0 -0.74132511
Link 10 20 70 0 1.35883663
Link 11 20 71 0 -2.21253090
Link 12 20 72 0 -0.45677053
Link 13 20 73 0 1.24033326
Link 14 20 74 0 -0.97122104
Link 15 20 75 0 1.78855251
GenomeEnd

GenomeStart 10765
Neuron 1 1 0.00000000 1 0.00000000 0.00000000 0.00000000 0.00000000
Neuron 2 1 0.00000000 1 0.00000000 0.00000000 0.00000000 0.00000000
Neuron 3 1 0.00000000 1 0.00000000 0.00000000 0.00000000 0.00000000
Neuron 4 1 0.00000000 1 0.00000000 0.00000000 0.00000000 0.00000000
Neuron 5 1 0.00000000 1 0.00000000 0.00000000 0.00000000 0.00000000
Neuron 6 1 0.00000000 1 0.00000000 0.00000000 0.00000000 0.00000000
Neuron 7 1 0.00000000 1 0.00000000 0.00000000 0.00000000 0.00000000
Neuron 8 1 0.00000000 1 0.00000000 0.00000000 0.00000000 0.00000000
Neuron 9 1 0.00000000 1 0.00000000 0.00000000 0.00000000 0.00000000
Neuron 10 1 0.00000000 1 0.00000000 0.00000000 0.00000000 0.00000000
Neuron 11 1 0.00000000 1 0.00000000 0.00000000 0.00000000 0.00000000
Neuron 12 1 0.00000000 1 0.00000000 0.00000000 0.00000000 0.00000000
Neuron 13 1 0.00000000 1 0.00000000 0.00000000 0.00000000 0.00000000
Neuron 14 1 0.00000000 1 0.00000000 0.00000000 0.00000000 0.00000000
Neuron 15 2 0.00000000 1 0.00000000 0.00000000 0.00000000 0.00000000
Neuron 16 4 1.00000000 0 4.50000000 0.00000000 0.00000000 0.00000000
Neuron 17 4 1.00000000 0 4.50000000 0.00000000 0.00000000 0.00000000
Neuron 18 4 1.00000000 0 4.50000000 0.00000000 0.00000000 0.00000000
Neuron 19 4 1.00000000 0 4.50000000 0.00000000 0.00000000 0.00000000
Neuron 20 4 1.00000000 0 4.50000000 0.00000000 0.00000000 0.00000000
Link 1 16 1 0 1.59086886
Link 2 16 2 0 -0.12857448
Link 3 16 3 0 1.62822257
Link 4 16 4 0 -1.41489914
Link 5 16 5 0 -2.07556383
Link 6 16 6 0 -0.12454604
Link 7 16 7 0 -0.35927915
Link 8 16 8 0 1.96457183
Link 9 16 9 0 4.93942076
Link 10 16 10 0 1.72320093
Link 11 16 11 0 0.85653249
Link 12 16 12 0 -3.22403638
Link 13 16 13 0 -0.87145986
Link 14 16 14 0 2.84148734
Link 15 16 15 0 -1.73299356
Link 1 17 16 0 0.15521714
Link 2 17 17 0 -0.07914975
Link 3 17 18 0 2.64101077
Link 4 17 19 0 -0.12844478
Link 5 17 20 0 1.04983291
Link 6 17 21 0 1.16348003
Link 7 17 22 0 -1.18533890
Link 8 17 23 0 -0.37636952
Link 9 17 24 0 0.72550127
Link 10 17 25 0 0.91966002
Link 11 17 26 0 0.05963317
Link 12 17 27 0 0.66652806
Link 13 17 28 0 -2.18732261
Link 14 17 29 0 -0.58322779
Link 15 17 30 0 1.64732023
Link 1 18 31 0 0.20070498
Link 2 18 32 0 -1.66240425
Link 3 18 33 0 1.91058077
Link 4 18 34 0 -0.53485214
Link 5 18 35 0 1.24384289
Link 6 18 36 0 -0.21637051
Link 7 18 37 0 1.80730613
Link 8 18 38 0 -1.49763481
Link 9 18 39 0 -1.63382795
Link 10 18 40 0 -1.28487503
Link 11 18 41 0 -0.48327204
Link 12 18 42 0 0.98692282
Link 13 18 43 0 1.20081942
Link 14 18 44 0 0.79581591
Link 15 18 45 0 -2.76180303
Link 1 19 46 0 -2.56068033
Link 2 19 47 0 2.55384991
Link 3 19 48 0 -1.80019532
Link 4 19 49 0 -0.13133641
Link 5 19 50 0 -0.44627216
Link 6 19 51 0 1.84579617
Link 7 19 52 0 -0.83008820
Link 8 19 53 0 -0.80774865
Link 9 19 54 0 -1.74658956
Link 10 19 55 0 0.68324839
Link 11 19 56 0 0.58801538
Link 12 19 57 0 0.01570178
Link 13 19 58 0 1.20080798
Link 14 19 59 0 3.89403974
Link 15 19 60 0 -0.49224830
Link 1 20 61 0 -5.52775658
Link 2 20 62 0 -1.75527207
Link 3 20 63 0 0.40290536
Link 4 20 64 0 -0.81938956
Link 5 20 65 0 -0.25676748
Link 6 20 66 0 0.20929593
Link 7 20 67 0 0.26226082
Link 8 20 68 0 -2.68992813
Link 9 20 69 0 -5.61001923
Link 10 20 70 0 0.27268288
Link 11 20 71 0 -1.82799768
Link 12 20 72 0 0.99008148
Link 13 20 73 0 -4.08355968
Link 14 20 74 0 -2.48005615
Link 15 20 75 0 1.94775231
GenomeEnd

GenomeStart 10766
Neuron 1 1 0.00000000 1 0.00000000 0.00000000 0.00000000 0.00000000
Neuron 2 1 0.00000000 1 0.00000000 0.00000000 0.00000000 0.00000000
Neuron 3 1 0.00000000 1 0.00000000 0.00000000 0.00000000 0.00000000
Neuron 4 1 0.00000000 1 0.00000000 0.00000000 0.00000000 0.00000000
Neuron 5 1 0.00000000 1 0.00000000 0.00000000 0.00000000 0.00000000
Neuron 6 1 0.00000000 1 0.00000000 0.00000000 0.00000000 0.00000000
Neuron 7 1 0.00000000 1 0.00000000 0.00000000 0.00000000 0.00000000
Neuron 8 1 0.00000000 1 0.00000000 0.00000000 0.00000000 0.00000000
Neuron 9 1 0.00000000 1 0.00000000 0.00000000 0.00000000 0.00000000
Neuron 10 1 0.00000000 1 0.00000000 0.00000000 0.00000000 0.00000000
Neuron 11 1 0.00000000 1 0.00000000 0.00000000 0.00000000 0.00000000
Neuron 12 1 0.00000000 1 0.00000000 0.00000000 0.00000000 0.00000000
Neuron 13 1 0.00000000 1 0.00000000 0.00000000 0.00000000 0.00000000
Neuron 14 1 0.00000000 1 0.00000000 0.00000000 0.00000000 0.00000000
Neuron 15 2 0.00000000 1 0.00000000 0.00000000 0.00000000 0.00000000
Neuron 16 4 1.00000000 0 4.50000000 0.00000000 0.00000000 0.00000000
Neuron 17 4 1.00000000 0 4.50000000 0.00000000 0.00000000 0.00000000
Neuron 18 4 1.00000000 0 4.50000000 0.00000000 0.00000000 0.00000000
Neuron 19 4 1.00000000 0 4.50000000 0.00000000 0.00000000 0.00000000
Neuron 20 4 1.00000000 0 4.50000000 0.00000000 0.00000000 0.00000000
Link 1 16 1 0 -0.69779046
Link 2 16 2 0 1.55275124
Link 3 16 3 0 -0.42898342
Link 4 16 4 0 0.05258339
Link 5 16 5 0 0.31485946
Link 6 16 6 0 -1.09099094
Link 7 16 7 0 -1.03556932
Link 8 16 8 0 -0.41756951
Link 9 16 9 0 0.17831965
Link 10 16 10 0 1.02709281
Link 11 16 11 0 0.85653249
Link 12 16 12 0 2.40908536
Link 13 16 13 0 -0.02218696
Link 14 16 14 0 -0.46508587
Link 15 16 15 0 0.76100955
Link 1 17 16 0 2.94042787
Link 2 17 17 0 -2.84701071
Link 3 17 18 0 0.32152013
Link 4 17 19 0 -2.22251046
Link 5 17 20 0 -0.38219093
Link 6 17 21 0 0.24292734
Link 7 17 22 0 0.39094211
Link 8 17 23 0 0.55731376
Link 9 17 24 0 -0.86748863
Link 10 17 25 0 0.56785790
Link 11 17 26 0 -2.24494156
Link 12 17 27 0 -0.26876888
Link 13 17 28 0 1.08322397
Link 14 17 29 0 0.60883663
Link 15 17 30 0 -0.35161949
Link 1 18 31 0 -2.85862300
Link 2 18 32 0 -3.60069582
Link 3 18 33 0 0.53332621
Link 4 18 34 0 -0.27750481
Link 5 18 35 0 -0.38714255
Link 6 18 36 0 -0.32306131
Link 7 18 37 0 -1.29918820
Link 8 18 38 0 -0.94212164
Link 9 18 39 0 0.53410444
Link 10 18 40 0 0.11325419
Link 11 18 41 0 0.20844905
Link 12 18 42 0 -1.08368175
Link 13 18 43 0 -1.92742698
Link 14 18 44 0 0.71097446
Link 15 18 45 0 0.72804956
Link 1 19 46 0 -0.17332225
Link 2 19 47 0 0.19270054
Link 3 19 48 0 -0.43983276
Link 4 19 49 0 -0.09646901
Link 5 19 50 0 -0.56141850
Link 6 19 51 0 1.93432130
Link 7 19 52 0 -0.35171056
Link 8 19 53 0 -0.01983703
Link 9 19 54 0 -1.15982543
Link 10 19 55 0 0.06715598
Link 11 19 56 0 0.12100589
Link 12 19 57 0 0.08597065
Link 13 19 58 0 1.19167150
Link 14 19 59 0 1.13148900
Link 15 19 60 0 -0.11740471
Link 1 20 61 0 0.12811670
Link 2 20 62 0 1.40160833
Link 3 20 63 0 -0.31168554
Link 4 20 64 0 0.33631779
Link 5 20 65 0 1.78988006
Link 6 20 66 0 -0.29532762
Link 7 20 67 0 2.42335277
Link 8 20 68 0 -0.52912229
Link 9 20 69 0 -0.72850734
Link 10 20 70 0 0.27268288
Link 11 20 71 0 1.05636769
Link 12 20 72 0 2.43464461
Link 13 20 73 0 -0.20471816
Link 14 20 74 0 -1.90197455
Link 15 20 75 0 -1.96844386
GenomeEnd

GenomeStart 10767
Neuron 1 1 0.00000000 1 0.00000000 0.00000000 0.00000000 0.00000000
Neuron 2 1 0.00000000 1 0.00000000 0.00000000 0.00000000 0.00000000
Neuron 3 1 0.00000000 1 0.00000000 0.00000000 0.00000000 0.00000000
Neuron 4 1 0.00000000 1 0.00000000 0.00000000 0.00000000 0.00000000
Neuron 5 1 0.00000000 1 0.00000000 0.00000000 0.00000000 0.00000000
Neuron 6 1 0.00000000 1 0.00000000 0.00000000 0.00000000 0.00000000
Neuron 7 1 0.00000000 1 0.00000000 0.00000000 0.00000000 0.00000000
Neuron 8 1 0.00000000 1 0.00000000 0.00000000 0.00000000 0.00000000
Neuron 9 1 0.00000000 1 0.00000000 0.00000000 0.00000000 0.00000000
Neuron 10 1 0.00000000 1 0.00000000 0.00000000 0.00000000 0.00000000
Neuron 11 1 0.00000000 1 0.00000000 0.00000000 0.00000000 0.00000000
Neuron 12 1 0.00000000 1 0.00000000 0.00000000 0.00000000 0.00000000
Neuron 13 1 0.00000000 1 0.00000000 0.00000000 0.00000000 0.00000000
Neuron 14 1 0.00000000 1 0.00000000 0.00000000 0.00000000 0.00000000
Neuron 15 2 0.00000000 1 0.00000000 0.00000000 0.00000000 0.00000000
Neuron 16 4 1.00000000 0 4.50000000 0.00000000 0.00000000 0.00000000
Neuron 17 4 1.00000000 0 4.50000000 0.00000000 0.00000000 0.00000000
Neuron 18 4 1.00000000 0 4.50000000 0.00000000 0.00000000 0.00000000
Neuron 19 4 1.00000000 0 4.50000000 0.00000000 0.00000000 0.00000000
Neuron 20 4 1.00000000 0 4.50000000 0.00000000 0.00000000 0.00000000
Link 1 16 1 0 0.44653920
Link 2 16 2 0 0.66592913
Link 3 16 3 0 0.37164631
Link 4 16 4 0 -0.91843928
Link 5 16 5 0 -0.88035218
Link 6 16 6 0 1.95782342
Link 7 16 7 0 -0.33574175
Link 8 16 8 0 0.53576197
Link 9 16 9 0 1.29685354
Link 10 16 10 0 1.45190092
Link 11 16 11 0 1.08595538
Link 12 16 12 0 -1.30040895
Link 13 16 13 0 -0.44682341
Link 14 16 14 0 -0.93146234
Link 15 16 15 0 -0.48599200
Link 1 17 16 0 1.54782251
Link 2 17 17 0 0.05134740
Link 3 17 18 0 -0.48983352
Link 4 17 19 0 -1.17547762
Link 5 17 20 0 0.06960700
Link 6 17 21 0 2.56575213
Link 7 17 22 0 0.65610981
Link 8 17 23 0 -2.01870022
Link 9 17 24 0 0.59156316
Link 10 17 25 0 0.50861384
Link 11 17 26 0 0.10167241
Link 12 17 27 0 1.70275544
Link 13 17 28 0 -2.04104740
Link 14 17 29 0 0.60398610
Link 15 17 30 0 0.64785037
Link 1 18 31 0 -0.36850337
Link 2 18 32 0 -1.59941404
Link 3 18 33 0 0.54257332
Link 4 18 34 0 -0.40617848
Link 5 18 35 0 0.42835017
Link 6 18 36 0 -0.66908876
Link 7 18 37 0 0.25405896
Link 8 18 38 0 -0.20342112
Link 9 18 39 0 0.46098757
Link 10 18 40 0 -0.60526597
Link 11 18 41 0 -1.67798585
Link 12 18 42 0 0.45853297
Link 13 18 43 0 0.56508072
Link 14 18 44 0 0.75339519
Link 15 18 45 0 -1.59855953
Link 1 19 46 0 -1.36700129
Link 2 19 47 0 1.49412852
Link 3 19 48 0 -1.12001404
Link 4 19 49 0 -0.11390271
Link 5 19 50 0 0.45699942
Link 6 19 51 0 1.68035843
Link 7 19 52 0 -0.59089938
Link 8 19 53 0 -0.52640614
Link 9 19 54 0 -1.02377392
Link 10 19 55 0 0.68324839
Link 11 19 56 0 0.35451064
Link 12 19 57 0 0.05083621
Link 13 19 58 0 0.87156094
Link 14 19 59 0 3.93996246
Link 15 19 60 0 -0.30482651
Link 1 20 61 0 -0.23657949
Link 2 20 62 0 -0.26815851
Link 3 20 63 0 -0.07116153
Link 4 20 64 0 1.01521633
Link 5 20 65 0 -0.99558245
Link 6 20 66 0 -1.51341288
Link 7 20 67 0 0.88739433
Link 8 20 68 0 -1.12192145
Link 9 20 69 0 -3.13939329
Link 10 20 70 0 0.27268288
Link 11 20 71 0 -0.17386395
Link 12 20 72 0 1.71236305
Link 13 20 73 0 0.26166570
Link 14 20 74 0 2.60731834
Link 15 20 75 0 -5.48600726
GenomeEnd

GenomeStart 10768
Neuron 1 1 0.00000000 1 0.00000000 0.00000000 0.00000000 0.00000000
Neuron 2 1 0.00000000 1 0.00000000 0.00000000 0.00000000 0.00000000
Neuron 3 1 0.00000000 1 0.00000000 0.00000000 0.00000000 0.00000000
Neuron 4 1 0.00000000 1 0.00000000 0.00000000 0.00000000 0.00000000
Neuron 5 1 0.00000000 1 0.00000000 0.00000000 0.00000000 0.00000000
Neuron 6 1 0.00000000 1 0.00000000 0.00000000 0.00000000 0.00000000
Neuron 7 1 0.00000000 1 0.00000000 0.00000000 0.00000000 0.00000000
Neuron 8 1 0.00000000 1 0.00000000 0.00000000 0.00000000 0.00000000
Neuron 9 1 0.00000000 1 0.00000000 0.00000000 0.00000000 0.00000000
Neuron 10 1 0.00000000 1 0.00000000 0.00000000 0.00000000 0.00000000
Neuron 11 1 0.00000000 1 0.00000000 0.00000000 0.00000000 0.00000000
Neuron 12 1 0.00000000 1 0.00000000 0.00000000 0.00000000 0.00000000
Neuron 13 1 0.00000000 1 0.00000000 0.00000000 0.00000000 0.00000000
Neuron 14 1 0.00000000 1 0.00000000 0.00000000 0.00000000 0.00000000
Neuron 15 2 0.00000000 1 0.00000000 0.00000000 0.00000000 0.00000000
Neuron 16 4 1.00000000 0 4.50000000 0.00000000 0.00000000 0.00000000
Neuron 17 4 1.00000000 0 4.50000000 0.00000000 0.00000000 0.00000000
Neuron 18 4 1.00000000 0 4.50000000 0.00000000 0.00000000 0.00000000
Neuron 19 4 1.00000000 0 4.50000000 0.00000000 0.00000000 0.00000000
Neuron 20 4 1.00000000 0 4.50000000 0.00000000 0.00000000 0.00000000
Link 1 16 1 0 0.44653920
Link 2 16 2 0 0.71208838
Link 3 16 3 0 0.37164631
Link 4 16 4 0 -0.91843928
Link 5 16 5 0 -0.88035218
Link 6 16 6 0 0.51081118
Link 7 16 7 0 -0.33574175
Link 8 16 8 0 0.77350116
Link 9 16 9 0 2.55887020
Link 10 16 10 0 1.45190092
Link 11 16 11 0 0.85653249
Link 12 16 12 0 -1.07251198
Link 13 16 13 0 -0.44682341
Link 14 16 14 0 0.75224383
Link 15 16 15 0 -0.48599200
Link 1 17 16 0 1.54782251
Link 2 17 17 0 0.05134740
Link 3 17 18 0 -0.48983352
Link 4 17 19 0 -1.17547762
Link 5 17 20 0 0.33382099
Link 6 17 21 0 0.75260552
Link 7 17 22 0 0.65610981
Link 8 17 23 0 -0.49681844
Link 9 17 24 0 0.59156316
Link 10 17 25 0 0.50861384
Link 11 17 26 0 0.10167241
Link 12 17 27 0 -0.04755737
Link 13 17 28 0 0.05473494
Link 14 17 29 0 0.60398610
Link 15 17 30 0 0.64785037
Link 1 18 31 0 -0.36850337
Link 2 18 32 0 -2.63155003
Link 3 18 33 0 0.54257332
Link 4 18 34 0 -0.40617848
Link 5 18 35 0 0.42835017
Link 6 18 36 0 -0.36085181
Link 7 18 37 0 0.25405896
Link 8 18 38 0 -0.20342112
Link 9 18 39 0 -0.79507798
Link 10 18 40 0 -0.16740165
Link 11 18 41 0 -0.13741149
Link 12 18 42 0 0.45853297
Link 13 18 43 0 -0.88906140
Link 14 18 44 0 0.75339519
Link 15 18 45 0 -1.59855953
Link 1 19 46 0 -1.36700129
Link 2 19 47 0 1.37327523
Link 3 19 48 0 -1.12001404
Link 4 19 49 0 -0.11390271
Link 5 19 50 0 -0.34075442
Link 6 19 51 0 1.68035843
Link 7 19 52 0 -0.59089938
Link 8 19 53 0 -0.52640614
Link 9 19 54 0 -1.02377392
Link 10 19 55 0 0.68324839
Link 11 19 56 0 0.35451064
Link 12 19 57 0 0.05083621
Link 13 19 58 0 0.87156094
Link 14 19 59 0 2.51276437
Link 15 19 60 0 -0.30482651
Link 1 20 61 0 -0.23657949
Link 2 20 62 0 -0.26815851
Link 3 20 63 0 -0.07116153
Link 4 20 64 0 -0.24153589
Link 5 20 65 0 0.76655629
Link 6 20 66 0 -0.07128361
Link 7 20 67 0 0.88739433
Link 8 20 68 0 -1.60952521
Link 9 20 69 0 -3.13939329
Link 10 20 70 0 0.27268288
Link 11 20 71 0 -0.17386395
Link 12 20 72 0 1.71236305
Link 13 20 73 0 3.33390301
Link 14 20 74 0 -1.34337519
Link 15 20 75 0 0.93335902
GenomeEnd

GenomeStart 10769
Neuron 1 1 0.00000000 1 0.00000000 0.00000000 0.00000000 0.00000000
Neuron 2 1 0.00000000 1 0.00000000 0.00000000 0.00000000 0.00000000
Neuron 3 1 0.00000000 1 0.00000000 0.00000000 0.00000000 0.00000000
Neuron 4 1 0.00000000 1 0.00000000 0.00000000 0.00000000 0.00000000
Neuron 5 1 0.00000000 1 0.00000000 0.00000000 0.00000000 0.00000000
Neuron 6 1 0.00000000 1 0.00000000 0.00000000 0.00000000 0.00000000
Neuron 7 1 0.00000000 1 0.00000000 0.00000000 0.00000000 0.00000000
Neuron 8 1 0.00000000 1 0.00000000 0.00000000 0.00000000 0.00000000
Neuron 9 1 0.00000000 1 0.00000000 0.00000000 0.00000000 0.00000000
Neuron 10 1 0.00000000 1 0.00000000 0.00000000 0.00000000 0.00000000
Neuron 11 1 0.00000000 1 0.00000000 0.00000000 0.00000000 0.00000000
Neuron 12 1 0.00000000 1 0.00000000 0.00000000 0.00000000 0.00000000
Neuron 13 1 0.00000000 1 0.00000000 0.00000000 0.00000000 0.00000000
Neuron 14 1 0.00000000 1 0.00000000 0.00000000 0.00000000 0.00000000
Neuron 15 2 0.00000000 1 0.00000000 0.00000000 0.00000000 0.00000000
Neuron 16 4 1.00000000 0 4.50000000 0.00000000 0.00000000 0.00000000
Neuron 17 4 1.00000000 0 4.50000000 0.00000000 0.00000000 0.00000000
Neuron 18 4 1.00000000 0 4.50000000 0.00000000 0.00000000 0.00000000
Neuron 19 4 1.00000000 0 4.50000000 0.00000000 0.00000000 0.00000000
Neuron 20 4 1.00000000 0 4.50000000 0.00000000 0.00000000 0.00000000
Link 1 16 1 0 0.93845943
Link 2 16 2 0 -0.19322795
Link 3 16 3 0 0.79123766
Link 4 16 4 0 -0.57792901
Link 5 16 5 0 -0.88035218
Link 6 16 6 0 0.51081118
Link 7 16 7 0 -0.21893216
Link 8 16 8 0 1.04126293
Link 9 16 9 0 2.55887020
Link 10 16 10 0 1.29085856
Link 11 16 11 0 0.85653249
Link 12 16 12 0 -1.36610004
Link 13 16 13 0 -0.44682341
Link 14 16 14 0 1.12495828
Link 15 16 15 0 -0.61609241
Link 1 17 16 0 -0.30738242
Link 2 17 17 0 0.05134740
Link 3 17 18 0 -0.54547258
Link 4 17 19 0 -0.46874524
Link 5 17 20 0 0.34665784
Link 6 17 21 0 0.75260552
Link 7 17 22 0 0.65610981
Link 8 17 23 0 -0.36671804
Link 9 17 24 0 0.59156316
Link 10 17 25 0 0.50861384
Link 11 17 26 0 0.10167241
Link 12 17 27 0 -0.02300905
Link 13 17 28 0 0.05473494
Link 14 17 29 0 0.32827807
Link 15 17 30 0 0.85954988
Link 1 18 31 0 -0.36850337
Link 2 18 32 0 -1.09071627
Link 3 18 33 0 0.54257332
Link 4 18 34 0 -0.63590656
Link 5 18 35 0 0.77782525
Link 6 18 36 0 -0.21220760
Link 7 18 37 0 1.09114353
Link 8 18 38 0 -0.20342112
Link 9 18 39 0 -0.79507798
Link 10 18 40 0 -0.16740165
Link 11 18 41 0 -0.39721938
Link 12 18 42 0 0.45853297
Link 13 18 43 0 0.22106464
Link 14 18 44 0 0.41788232
Link 15 18 45 0 -1.96113468
Link 1 19 46 0 -1.36316740
Link 2 19 47 0 1.24800866
Link 3 19 48 0 -0.99992370
Link 4 19 49 0 -0.11390271
Link 5 19 50 0 -0.34075442
Link 6 19 51 0 1.19844970
Link 7 19 52 0 -0.56041902
Link 8 19 53 0 -0.52640614
Link 9 19 54 0 -0.55359050
Link 10 19 55 0 0.68324839
Link 11 19 56 0 0.35451064
Link 12 19 57 0 0.14651174
Link 13 19 58 0 0.34797776
Link 14 19 59 0 1.81438643
Link 15 19 60 0 -0.30482651
Link 1 20 61 0 -0.23657949
Link 2 20 62 0 -0.47541734
Link 3 20 63 0 0.21594134
Link 4 20 64 0 -0.26630356
Link 5 20 65 0 -0.14632863
Link 6 20 66 0 -0.07128361
Link 7 20 67 0 0.08178198
Link 9 20 69 0 -2.99923704
Link 10 20 70 0 0.27268288
Link 11 20 71 0 -0.57899716
Link 12 20 72 0 0.31604968
Link 13 20 73 0 3.09524827
Link 14 20 74 0 0.07300409
Link 15 20 75 0 0.29828410
GenomeEnd

GenomeStart 10770
Neuron 1 1 0.00000000 1 0.00000000 0.00000000 0.00000000 0.00000000
Neuron 2 1 0.00000000 1 0.00000000 0.00000000 0.00000000 0.00000000
Neuron 3 1 0.00000000 1 0.00000000 0.00000000 0.00000000 0.00000000
Neuron 4 1 0.00000000 1 0.00000000 0.00000000 0.00000000 0.00000000
Neuron 5 1 0.00000000 1 0.00000000 0.00000000 0.00000000 0.00000000
Neuron 6 1 0.00000000 1 0.00000000 0.00000000 0.00000000 0.00000000
Neuron 7 1 0.00000000 1 0.00000000 0.00000000 0.00000000 0.00000000
Neuron 8 1 0.00000000 1 0.00000000 0.00000000 0.00000000 0.00000000
Neuron 9 1 0.00000000 1 0.00000000 0.00000000 0.00000000 0.00000000
Neuron 10 1 0.00000000 1 0.00000000 0.00000000 0.00000000 0.00000000
Neuron 11 1 0.00000000 1 0.00000000 0.00000000 0.00000000 0.00000000
Neuron 12 1 0.00000000 1 0.00000000 0.00000000 0.00000000 0.00000000
Neuron 13 1 0.00000000 1 0.00000000 0.00000000 0.00000000 0.00000000
Neuron 14 1 0.00000000 1 0.00000000 0.00000000 0.00000000 0.00000000
Neuron 15 2 0.00000000 1 0.00000000 0.00000000 0.00000000 0.00000000
Neuron 16 4 1.00000000 0 4.50000000 0.00000000 0.00000000 0.00000000
Neuron 17 4 1.00000000 0 4.50000000 0.00000000 0.00000000 0.00000000
Neuron 18 4 1.00000000 0 4.50000000 0.00000000 0.00000000 0.00000000
Neuron 19 4 1.00000000 0 4.50000000 0.00000000 0.00000000 0.00000000
Neuron 20 4 1.00000000 0 4.50000000 0.00000000 0.00000000 0.00000000
Link 1 16 1 0 1.92947173
Link 2 16 2 0 0.89602343
Link 3 16 3 0 -0.42898342
Link 4 16 4 0 -0.82902005
Link 5 16 5 0 4.42506180
Link 6 16 6 0 -1.57493820
Link 7 16 7 0 -0.31220435
Link 8 16 8 0 -0.41756951
Link 9 16 9 0 0.17831965
Link 10 16 10 0 0.85851619
Link 11 16 11 0 0.85653249
Link 12 16 12 0 2.54557940
Link 13 16 13 0 -0.02218696
Link 14 16 14 0 -0.46508587
Link 15 16 15 0 0.50080874
Link 1 17 16 0 2.94042787
Link 2 17 17 0 -0.11029389
Link 3 17 18 0 0.21024201
Link 4 17 19 0 -2.10188605
Link 5 17 20 0 -0.38219093
Link 6 17 21 0 0.24292734
Link 7 17 22 0 -0.67720572
Link 8 17 23 0 -0.35706656
Link 9 17 24 0 0.51896725
Link 10 17 25 0 0.09756767
Link 11 17 26 0 0.14371166
Link 12 17 27 0 -0.21967223
Link 13 17 28 0 -0.39623707
Link 14 17 29 0 0.87411878
Link 15 17 30 0 -0.35161949
Link 1 18 31 0 -0.93771172
Link 2 18 32 0 -3.60069582
Link 3 18 33 0 -2.57345806
Link 4 18 34 0 1.07577746
Link 5 18 35 0 0.31180761
Link 6 18 36 0 -0.86095004
Link 7 18 37 0 -1.29918820
Link 8 18 38 0 -0.00650044
Link 9 18 39 0 0.04367199
Link 10 18 40 0 0.11325419
Link 11 18 41 0 -0.27923673
Link 12 18 42 0 -0.06985687
Link 13 18 43 0 0.29282510
Link 14 18 44 0 0.03994873
Link 15 18 45 0 1.92941069
Link 1 19 46 0 -0.16565447
Link 2 19 47 0 0.19270054
Link 3 19 48 0 -0.19965209
Link 4 19 49 0 -0.09646901
Link 5 19 50 0 -0.79136021
Link 6 19 51 0 0.55110324
Link 7 19 52 0 -0.35171056
Link 8 19 53 0 -0.24506363
Link 9 19 54 0 -0.14064455
Link 10 19 55 0 -0.15044099
Link 11 19 56 0 0.12100589
Link 12 19 57 0 -0.33846552
Link 13 19 58 0 -0.13069552
Link 14 19 59 0 1.13148900
Link 15 19 60 0 -2.05044710
Link 1 20 61 0 -0.37513352
Link 2 20 62 0 0.44058046
Link 3 20 63 0 -0.31168554
Link 4 20 64 0 0.28678243
Link 5 20 65 0 1.78988006
Link 6 20 66 0 -0.29532762
Link 7 20 67 0 0.81212806
Link 8 20 68 0 -0.52912229
Link 9 20 69 0 -0.35465560
Link 10 20 70 0 0.27268288
Link 11 20 71 0 -2.33136998
Link 12 20 72 0 2.43464461
Link 13 20 73 0 -2.99221778
Link 14 20 74 0 -1.40244758
Link 15 20 75 0 0.14690085
GenomeEnd

GenomeStart 10771
Neuron 1 1 0.00000000 1 0.00000000 0.00000000 0.00000000 0.00000000
Neuron 2 1 0.00000000 1 0.00000000 0.00000000 0.00000000 0.00000000
Neuron 3 1 0.00000000 1 0.00000000 0.00000000 0.00000000 0.00000000
Neuron 4 1 0.00000000 1 0.00000000 0.00000000 0.00000000 0.00000000
Neuron 5 1 0.00000000 1 0.00000000 0.00000000 0.00000000 0.00000000
Neuron 6 1 0.00000000 1 0.00000000 0.00000000 0.00000000 0.00000000
Neuron 7 1 0.00000000 1 0.00000000 0.00000000 0.00000000 0.00000000
Neuron 8 1 0.00000000 1 0.00000000 0.00000000 0.00000000 0.00000000
Neuron 9 1 0.00000000 1 0.00000000 0.00000000 0.00000000 0.00000000
Neuron 10 1 0.00000000 1 0.00000000 0.00000000 0.00000000 0.00000000
Neuron 11 1 0.00000000 1 0.00000000 0.00000000 0.00000000 0.00000000
Neuron 12 1 0.00000000 1 0.00000000 0.00000000 0.00000000 0.00000000
Neuron 13 1 0.00000000 1 0.00000000 0.00000000 0.00000000 0.00000000
Neuron 14 1 0.00000000 1 0.00000000 0.00000000 0.00000000 0.00000000
Neuron 15 2 0.00000000 1 0.00000000 0.00000000 0.00000000 0.00000000
Neuron 16 4 1.00000000 0 4.50000000 0.00000000 0.00000000 0.00000000
Neuron 17 4 1.00000000 0 4.50000000 0.00000000 0.00000000 0.00000000
Neuron 18 4 1.00000000 0 4.50000000 0.00000000 0.00000000 0.00000000
Neuron 19 4 1.00000000 0 4.50000000 0.00000000 0.00000000 0.00000000
Neuron 20 4 1.00000000 0 4.50000000 0.00000000 0.00000000 0.00000000
Link 1 16 1 0 -1.91357158
Link 2 16 2 0 1.55275124
Link 3 16 3 0 -0.42898342
Link 4 16 4 0 -1.41489914
Link 5 16 5 0 -0.09503464
Link 6 16 6 0 0.57737968
Link 7 16 7 0 0.33738212
Link 8 16 8 0 0.35143971
Link 9 16 9 0 0.17831965
Link 10 16 10 0 1.72320093
Link 11 16 11 0 2.15547655
Link 12 16 12 0 -2.91988891
Link 13 16 13 0 -0.02218696
Link 14 16 14 0 3.33550571
Link 15 16 15 0 -1.56778161
Link 1 17 16 0 0.15521714
Link 2 17 17 0 0.21298868
Link 3 17 18 0 0.32152013
Link 4 17 19 0 -0.12844478
Link 5 17 20 0 1.04983291
Link 6 17 21 0 0.24292734
Link 7 17 22 0 -3.25901059
Link 8 17 23 0 0.03082370
Link 9 17 24 0 0.72550127
Link 10 17 25 0 0.09756767
Link 11 17 26 0 1.24466689
Link 12 17 27 0 -3.82445753
Link 13 17 28 0 0.26548051
Link 14 17 29 0 0.70564516
Link 15 17 30 0 0.58079727
Link 1 18 31 0 0.92666402
Link 2 18 32 0 -1.66240425
Link 3 18 33 0 1.91058077
Link 4 18 34 0 -0.10148931
Link 5 18 35 0 -0.38714255
Link 6 18 36 0 0.11826495
Link 7 18 37 0 -0.81035798
Link 8 18 38 0 0.56183050
Link 9 18 39 0 -0.66054262
Link 10 18 40 0 1.13028352
Link 11 18 41 0 0.20844905
Link 12 18 42 0 -3.54319895
Link 13 18 43 0 -1.92742698
Link 14 18 44 0 -0.31460005
Link 15 18 45 0 -2.66803491
Link 1 19 46 0 -0.17332225
Link 2 19 47 0 2.55384991
Link 3 19 48 0 -1.80019532
Link 4 19 49 0 0.24571978
Link 5 19 50 0 -0.44627216
Link 6 19 51 0 1.84579617
Link 7 19 52 0 -0.83008820
Link 8 19 53 0 -0.80774865
Link 9 19 54 0 -1.15982543
Link 10 19 55 0 0.68324839
Link 11 19 56 0 0.12100589
Link 12 19 57 0 -1.22548600
Link 13 19 58 0 0.67199850
Link 14 19 59 0 -0.48377941
Link 15 19 60 0 -0.49224830
Link 1 20 61 0 -0.09802545
Link 2 20 62 0 0.11871700
Link 3 20 63 0 0.16936247
Link 4 20 64 0 0.42581331
Link 5 20 65 0 1.78988006
Link 6 20 66 0 -0.29532762
Link 7 20 67 0 2.42335277
Link 8 20 68 0 -0.52912229
Link 9 20 69 0 0.75753044
Link 10 20 70 0 0.27268288
Link 11 20 71 0 -1.40409558
Link 12 20 72 0 2.43464461
Link 13 20 73 0 -0.66029847
Link 14 20 74 0 0.38032167
Link 15 20 75 0 -1.42350536
GenomeEnd

GenomeStart 10772
Neuron 1 1 0.00000000 1 0.00000000 0.00000000 0.00000000 0.00000000
Neuron 2 1 0.00000000 1 0.00000000 0.00000000 0.00000000 0.00000000
Neuron 3 1 0.00000000 1 0.00000000 0.00000000 0.00000000 0.00000000
Neuron 4 1 0.00000000 1 0.00000000 0.00000000 0.00000000 0.00000000
Neuron 5 1 0.00000000 1 0.00000000 0.00000000 0.00000000 0.00000000
Neuron 6 1 0.00000000 1 0.00000000 0.00000000 0.00000000 0.00000000
Neuron 7 1 0.00000000 1 0.00000000 0.00000000 0.00000000 0.00000000
Neuron 8 1 0.00000000 1 0.00000000 0.00000000 0.00000000 0.00000000
Neuron 9 1 0.00000000 1 0.00000000 0.00000000 0.00000000 0.00000000
Neuron 10 1 0.00000000 1 0.00000000 0.00000000 0.00000000 0.00000000
Neuron 11 1 0.00000000 1 0.00000000 0.00000000 0.00000000 0.00000000
Neuron 12 1 0.00000000 1 0.00000000 0.00000000 0.00000000 0.00000000
Neuron 13 1 0.00000000 1 0.00000000 0.00000000 0.00000000 0.00000000
Neuron 14 1 0.00000000 1 0.00000000 0.00000000 0.00000000 0.00000000
Neuron 15 2 0.00000000 1 0.00000000 0.00000000 0.00000000 0.00000000
Neuron 16 4 1.00000000 0 4.50000000 0.00000000 0.00000000 0.00000000
Neuron 17 4 1.00000000 0 4.50000000 0.00000000 0.00000000 0.00000000
Neuron 18 4 1.00000000 0 4.50000000 0.00000000 0.00000000 0.00000000
Neuron 19 4 1.00000000 0 4.50000000 0.00000000 0.00000000 0.00000000
Neuron 20 4 1.00000000 0 4.50000000 0.00000000 0.00000000 0.00000000
Link 1 16 1 0 -0.20587023
Link 2 16 2 0 0.64743492
Link 3 16 3 0 -0.00939207
Link 4 16 4 0 -0.08146916
Link 5 16 5 0 0.31485946
Link 6 16 6 0 0.57737968
Link 7 16 7 0 -0.19539476
Link 8 16 8 0 -0.14980773
Link 9 16 9 0 0.17831965
Link 10 16 10 0 1.01955855
Link 11 16 11 0 0.85653249
Link 12 16 12 0 0.78542436
Link 13 16 13 0 -0.02218696
Link 14 16 14 0 -0.09237142
Link 15 16 15 0 0.63090915
Link 1 17 16 0 1.08522294
Link 2 17 17 0 -0.11029389
Link 3 17 18 0 0.26588107
Link 4 17 19 0 -1.51577807
Link 5 17 20 0 -0.36935408
Link 6 17 21 0 0.24292734
Link 7 17 22 0 0.39094211
Link 8 17 23 0 -0.48716697
Link 9 17 24 0 0.45762505
Link 10 17 25 0 0.09756767
Link 11 17 26 0 0.14371166
Link 12 17 27 0 -0.24422056
Link 13 17 28 0 0.26548051
Link 14 17 29 0 0.59841075
Link 15 17 30 0 -0.13991998
Link 1 18 31 0 -0.93771172
Link 2 18 32 0 -2.05986206
Link 3 18 33 0 -0.82543413
Link 4 18 34 0 -0.50723289
Link 5 18 35 0 -0.03766747
Link 6 18 36 0 -0.35668890
Link 7 18 37 0 -0.46210364
Link 8 18 38 0 -0.00650044
Link 9 18 39 0 0.04367199
Link 10 18 40 0 0.11325419
Link 11 18 41 0 -0.05135883
Link 12 18 42 0 -0.06985687
Link 13 18 43 0 -0.81730094
Link 14 18 44 0 0.37546159
Link 15 18 45 0 0.36547441
Link 1 19 46 0 -0.16948836
Link 2 19 47 0 0.06743398
Link 3 19 48 0 -0.31974242
Link 4 19 49 0 -0.09646901
Link 5 19 50 0 -0.23523667
Link 6 19 51 0 1.03301196
Link 7 19 52 0 -0.32123020
Link 8 19 53 0 -0.24506363
Link 9 19 54 0 -0.68964202
Link 10 19 55 0 0.68324839
Link 11 19 56 0 0.12100589
Link 12 19 57 0 0.18164617
Link 13 19 58 0 0.66808832
Link 14 19 59 0 0.43311106
Link 15 19 60 0 -0.11740471
Link 1 20 61 0 -0.37513352
Link 2 20 62 0 0.23332164
Link 3 20 63 0 -0.02458266
Link 4 20 64 0 0.31155011
Link 5 20 65 0 0.87699514
Link 6 20 66 0 -0.29532762
Link 7 20 67 0 1.61774041
Link 8 20 68 0 -0.50190360
Link 9 20 69 0 -0.58835108
Link 10 20 70 0 0.27268288
Link 11 20 71 0 0.65123447
Link 12 20 72 0 1.03833125
Link 13 20 73 0 0.55183569
Link 14 20 74 0 -1.57785272
Link 15 20 75 0 1.20702231
GenomeEnd

GenomeStart 10773
Neuron 1 1 0.00000000 1 0.00000000 0.00000000 0.00000000 0.00000000
Neuron 2 1 0.00000000 1 0.00000000 0.00000000 0.00000000 0.00000000
Neuron 3 1 0.00000000 1 0.00000000 0.00000000 0.00000000 0.00000000
Neuron 4 1 0.00000000 1 0.00000000 0.00000000 0.00000000 0.00000000
Neuron 5 1 0.00000000 1 0.00000000 0.00000000 0.00000000 0.00000000
Neuron 6 1 0.00000000 1 0.00000000 0.00000000 0.00000000 0.00000000
Neuron 7 1 0.00000000 1 0.00000000 0.00000000 0.00000000 0.00000000
Neuron 8 1 0.00000000 1 0.00000000 0.00000000 0.00000000 0.00000000
Neuron 9 1 0.00000000 1 0.00000000 0.00000000 0.00000000 0.00000000
Neuron 10 1 0.00000000 1 0.00000000 0.00000000 0.00000000 0.00000000
Neuron 11 1 0.00000000 1 0.00000000 0.00000000 0.00000000 0.00000000
Neuron 12 1 0.00000000 1 0.00000000 0.00000000 0.00000000 0.00000000
Neuron 13 1 0.00000000 1 0.00000000 0.00000000 0.00000000 0.00000000
Neuron 14 1 0.00000000 1 0.00000000 0.00000000 0.00000000 0.00000000
Neuron 15 2 0.00000000 1 0.00000000 0.00000000 0.00000000 0.00000000
Neuron 16 4 1.00000000 0 4.50000000 0.00000000 0.00000000 0.00000000
Neuron 17 4 1.00000000 0 4.50000000 0.00000000 0.00000000 0.00000000
Neuron 18 4 1.00000000 0 4.50000000 0.00000000 0.00000000 0.00000000
Neuron 19 4 1.00000000 0 4.50000000 0.00000000 0.00000000 0.00000000
Neuron 20 4 1.00000000 0 4.50000000 0.00000000 0.00000000 0.00000000
Link 1 16 1 0 3.64519181
Link 2 16 2 0 -0.89312418
Link 3 16 3 0 0.26020082
Link 4 16 4 0 3.48222297
Link 5 16 5 0 -0.11407819
Link 6 16 6 0 0.88393811
Link 7 16 7 0 -1.01351970
Link 8 16 8 0 1.59894101
Link 9 16 9 0 -1.73058260
Link 10 16 10 0 1.29348125
Link 11 16 11 0 -1.50810266
Link 12 16 12 0 1.35367901
Link 13 16 13 0 -0.09985657
Link 14 16 14 0 1.35146642
Link 15 16 15 0 -0.15816218
Link 1 17 16 0 2.64265877
Link 2 17 17 0 -1.04568621
Link 3 17 18 0 0.01477096
Link 4 17 19 0 -0.40147100
Link 5 17 20 0 -0.90249336
Link 6 17 21 0 -0.44289986
Link 7 17 22 0 4.04034547
Link 8 17 23 0 0.62639241
Link 9 17 24 0 -2.23450423
Link 10 17 25 0 0.09756767
Link 11 17 26 0 4.38715781
Link 12 17 27 0 0.64323863
Link 13 17 28 0 0.01362651
Link 14 17 29 0 0.32270272
Link 15 17 30 0 1.18738364
Link 1 18 31 0 -0.35496078
Link 2 18 32 0 0.04449599
Link 3 18 33 0 -0.82543413
Link 4 18 34 0 -1.05427717
Link 5 18 35 0 -0.87391278
Link 6 18 36 0 0.13574633
Link 7 18 37 0 -0.66760765
Link 8 18 38 0 -1.66998810
Link 9 18 39 0 0.04367199
Link 10 18 40 0 -0.54792932
Link 11 18 41 0 3.10977508
Link 12 18 42 0 0.49259926
Link 13 18 43 0 -1.37119663
Link 14 18 44 0 0.37061678
Link 15 18 45 0 -0.04905850
Link 1 19 46 0 -0.17853328
Link 2 19 47 0 -0.94950713
Link 3 19 48 0 -1.86397900
Link 4 19 49 0 -0.14079715
Link 5 19 50 0 -2.71462142
Link 6 19 51 0 1.69753105
Link 7 19 52 0 1.57942442
Link 8 19 53 0 0.09987182
Link 9 19 54 0 -1.22115238
Link 10 19 55 0 0.05072176
Link 11 19 56 0 0.12100589
Link 12 19 57 0 -1.94134342
Link 13 19 58 0 -1.43902402
Link 14 19 59 0 -0.26526688
Link 15 19 60 0 -0.76470230
Link 1 20 61 0 -0.37513352
Link 2 20 62 0 1.20987579
Link 3 20 63 0 -0.63159581
Link 4 20 64 0 0.77016511
Link 5 20 65 0 -0.03588977
Link 6 20 66 0 -0.29532762
Link 7 20 67 0 1.13692130
Link 8 20 68 0 -0.52664266
Link 9 20 69 0 2.43501083
Link 10 20 70 0 1.95242164
Link 11 20 71 0 -0.65480514
Link 12 20 72 0 -0.07408369
Link 13 20 73 0 0.18585772
Link 14 20 74 0 -1.32560197
Link 15 20 75 0 1.49177527
GenomeEnd

GenomeStart 10774
Neuron 1 1 0.00000000 1 0.00000000 0.00000000 0.00000000 0.00000000
Neuron 2 1 0.00000000 1 0.00000000 0.00000000 0.00000000 0.00000000
Neuron 3 1 0.00000000 1 0.00000000 0.00000000 0.00000000 0.00000000
Neuron 4 1 0.00000000 1 0.00000000 0.00000000 0.00000000 0.00000000
Neuron 5 1 0.00000000 1 0.00000000 0.00000000 0.00000000 0.00000000
Neuron 6 1 0.00000000 1 0.00000000 0.00000000 0.00000000 0.00000000
Neuron 7 1 0.00000000 1 0.00000000 0.00000000 0.00000000 0.00000000
Neuron 8 1 0.00000000 1 0.00000000 0.00000000 0.00000000 0.00000000
Neuron 9 1 0.00000000 1 0.00000000 0.00000000 0.00000000 0.00000000
Neuron 10 1 0.00000000 1 0.00000000 0.00000000 0.00000000 0.00000000
Neuron 11 1 0.00000000 1 0.00000000 0.00000000 0.00000000 0.00000000
Neuron 12 1 0.00000000 1 0.00000000 0.00000000 0.00000000 0.00000000
Neuron 13 1 0.00000000 1 0.00000000 0.00000000 0.00000000 0.00000000
Neuron 14 1 0.00000000 1 0.00000000 0.00000000 0.00000000 0.00000000
Neuron 15 2 0.00000000 1 0.00000000 0.00000000 0.00000000 0.00000000
Neuron 16 4 1.00000000 0 4.50000000 0.00000000 0.00000000 0.00000000
Neuron 17 4 1.00000000 0 4.50000000 0.00000000 0.00000000 0.00000000
Neuron 18 4 1.00000000 0 4.50000000 0.00000000 0.00000000 0.00000000
Neuron 19 4 1.00000000 0 4.50000000 0.00000000 0.00000000 0.00000000
Neuron 20 4 1.00000000 0 4.50000000 0.00000000 0.00000000 0.00000000
Link 1 16 1 0 -0.30703909
Link 2 16 2 0 0.64743492
Link 3 16 3 0 0.36079745
Link 4 16 4 0 -1.01388592
Link 5 16 5 0 -0.13948485
Link 6 16 6 0 1.35644093
Link 7 16 7 0 3.74407178
Link 8 16 8 0 0.83681753
Link 9 16 9 0 0.17831965
Link 10 16 10 0 0.37744911
Link 11 16 11 0 1.57280191
Link 12 16 12 0 0.57797479
Link 13 16 13 0 1.59178442
Link 14 16 14 0 2.87557604
Link 15 16 15 0 -1.25162511
Link 1 17 16 0 0.18507950
Link 2 17 17 0 -1.82589190
Link 3 17 18 0 0.26588107
Link 4 17 19 0 -1.27109592
Link 5 17 20 0 1.80474258
Link 6 17 21 0 1.10538042
Link 7 17 22 0 2.89718314
Link 8 17 23 0 0.87022004
Link 9 17 24 0 1.83324686
Link 10 17 25 0 0.23273415
Link 11 17 26 0 1.37086093
Link 12 17 27 0 0.39529481
Link 13 17 28 0 0.55159154
Link 14 17 29 0 2.19132435
Link 15 17 30 0 -0.95895260
Link 1 18 31 0 1.33542894
Link 2 18 32 0 -2.05986206
Link 3 18 33 0 -3.60051271
Link 4 18 34 0 -0.50723289
Link 5 18 35 0 -2.17808313
Link 6 18 36 0 -0.35668890
Link 7 18 37 0 0.64480270
Link 8 18 38 0 -1.20542008
Link 9 18 39 0 0.04367199
Link 10 18 40 0 -1.31585131
Link 11 18 41 0 -0.65974532
Link 12 18 42 0 -0.06985687
Link 13 18 43 0 -0.81730094
Link 14 18 44 0 -0.53048036
Link 15 18 45 0 2.01049837
Link 1 19 46 0 -0.28957869
Link 2 19 47 0 -0.12040745
Link 3 19 48 0 -0.31974242
Link 4 19 49 0 -0.09646901
Link 5 19 50 0 -0.92411573
Link 6 19 51 0 -0.07046104
Link 7 19 52 0 1.39879299
Link 8 19 53 0 1.22264779
Link 9 19 54 0 0.10208442
Link 10 19 55 0 0.20418409
Link 11 19 56 0 0.75991089
Link 12 19 57 0 0.09421064
Link 13 19 58 0 -0.26166570
Link 14 19 59 0 0.82344280
Link 15 19 60 0 -3.01583911
Link 1 20 61 0 -1.22774438
Link 2 20 62 0 -0.60158849
Link 3 20 63 0 1.26665548
Link 4 20 64 0 -1.54655599
Link 5 20 65 0 1.13701285
Link 6 20 66 0 -4.76235237
Link 7 20 67 0 1.61774041
Link 8 20 68 0 1.31448179
Link 9 20 69 0 -1.90050966
Link 10 20 70 0 -1.18648335
Link 11 20 71 0 -1.80520035
Link 12 20 72 0 1.03833125
Link 13 20 73 0 1.37659840
Link 14 20 74 0 -0.73210852
Link 15 20 75 0 2.21077609
GenomeEnd

GenomeStart 10775
Neuron 1 1 0.00000000 1 0.00000000 0.00000000 0.00000000 0.00000000
Neuron 2 1 0.00000000 1 0.00000000 0.00000000 0.00000000 0.00000000
Neuron 3 1 0.00000000 1 0.00000000 0.00000000 0.00000000 0.00000000
Neuron 4 1 0.00000000 1 0.00000000 0.00000000 0.00000000 0.00000000
Neuron 5 1 0.00000000 1 0.00000000 0.00000000 0.00000000 0.00000000
Neuron 6 1 0.00000000 1 0.00000000 0.00000000 0.00000000 0.00000000
Neuron 7 1 0.00000000 1 0.00000000 0.00000000 0.00000000 0.00000000
Neuron 8 1 0.00000000 1 0.00000000 0.00000000 0.00000000 0.00000000
Neuron 9 1 0.00000000 1 0.00000000 0.00000000 0.00000000 0.00000000
Neuron 10 1 0.00000000 1 0.00000000 0.00000000 0.00000000 0.00000000
Neuron 11 1 0.00000000 1 0.00000000 0.00000000 0.00000000 0.00000000
Neuron 12 1 0.00000000 1 0.00000000 0.00000000 0.00000000 0.00000000
Neuron 13 1 0.00000000 1 0.00000000 0.00000000 0.00000000 0.00000000
Neuron 14 1 0.00000000 1 0.00000000 0.00000000 0.00000000 0.00000000
Neuron 15 2 0.00000000 1 0.00000000 0.00000000 0.00000000 0.00000000
Neuron 16 4 1.00000000 0 4.50000000 0.00000000 0.00000000 0.00000000
Neuron 17 4 1.00000000 0 4.50000000 0.00000000 0.00000000 0.00000000
Neuron 18 4 1.00000000 0 4.50000000 0.00000000 0.00000000 0.00000000
Neuron 19 4 1.00000000 0 4.50000000 0.00000000 0.00000000 0.00000000
Neuron 20 4 1.00000000 0 4.50000000 0.00000000 0.00000000 0.00000000
Link 1 16 1 0 0.93845943
Link 2 16 2 0 -0.19322795
Link 3 16 3 0 0.79123766
Link 4 16 4 0 -0.57792901
Link 5 16 5 0 -0.88035218
Link 6 16 6 0 0.51081118
Link 7 16 7 0 -0.21893216
Link 8 16 8 0 1.04126293
Link 9 16 9 0 2.55887020
Link 10 16 10 0 1.29085856
Link 11 16 11 0 0.85653249
Link 12 16 12 0 -1.36610004
Link 13 16 13 0 -0.44682341
Link 14 16 14 0 1.12495828
Link 15 16 15 0 -0.61609241
Link 1 17 16 0 -0.30738242
Link 2 17 17 0 0.05134740
Link 3 17 18 0 -0.54547258
Link 4 17 19 0 -0.46874524
Link 5 17 20 0 0.34665784
Link 6 17 21 0 0.75260552
Link 7 17 22 0 0.65610981
Link 8 17 23 0 -0.36671804
Link 9 17 24 0 0.59156316
Link 10 17 25 0 0.50861384
Link 11 17 26 0 0.10167241
Link 12 17 27 0 -0.02300905
Link 13 17 28 0 0.05473494
Link 14 17 29 0 0.32827807
Link 15 17 30 0 0.85954988
Link 1 18 31 0 -0.36850337
Link 2 18 32 0 -1.09071627
Link 3 18 33 0 0.54257332
Link 4 18 34 0 -0.63590656
Link 5 18 35 0 0.77782525
Link 6 18 36 0 -0.21220760
Link 7 18 37 0 1.09114353
Link 8 18 38 0 -0.20342112
Link 9 18 39 0 -0.79507798
Link 10 18 40 0 -0.16740165
Link 11 18 41 0 -0.39721938
Link 12 18 42 0 0.45853297
Link 13 18 43 0 0.22106464
Link 14 18 44 0 0.41788232
Link 15 18 45 0 -1.96113468
Link 1 19 46 0 -1.36316740
Link 2 19 47 0 1.24800866
Link 3 19 48 0 -0.99992370
Link 4 19 49 0 -0.11390271
Link 5 19 50 0 -0.34075442
Link 6 19 51 0 1.19844970
Link 7 19 52 0 -0.56041902
Link 8 19 53 0 -0.52640614
Link 9 19 54 0 -0.55359050
Link 10 19 55 0 0.68324839
Link 11 19 56 0 0.35451064
Link 12 19 57 0 0.14651174
Link 13 19 58 0 0.34797776
Link 14 19 59 0 1.81438643
Link 15 19 60 0 -0.30482651
Link 1 20 61 0 -0.23657949
Link 2 20 62 0 -0.47541734
Link 3 20 63 0 0.21594134
Link 4 20 64 0 -0.26630356
Link 5 20 65 0 -0.14632863
Link 6 20 66 0 -0.07128361
Link 7 20 67 0 0.08178198
Link 8 20 68 0 -1.58230652
Link 9 20 69 0 -2.99923704
Link 10 20 70 0 0.27268288
Link 11 20 71 0 -0.57899716
Link 12 20 72 0 0.31604968
Link 13 20 73 0 3.09524827
Link 14 20 74 0 0.07300409
Link 15 20 75 0 0.29828410
GenomeEnd

GenomeStart 10776
Neuron 1 1 0.00000000 1 0.00000000 0.00000000 0.00000000 0.00000000
Neuron 2 1 0.00000000 1 0.00000000 0.00000000 0.00000000 0.00000000
Neuron 3 1 0.00000000 1 0.00000000 0.00000000 0.00000000 0.00000000
Neuron 4 1 0.00000000 1 0.00000000 0.00000000 0.00000000 0.00000000
Neuron 5 1 0.00000000 1 0.00000000 0.00000000 0.00000000 0.00000000
Neuron 6 1 0.00000000 1 0.00000000 0.00000000 0.00000000 0.00000000
Neuron 7 1 0.00000000 1 0.00000000 0.00000000 0.00000000 0.00000000
Neuron 8 1 0.00000000 1 0.00000000 0.00000000 0.00000000 0.00000000
Neuron 9 1 0.00000000 1 0.00000000 0.00000000 0.00000000 0.00000000
Neuron 10 1 0.00000000 1 0.00000000 0.00000000 0.00000000 0.00000000
Neuron 11 1 0.00000000 1 0.00000000 0.00000000 0.00000000 0.00000000
Neuron 12 1 0.00000000 1 0.00000000 0.00000000 0.00000000 0.00000000
Neuron 13 1 0.00000000 1 0.00000000 0.00000000 0.00000000 0.00000000
Neuron 14 1 0.00000000 1 0.00000000 0.00000000 0.00000000 0.00000000
Neuron 15 2 0.00000000 1 0.00000000 0.00000000 0.00000000 0.00000000
Neuron 16 4 1.00000000 0 4.50000000 0.00000000 0.00000000 0.00000000
Neuron 17 4 1.00000000 0 4.50000000 0.00000000 0.00000000 0.00000000
Neuron 18 4 1.00000000 0 4.50000000 0.00000000 0.00000000 0.00000000
Neuron 19 4 1.00000000 0 4.50000000 0.00000000 0.00000000 0.00000000
Neuron 20 4 1.00000000 0 4.50000000 0.00000000 0.00000000 0.00000000
Link 1 16 1 0 0.28604999
Link 2 16 2 0 -2.15453048
Link 3 16 3 0 1.69615772
Link 4 16 4 0 1.36686300
Link 5 16 5 0 0.31485946
Link 6 16 6 0 0.57737968
Link 7 16 7 0 -0.07858516
Link 8 16 8 0 0.73267312
Link 9 16 9 0 0.17831965
Link 10 16 10 0 -0.23566393
Link 11 16 11 0 0.85653249
Link 12 16 12 0 1.07779168
Link 13 16 13 0 -0.02218696
Link 14 16 14 0 0.28034303
Link 15 16 15 0 0.65498825
Link 1 17 16 0 -2.54478591
Link 2 17 17 0 -0.11029389
Link 3 17 18 0 0.21024201
Link 4 17 19 0 -0.80904569
Link 5 17 20 0 -0.59967345
Link 6 17 21 0 0.24292734
Link 7 17 22 0 -0.75472274
Link 8 17 23 0 -0.35706656
Link 9 17 24 0 0.49363689
Link 10 17 25 0 0.09756767
Link 11 17 26 0 1.02813806
Link 12 17 27 0 -0.27254555
Link 13 17 28 0 0.26548051
Link 14 17 29 0 0.32270272
Link 15 17 30 0 0.07177953
Link 1 18 31 0 -0.93771172
Link 2 18 32 0 1.00308237
Link 3 18 33 0 -0.82543413
Link 4 18 34 0 -0.73696097
Link 5 18 35 0 0.58876308
Link 6 18 36 0 -0.20804468
Link 7 18 37 0 -0.11430707
Link 8 18 38 0 -0.00650044
Link 9 18 39 0 0.04367199
Link 10 18 40 0 0.11325419
Link 11 18 41 0 -0.31116672
Link 12 18 42 0 -0.06985687
Link 13 18 43 0 0.29282510
Link 14 18 44 0 0.03994873
Link 15 18 45 0 0.15124973
Link 1 19 46 0 -0.16565447
Link 2 19 47 0 -0.05783258
Link 3 19 48 0 -0.19965209
Link 4 19 49 0 -0.09646901
Link 5 19 50 0 -0.23523667
Link 6 19 51 0 0.55110324
Link 7 19 52 0 -0.29074984
Link 8 19 53 0 0.68659017
Link 9 19 54 0 -0.21945860
Link 10 19 55 0 0.74489578
Link 11 19 56 0 0.12100589
Link 12 19 57 0 1.33165991
Link 13 19 58 0 0.14450514
Link 14 19 59 0 -0.26526688
Link 15 19 60 0 -0.11740471
Link 1 20 61 0 -0.37513352
Link 2 20 62 0 0.02606281
Link 3 20 63 0 1.51210059
Link 4 20 64 0 0.28678243
Link 5 20 65 0 -0.03588977
Link 6 20 66 0 2.19312113
Link 7 20 67 0 0.81212806
Link 8 20 68 0 0.87957396
Link 9 20 69 0 -0.44819483
Link 10 20 70 0 0.27268288
Link 11 20 71 0 -1.41966002
Link 12 20 72 0 -0.35798212
Link 13 20 73 0 -0.20361950
Link 14 20 74 0 4.24433119
Link 15 20 75 0 3.95135350
GenomeEnd

GenomeStart 10755
Neuron 1 1 0.00000000 1 0.00000000 0.00000000 0.00000000 0.00000000
Neuron 2 1 0.00000000 1 0.00000000 0.00000000 0.00000000 0.00000000
Neuron 3 1 0.00000000 1 0.00000000 0.00000000 0.00000000 0.00000000
Neuron 4 1 0.00000000 1 0.00000000 0.00000000 0.00000000 0.00000000
Neuron 5 1 0.00000000 1 0.00000000 0.00000000 0.00000000 0.00000000
Neuron 6 1 0.00000000 1 0.00000000 0.00000000 0.00000000 0.00000000
Neuron 7 1 0.00000000 1 0.00000000 0.00000000 0.00000000 0.00000000
Neuron 8 1 0.00000000 1 0.00000000 0.00000000 0.00000000 0.00000000
Neuron 9 1 0.00000000 1 0.00000000 0.00000000 0.00000000 0.00000000
Neuron 10 1 0.00000000 1 0.00000000 0.00000000 0.00000000 0.00000000
Neuron 11 1 0.00000000 1 0.00000000 0.00000000 0.00000000 0.00000000
Neuron 12 1 0.00000000 1 0.00000000 0.00000000 0.00000000 0.00000000
Neuron 13 1 0.00000000 1 0.00000000 0.00000000 0.00000000 0.00000000
Neuron 14 1 0.00000000 1 0.00000000 0.00000000 0.00000000 0.00000000
Neuron 15 2 0.00000000 1 0.00000000 0.00000000 0.00000000 0.00000000
Neuron 16 4 1.00000000 0 4.50000000 0.00000000 0.00000000 0.00000000
Neuron 17 4 1.00000000 0 4.50000000 0.00000000 0.00000000 0.00000000
Neuron 18 4 1.00000000 0 4.50000000 0.00000000 0.00000000 0.00000000
Neuron 19 4 1.00000000 0 4.50000000 0.00000000 0.00000000 0.00000000
Neuron 20 4 1.00000000 0 4.50000000 0.00000000 0.00000000 0.00000000
Link 1 16 1 0 0.28604999
Link 2 16 2 0 -0.25788141
Link 3 16 3 0 0.41019929
Link 4 16 4 0 0.25904111
Link 5 16 5 0 0.31485946
Link 6 16 6 0 0.57737968
Link 7 16 7 0 -0.07858516
Link 8 16 8 0 0.11795404
Link 9 16 9 0 0.17831965
Link 10 16 10 0 0.85851619
Link 11 16 11 0 0.85653249
Link 12 16 12 0 0.49183630
Link 13 16 13 0 -0.02218696
Link 14 16 14 0 0.28034303
Link 15 16 15 0 0.50080874
Link 1 17 16 0 -0.76998199
Link 2 17 17 0 -0.11029389
Link 3 17 18 0 0.21024201
Link 4 17 19 0 -0.80904569
Link 5 17 20 0 -0.35651723
Link 6 17 21 0 0.24292734
Link 7 17 22 0 0.39094211
Link 8 17 23 0 -0.35706656
Link 9 17 24 0 0.45762505
Link 10 17 25 0 0.09756767
Link 11 17 26 0 0.14371166
Link 12 17 27 0 -0.21967223
Link 13 17 28 0 0.26548051
Link 14 17 29 0 0.32270272
Link 15 17 30 0 0.07177953
Link 1 18 31 0 -0.93771172
Link 2 18 32 0 -0.51902829
Link 3 18 33 0 -0.82543413
Link 4 18 34 0 -0.73696097
Link 5 18 35 0 0.31180761
Link 6 18 36 0 -0.20804468
Link 7 18 37 0 0.37498093
Link 8 18 38 0 -0.00650044
Link 9 18 39 0 0.04367199
Link 10 18 40 0 0.11325419
Link 11 18 41 0 -0.31116672
Link 12 18 42 0 -0.06985687
Link 13 18 43 0 0.29282510
Link 14 18 44 0 0.03994873
Link 15 18 45 0 0.00289926
Link 1 19 46 0 -0.16565447
Link 2 19 47 0 -0.05783258
Link 3 19 48 0 -0.19965209
Link 4 19 49 0 -0.09646901
Link 5 19 50 0 -0.23523667
Link 6 19 51 0 0.55110324
Link 7 19 52 0 -0.29074984
Link 8 19 53 0 -0.24506363
Link 9 19 54 0 -0.21945860
Link 10 19 55 0 0.68324839
Link 11 19 56 0 0.12100589
Link 12 19 57 0 0.27732170
Link 13 19 58 0 0.14450514
Link 14 19 59 0 -0.26526688
Link 15 19 60 0 -0.11740471
Link 1 20 61 0 -0.37513352
Link 2 20 62 0 0.02606281
Link 3 20 63 0 0.26252022
Link 4 20 64 0 0.28678243
Link 5 20 65 0 -0.03588977
Link 6 20 66 0 -0.29532762
Link 7 20 67 0 0.81212806
Link 8 20 68 0 -0.47468490
Link 9 20 69 0 -0.44819483
Link 10 20 70 0 0.27268288
Link 11 20 71 0 0.24610126
Link 12 20 72 0 -0.35798212
Link 13 20 73 0 0.31318094
Link 14 20 74 0 -0.16147343
Link 15 20 75 0 0.57194739
GenomeEnd

GenomeStart 10777
Neuron 1 1 0.00000000 1 0.00000000 0.00000000 0.00000000 0.00000000
Neuron 2 1 0.00000000 1 0.00000000 0.00000000 0.00000000 0.00000000
Neuron 3 1 0.00000000 1 0.00000000 0.00000000 0.00000000 0.00000000
Neuron 4 1 0.00000000 1 0.00000000 0.00000000 0.00000000 0.00000000
Neuron 5 1 0.00000000 1 0.00000000 0.00000000 0.00000000 0.00000000
Neuron 6 1 0.00000000 1 0.00000000 0.00000000 0.00000000 0.00000000
Neuron 7 1 0.00000000 1 0.00000000 0.00000000 0.00000000 0.00000000
Neuron 8 1 0.00000000 1 0.00000000 0.00000000 0.00000000 0.00000000
Neuron 9 1 0.00000000 1 0.00000000 0.00000000 0.00000000 0.00000000
Neuron 10 1 0.00000000 1 0.00000000 0.00000000 0.00000000 0.00000000
Neuron 11 1 0.00000000 1 0.00000000 0.00000000 0.00000000 0.00000000
Neuron 12 1 0.00000000 1 0.00000000 0.00000000 0.00000000 0.00000000
Neuron 13 1 0.00000000 1 0.00000000 0.00000000 0.00000000 0.00000000
Neuron 14 1 0.00000000 1 0.00000000 0.00000000 0.00000000 0.00000000
Neuron 15 2 0.00000000 1 0.00000000 0.00000000 0.00000000 0.00000000
Neuron 16 4 1.00000000 0 4.50000000 0.00000000 0.00000000 0.00000000
Neuron 17 4 1.00000000 0 4.50000000 0.00000000 0.00000000 0.00000000
Neuron 18 4 1.00000000 0 4.50000000 0.00000000 0.00000000 0.00000000
Neuron 19 4 1.00000000 0 4.50000000 0.00000000 0.00000000 0.00000000
Neuron 20 4 1.00000000 0 4.50000000 0.00000000 0.00000000 0.00000000
Link 1 16 1 0 -1.51510666
Link 2 16 2 0 2.95823542
Link 3 16 3 0 -0.45854060
Link 4 16 4 0 3.81309702
Link 5 16 5 0 -1.23526719
Link 6 16 6 0 1.59067049
Link 7 16 7 0 0.43818476
Link 8 16 8 0 2.56363109
Link 9 16 9 0 1.00079348
Link 10 16 10 0 -2.75801874
Link 11 16 11 0 -3.24452956
Link 12 16 12 0 4.65193640
Link 13 16 13 0 -1.83327738
Link 14 16 14 0 3.71781060
Link 15 16 15 0 4.51257363
Link 1 17 16 0 -1.01002914
Link 2 17 17 0 4.67299417
Link 3 17 18 0 -2.92172765
Link 4 17 19 0 1.49986267
Link 5 17 20 0 -3.24240852
Link 6 17 21 0 -0.73239845
Link 7 17 22 0 1.66023743
Link 8 17 23 0 0.20758309
Link 9 17 24 0 -2.62419507
Link 10 17 25 0 -0.34228034
Link 11 17 26 0 -4.55809198
Link 12 17 27 0 2.32830287
Link 13 17 28 0 -2.27460555
Link 14 17 29 0 -0.08467360
Link 15 17 30 0 3.62570574
Link 1 18 31 0 -2.74394971
Link 2 18 32 0 -2.65636158
Link 3 18 33 0 -1.38115329
Link 4 18 34 0 3.96569720
Link 5 18 35 0 -0.86725211
Link 6 18 36 0 -1.99128697
Link 7 18 37 0 1.38590655
Link 8 18 38 0 -0.01153600
Link 9 18 39 0 0.04613636
Link 10 18 40 0 -1.34806360
Link 11 18 41 0 0.34966582
Link 12 18 42 0 -2.38430433
Link 13 18 43 0 -5.52500992
Link 14 18 44 0 1.43136387
Link 15 18 45 0 1.85291604
Link 1 19 46 0 -4.55838191
Link 2 19 47 0 0.15070040
Link 3 19 48 0 -0.72807054
Link 4 19 49 0 -0.14564959
Link 5 19 50 0 1.23232215
Link 6 19 51 0 -0.49629200
Link 7 19 52 0 2.34766686
Link 8 19 53 0 -0.75498215
Link 9 19 54 0 -1.76262703
Link 10 19 55 0 -4.04720450
Link 11 19 56 0 -2.24896237
Link 12 19 57 0 2.90963469
Link 13 19 58 0 4.32550279
Link 14 19 59 0 -0.13996551
Link 15 19 60 0 2.20337535
Link 1 20 61 0 -2.46658223
Link 2 20 62 0 -2.59929197
Link 3 20 63 0 5.19968261
Link 4 20 64 0 3.79008606
Link 5 20 65 0 6.86555834
Link 6 20 66 0 2.46675771
Link 7 20 67 0 -1.71594134
Link 8 20 68 0 2.84344004
Link 9 20 69 0 1.80537584
Link 10 20 70 0 -4.20956297
Link 11 20 71 0 -0.71151616
Link 12 20 72 0 -2.29289568
Link 13 20 73 0 1.00131230
Link 14 20 74 0 0.53706473
Link 15 20 75 0 -0.14346751
GenomeEnd

GenomeStart 10778
Neuron 1 1 0.00000000 1 0.00000000 0.00000000 0.00000000 0.00000000
Neuron 2 1 0.00000000 1 0.00000000 0.00000000 0.00000000 0.00000000
Neuron 3 1 0.00000000 1 0.00000000 0.00000000 0.00000000 0.00000000
Neuron 4 1 0.00000000 1 0.00000000 0.00000000 0.00000000 0.00000000
Neuron 5 1 0.00000000 1 0.00000000 0.00000000 0.00000000 0.00000000
Neuron 6 1 0.00000000 1 0.00000000 0.00000000 0.00000000 0.00000000
Neuron 7 1 0.00000000 1 0.00000000 0.00000000 0.00000000 0.00000000
Neuron 8 1 0.00000000 1 0.00000000 0.00000000 0.00000000 0.00000000
Neuron 9 1 0.00000000 1 0.00000000 0.00000000 0.00000000 0.00000000
Neuron 10 1 0.00000000 1 0.00000000 0.00000000 0.00000000 0.00000000
Neuron 11 1 0.00000000 1 0.00000000 0.00000000 0.00000000 0.00000000
Neuron 12 1 0.00000000 1 0.00000000 0.00000000 0.00000000 0.00000000
Neuron 13 1 0.00000000 1 0.00000000 0.00000000 0.00000000 0.00000000
Neuron 14 1 0.00000000 1 0.00000000 0.00000000 0.00000000 0.00000000
Neuron 15 2 0.00000000 1 0.00000000 0.00000000 0.00000000 0.00000000
Neuron 16 4 1.00000000 0 4.50000000 0.00000000 0.00000000 0.00000000
Neuron 17 4 1.00000000 0 4.50000000 0.00000000 0.00000000 0.00000000
Neuron 18 4 1.00000000 0 4.50000000 0.00000000 0.00000000 0.00000000
Neuron 19 4 1.00000000 0 4.50000000 0.00000000 0.00000000 0.00000000
Neuron 20 4 1.00000000 0 4.50000000 0.00000000 0.00000000 0.00000000
Link 1 16 1 0 -1.57713553
Link 2 16 2 0 4.13823359
Link 3 16 3 0 0.07309183
Link 4 16 4 0 4.79091006
Link 5 16 5 0 0.20329905
Link 6 16 6 0 0.12738426
Link 7 16 7 0 -1.48997467
Link 8 16 8 0 2.56363109
Link 9 16 9 0 1.94618061
Link 10 16 10 0 -3.81426435
Link 11 16 11 0 -4.47762993
Link 12 16 12 0 3.40716269
Link 13 16 13 0 -0.35340434
Link 14 16 14 0 4.57843257
Link 15 16 15 0 3.01364177
Link 1 17 16 0 -0.80204550
Link 2 17 17 0 3.39045381
Link 3 17 18 0 -2.92172765
Link 4 17 19 0 0.13827937
Link 5 17 20 0 -3.31064791
Link 6 17 21 0 -0.41248817
Link 7 17 22 0 -0.20505387
Link 8 17 23 0 0.26976455
Link 9 17 24 0 -1.04661702
Link 10 17 25 0 -0.34228034
Link 11 17 26 0 -0.18182928
Link 12 17 27 0 2.90723899
Link 13 17 28 0 -1.46288949
Link 14 17 29 0 -1.11673330
Link 15 17 30 0 4.13162633
Link 1 18 31 0 -1.70448927
Link 2 18 32 0 -3.50645466
Link 3 18 33 0 -1.58394879
Link 4 18 34 0 3.53645436
Link 5 18 35 0 -1.22492904
Link 6 18 36 0 -1.90278329
Link 7 18 37 0 1.17090365
Link 8 18 38 0 -0.07974487
Link 9 18 39 0 4.72499771
Link 10 18 40 0 -2.17656484
Link 11 18 41 0 -3.86107974
Link 12 18 42 0 -3.13971374
Link 13 18 43 0 -4.63707389
Link 14 18 44 0 1.82474746
Link 15 18 45 0 -0.06837672
Link 1 19 46 0 -4.61507004
Link 2 19 47 0 -0.29471725
Link 3 19 48 0 -1.69283693
Link 4 19 49 0 1.35402997
Link 5 19 50 0 2.69286172
Link 6 19 51 0 -0.29029206
Link 7 19 52 0 0.90969573
Link 8 19 53 0 -0.80388806
Link 9 19 54 0 -3.59205908
Link 10 19 55 0 -3.09899442
Link 11 19 56 0 -2.01023133
Link 12 19 57 0 3.19795831
Link 13 19 58 0 5.81877346
Link 14 19 59 0 0.07702109
Link 15 19 60 0 2.94871364
Link 1 20 61 0 -2.48481704
Link 2 20 62 0 -3.00556963
Link 3 20 63 0 3.80361339
Link 4 20 64 0 3.79008606
Link 5 20 65 0 6.86555834
Link 6 20 66 0 0.18842128
Link 7 20 67 0 -1.53351695
Link 8 20 68 0 5.01193273
Link 9 20 69 0 1.80537584
Link 10 20 70 0 -3.91551714
Link 11 20 71 0 -0.45989105
Link 12 20 72 0 -4.38333728
Link 13 20 73 0 1.86834315
Link 14 20 74 0 0.08844264
Link 15 20 75 0 -0.50808741
GenomeEnd

GenomeStart 10779
Neuron 1 1 0.00000000 1 0.00000000 0.00000000 0.00000000 0.00000000
Neuron 2 1 0.00000000 1 0.00000000 0.00000000 0.00000000 0.00000000
Neuron 3 1 0.00000000 1 0.00000000 0.00000000 0.00000000 0.00000000
Neuron 4 1 0.00000000 1 0.00000000 0.00000000 0.00000000 0.00000000
Neuron 5 1 0.00000000 1 0.00000000 0.00000000 0.00000000 0.00000000
Neuron 6 1 0.00000000 1 0.00000000 0.00000000 0.00000000 0.00000000
Neuron 7 1 0.00000000 1 0.00000000 0.00000000 0.00000000 0.00000000
Neuron 8 1 0.00000000 1 0.00000000 0.00000000 0.00000000 0.00000000
Neuron 9 1 0.00000000 1 0.00000000 0.00000000 0.00000000 0.00000000
Neuron 10 1 0.00000000 1 0.00000000 0.00000000 0.00000000 0.00000000
Neuron 11 1 0.00000000 1 0.00000000 0.00000000 0.00000000 0.00000000
Neuron 12 1 0.00000000 1 0.00000000 0.00000000 0.00000000 0.00000000
Neuron 13 1 0.00000000 1 0.00000000 0.00000000 0.00000000 0.00000000
Neuron 14 1 0.00000000 1 0.00000000 0.00000000 0.00000000 0.00000000
Neuron 15 2 0.00000000 1 0.00000000 0.00000000 0.00000000 0.00000000
Neuron 16 4 1.00000000 0 4.50000000 0.00000000 0.00000000 0.00000000
Neuron 17 4 1.00000000 0 4.50000000 0.00000000 0.00000000 0.00000000
Neuron 18 4 1.00000000 0 4.50000000 0.00000000 0.00000000 0.00000000
Neuron 19 4 1.00000000 0 4.50000000 0.00000000 0.00000000 0.00000000
Neuron 20 4 1.00000000 0 4.50000000 0.00000000 0.00000000 0.00000000
Link 1 16 1 0 -1.51510666
Link 2 16 2 0 2.90585803
Link 3 16 3 0 -1.23801386
Link 4 16 4 0 3.81309702
Link 5 16 5 0 -1.23526719
Link 6 16 6 0 1.98432111
Link 7 16 7 0 0.43818476
Link 8 16 8 0 2.86397137
Link 9 16 9 0 -0.34498123
Link 10 16 10 0 -2.75801874
Link 11 16 11 0 -3.30304117
Link 12 16 12 0 4.65193640
Link 13 16 13 0 -1.38755455
Link 14 16 14 0 3.71781060
Link 15 16 15 0 2.32966094
Link 1 17 16 0 -1.01002914
Link 2 17 17 0 4.67299417
Link 3 17 18 0 -2.92172765
Link 4 17 19 0 1.19524979
Link 5 17 20 0 -2.70784631
Link 6 17 21 0 -0.73239845
Link 7 17 22 0 1.08629872
Link 8 17 23 0 1.67619861
Link 9 17 24 0 -3.36766411
Link 10 17 25 0 -0.34228034
Link 11 17 26 0 -4.55809198
Link 12 17 27 0 2.32830287
Link 13 17 28 0 -1.90147862
Link 14 17 29 0 0.73413800
Link 15 17 30 0 3.93997009
Link 1 18 31 0 -2.74394971
Link 2 18 32 0 -2.65636158
Link 3 18 33 0 -0.48070467
Link 4 18 34 0 3.96569720
Link 5 18 35 0 -0.54169591
Link 6 18 36 0 -1.99128697
Link 7 18 37 0 1.38590655
Link 8 18 38 0 -0.01153600
Link 9 18 39 0 -1.88293100
Link 10 18 40 0 -0.04225288
Link 11 18 41 0 -0.02526933
Link 12 18 42 0 -2.38430433
Link 13 18 43 0 -5.52500992
Link 14 18 44 0 1.43136387
Link 15 18 45 0 1.87725455
Link 1 19 46 0 -4.87447737
Link 2 19 47 0 -0.16818751
Link 3 19 48 0 -1.16059412
Link 4 19 49 0 0.88839381
Link 5 19 50 0 1.45793024
Link 6 19 51 0 -0.15662099
Link 7 19 52 0 1.58722190
Link 8 19 53 0 1.29006317
Link 9 19 54 0 -2.09436323
Link 10 19 55 0 -3.93863491
Link 11 19 56 0 -2.24896237
Link 12 19 57 0 2.90963469
Link 13 19 58 0 4.53051088
Link 14 19 59 0 -0.13996551
Link 15 19 60 0 0.28574480
Link 1 20 61 0 -2.25730155
Link 2 20 62 0 -2.59929197
Link 3 20 63 0 5.19968261
Link 4 20 64 0 3.22267067
Link 5 20 65 0 8.00000000
Link 6 20 66 0 2.03591266
Link 7 20 67 0 -1.71594134
Link 8 20 68 0 2.84344004
Link 9 20 69 0 2.33014161
Link 10 20 70 0 -3.63440352
Link 11 20 71 0 -0.71151616
Link 12 20 72 0 -2.29289568
Link 13 20 73 0 -3.64830470
Link 14 20 74 0 -1.78386792
Link 15 20 75 0 2.81746879
GenomeEnd

GenomeStart 10780
Neuron 1 1 0.00000000 1 0.00000000 0.00000000 0.00000000 0.00000000
Neuron 2 1 0.00000000 1 0.00000000 0.00000000 0.00000000 0.00000000
Neuron 3 1 0.00000000 1 0.00000000 0.00000000 0.00000000 0.00000000
Neuron 4 1 0.00000000 1 0.00000000 0.00000000 0.00000000 0.00000000
Neuron 5 1 0.00000000 1 0.00000000 0.00000000 0.00000000 0.00000000
Neuron 6 1 0.00000000 1 0.00000000 0.00000000 0.00000000 0.00000000
Neuron 7 1 0.00000000 1 0.00000000 0.00000000 0.00000000 0.00000000
Neuron 8 1 0.00000000 1 0.00000000 0.00000000 0.00000000 0.00000000
Neuron 9 1 0.00000000 1 0.00000000 0.00000000 0.00000000 0.00000000
Neuron 10 1 0.00000000 1 0.00000000 0.00000000 0.00000000 0.00000000
Neuron 11 1 0.00000000 1 0.00000000 0.00000000 0.00000000 0.00000000
Neuron 12 1 0.00000000 1 0.00000000 0.00000000 0.00000000 0.00000000
Neuron 13 1 0.00000000 1 0.00000000 0.00000000 0.00000000 0.00000000
Neuron 14 1 0.00000000 1 0.00000000 0.00000000 0.00000000 0.00000000
Neuron 15 2 0.00000000 1 0.00000000 0.00000000 0.00000000 0.00000000
Neuron 16 4 1.00000000 0 4.50000000 0.00000000 0.00000000 0.00000000
Neuron 17 4 1.00000000 0 4.50000000 0.00000000 0.00000000 0.00000000
Neuron 18 4 1.00000000 0 4.50000000 0.00000000 0.00000000 0.00000000
Neuron 19 4 1.00000000 0 4.50000000 0.00000000 0.00000000 0.00000000
Neuron 20 4 1.00000000 0 4.50000000 0.00000000 0.00000000 0.00000000
Link 1 16 1 0 -1.51510666
Link 2 16 2 0 2.85348064
Link 3 16 3 0 -0.45854060
Link 4 16 4 0 3.81309702
Link 5 16 5 0 -1.23526719
Link 6 16 6 0 1.59067049
Link 7 16 7 0 0.43818476
Link 8 16 8 0 1.89916685
Link 9 16 9 0 1.00079348
Link 10 16 10 0 -2.75801874
Link 11 16 11 0 -3.36155278
Link 12 16 12 0 4.65193640
Link 13 16 13 0 -1.83327738
Link 14 16 14 0 3.71781060
Link 15 16 15 0 4.51257363
Link 1 17 16 0 0.21338161
Link 2 17 17 0 6.07867672
Link 3 17 18 0 -2.92172765
Link 4 17 19 0 1.49986267
Link 5 17 20 0 -4.25760674
Link 6 17 21 0 -0.73239845
Link 7 17 22 0 2.57060457
Link 8 17 23 0 -0.79411069
Link 9 17 24 0 1.78476821
Link 10 17 25 0 -0.34228034
Link 11 17 26 0 -4.55809198
Link 12 17 27 0 2.32830287
Link 13 17 28 0 -3.92306284
Link 14 17 29 0 -0.08467360
Link 15 17 30 0 3.62570574
Link 1 18 31 0 -4.09263894
Link 2 18 32 0 -2.65636158
Link 3 18 33 0 0.72988067
Link 4 18 34 0 3.96569720
Link 5 18 35 0 -2.24974059
Link 6 18 36 0 -1.99128697
Link 7 18 37 0 -1.41087069
Link 8 18 38 0 0.06346324
Link 9 18 39 0 -0.70538194
Link 10 18 40 0 -0.64018677
Link 11 18 41 0 2.29575488
Link 12 18 42 0 2.03125095
Link 13 18 43 0 -5.52500992
Link 14 18 44 0 1.43136387
Link 15 18 45 0 1.85291604
Link 1 19 46 0 0.09338664
Link 2 19 47 0 0.12109745
Link 3 19 48 0 -0.72807054
Link 4 19 49 0 -0.33547472
Link 5 19 50 0 1.23232215
Link 6 19 51 0 0.18305002
Link 7 19 52 0 2.34766686
Link 8 19 53 0 -0.39211707
Link 9 19 54 0 -1.76262703
Link 10 19 55 0 -3.87920011
Link 11 19 56 0 -3.68234046
Link 12 19 57 0 2.90963469
Link 13 19 58 0 4.32550279
Link 14 19 59 0 -0.13996551
Link 15 19 60 0 -1.63188574
Link 1 20 61 0 -2.46658223
Link 2 20 62 0 -2.75142674
Link 3 20 63 0 5.19968261
Link 4 20 64 0 3.79008606
Link 5 20 65 0 6.59127323
Link 6 20 66 0 2.46675771
Link 7 20 67 0 -1.71594134
Link 8 20 68 0 2.84344004
Link 9 20 69 0 2.85490738
Link 10 20 70 0 -2.01705985
Link 11 20 71 0 2.20392468
Link 12 20 72 0 -1.64063883
Link 13 20 73 0 4.33277383
Link 14 20 74 0 2.98632771
Link 15 20 75 0 0.44825587
GenomeEnd

GenomeStart 10781
Neuron 1 1 0.00000000 1 0.00000000 0.00000000 0.00000000 0.00000000
Neuron 2 1 0.00000000 1 0.00000000 0.00000000 0.00000000 0.00000000
Neuron 3 1 0.00000000 1 0.00000000 0.00000000 0.00000000 0.00000000
Neuron 4 1 0.00000000 1 0.00000000 0.00000000 0.00000000 0.00000000
Neuron 5 1 0.00000000 1 0.00000000 0.00000000 0.00000000 0.00000000
Neuron 6 1 0.00000000 1 0.00000000 0.00000000 0.00000000 0.00000000
Neuron 7 1 0.00000000 1 0.00000000 0.00000000 0.00000000 0.00000000
Neuron 8 1 0.00000000 1 0.00000000 0.00000000 0.00000000 0.00000000
Neuron 9 1 0.00000000 1 0.00000000 0.00000000 0.00000000 0.00000000
Neuron 10 1 0.00000000 1 0.00000000 0.00000000 0.00000000 0.00000000
Neuron 11 1 0.00000000 1 0.00000000 0.00000000 0.00000000 0.00000000
Neuron 12 1 0.00000000 1 0.00000000 0.00000000 0.00000000 0.00000000
Neuron 13 1 0.00000000 1 0.00000000 0.00000000 0.00000000 0.00000000
Neuron 14 1 0.00000000 1 0.00000000 0.00000000 0.00000000 0.00000000
Neuron 15 2 0.00000000 1 0.00000000 0.00000000 0.00000000 0.00000000
Neuron 16 4 1.00000000 0 4.50000000 0.00000000 0.00000000 0.00000000
Neuron 17 4 1.00000000 0 4.50000000 0.00000000 0.00000000 0.00000000
Neuron 18 4 1.00000000 0 4.50000000 0.00000000 0.00000000 0.00000000
Neuron 19 4 1.00000000 0 4.50000000 0.00000000 0.00000000 0.00000000
Neuron 20 4 1.00000000 0 4.50000000 0.00000000 0.00000000 0.00000000
Link 1 16 1 0 -1.25493637
Link 2 16 2 0 4.32607501
Link 3 16 3 0 0.25383770
Link 4 16 4 0 4.16028321
Link 5 16 5 0 -2.46558275
Link 6 16 6 0 3.52439955
Link 7 16 7 0 -1.47734001
Link 8 16 8 0 2.78077029
Link 9 16 9 0 1.35366375
Link 10 16 10 0 -2.35731071
Link 11 16 11 0 -2.60020753
Link 12 16 12 0 1.16898099
Link 13 16 13 0 0.80127110
Link 14 16 14 0 3.00398267
Link 15 16 15 0 5.34626301
Link 1 17 16 0 0.38746300
Link 2 17 17 0 -1.58848842
Link 3 17 18 0 -3.52759636
Link 4 17 19 0 2.71434675
Link 5 17 20 0 -0.26111637
Link 6 17 21 0 -1.36756493
Link 7 17 22 0 1.92895291
Link 8 17 23 0 -0.63999222
Link 9 17 24 0 1.00553911
Link 10 17 25 0 -0.46056246
Link 11 17 26 0 -4.90722373
Link 12 17 27 0 -4.27014985
Link 13 17 28 0 4.87899411
Link 14 17 29 0 0.28124332
Link 15 17 30 0 4.00222785
Link 1 18 31 0 -0.41456343
Link 2 18 32 0 -2.71953490
Link 3 18 33 0 -2.93031098
Link 4 18 34 0 4.83047731
Link 5 18 35 0 -0.38219855
Link 6 18 36 0 -2.32226020
Link 7 18 37 0 2.84675130
Link 8 18 38 0 -3.22568438
Link 9 18 39 0 1.74082919
Link 10 18 40 0 -0.99412519
Link 11 18 41 0 1.14459670
Link 12 18 42 0 -2.95297861
Link 13 18 43 0 -4.67499313
Link 14 18 44 0 -3.40897855
Link 15 18 45 0 1.43061617
Link 1 19 46 0 -6.66721091
Link 2 19 47 0 0.47053438
Link 3 19 48 0 -1.82673689
Link 4 19 49 0 -2.35425886
Link 5 19 50 0 1.23232215
Link 6 19 51 0 -3.44071780
Link 7 19 52 0 3.88793603
Link 8 19 53 0 3.29490036
Link 9 19 54 0 -2.71077609
Link 10 19 55 0 -3.65015870
Link 11 19 56 0 -0.18148595
Link 12 19 57 0 1.92350536
Link 13 19 58 0 3.54514451
Link 14 19 59 0 0.34482101
Link 15 19 60 0 2.86959441
Link 1 20 61 0 -2.46658223
Link 2 20 62 0 -0.72034364
Link 3 20 63 0 5.22699667
Link 4 20 64 0 5.31845302
Link 5 20 65 0 7.38158818
Link 6 20 66 0 3.59411145
Link 7 20 67 0 -2.45700705
Link 8 20 68 0 2.48690756
Link 9 20 69 0 1.82189398
Link 10 20 70 0 -5.86478393
Link 11 20 71 0 -1.21446120
Link 12 20 72 0 -2.29289568
Link 13 20 73 0 -2.38149663
Link 14 20 74 0 1.46173742
Link 15 20 75 0 2.33021027
GenomeEnd

GenomeStart 10782
Neuron 1 1 0.00000000 1 0.00000000 0.00000000 0.00000000 0.00000000
