NEAT_ParametersStart
PopulationSize 45
DynamicCompatibility true
MinSpecies 3
MaxSpecies 12
InnovationsForever false
AllowClones true
YoungAgeTreshold 1
YoungAgeFitnessBoost 1.10000000000000008882
SpeciesDropoffAge 3
StagnationDelta 20.00000000000000000000
OldAgeTreshold 30
OldAgePenalty 1.00000000000000000000
DetectCompetetiveCoevolutionStagnation false
KillWorstSpeciesEach 15
KillWorstAge 10
SurvivalRate 0.10000000000000000555
CrossoverRate 0.75000000000000000000
OverallMutationRate 0.80000000000000004441
InterspeciesCrossoverRate 0.00010000000000000000
MultipointCrossoverRate 0.40000000000000002220
RouletteWheelSelection false
PhasedSearching false
DeltaCoding false
SimplifyingPhaseMPCTreshold 20
SimplifyingPhaseStagnationTreshold 30
ComplexityFloorGenerations 40
NoveltySearch_K 15
NoveltySearch_P_min 0.50000000000000000000
NoveltySearch_Dynamic_Pmin true
NoveltySearch_No_Archiving_Stagnation_Treshold 150
NoveltySearch_Pmin_lowering_multiplier 0.90000000000000002220
NoveltySearch_Pmin_min 0.05000000000000000278
NoveltySearch_Quick_Archiving_Min_Evaluations 8
NoveltySearch_Pmin_raising_multiplier 1.10000000000000008882
NoveltySearch_Recompute_Sparseness_Each 25
MutateAddNeuronProb 0.05000000000000000278
SplitRecurrent true
SplitLoopedRecurrent true
NeuronTries -842150451
MutateAddLinkProb 0.05999999999999999778
MutateAddLinkFromBiasProb 0.00000000000000000000
MutateRemLinkProb 0.01000000000000000021
MutateRemSimpleNeuronProb 0.00000000000000000000
LinkTries 32
RecurrentProb 0.00000000000000000000
RecurrentLoopProb 0.25000000000000000000
MutateWeightsProb 0.90000000000000002220
MutateWeightsSevereProb 0.20000000000000001110
WeightMutationRate 0.25000000000000000000
WeightMutationMaxPower 2.50000000000000000000
WeightReplacementMaxPower 6.00000000000000000000
MaxWeight 8.00000000000000000000
MutateActivationAProb 0.00000000000000000000
MutateActivationBProb 0.00000000000000000000
ActivationAMutationMaxPower 0.00000000000000000000
ActivationBMutationMaxPower 0.00000000000000000000
TimeConstantMutationMaxPower 0.00000000000000000000
BiasMutationMaxPower 1.00000000000000000000
MinActivationA 4.20000000000000017764
MaxActivationA 4.79999999999999982236
MinActivationB 0.00000000000000000000
MaxActivationB 0.00000000000000000000
MutateNeuronActivationTypeProb 0.00000000000000000000
ActivationFunction_SignedSigmoid_Prob 0.50000000000000000000
ActivationFunction_UnsignedSigmoid_Prob 0.00000000000000000000
ActivationFunction_Tanh_Prob 0.25000000000000000000
ActivationFunction_TanhCubic_Prob 0.00000000000000000000
ActivationFunction_SignedStep_Prob 0.25000000000000000000
ActivationFunction_UnsignedStep_Prob 0.00000000000000000000
ActivationFunction_SignedGauss_Prob 0.00000000000000000000
ActivationFunction_UnsignedGauss_Prob 0.00000000000000000000
ActivationFunction_Abs_Prob 0.00000000000000000000
ActivationFunction_SignedSine_Prob 0.00000000000000000000
ActivationFunction_UnsignedSine_Prob 0.00000000000000000000
ActivationFunction_Linear_Prob 0.00000000000000000000
ActivationFunction_Relu_Prob 0.00000000000000000000
ActivationFunction_Softplus_Prob 0.00000000000000000000
MutateNeuronTimeConstantsProb 0.00000000000000000000
MutateNeuronBiasesProb 0.00000000000000000000
MinNeuronTimeConstant 0.00000000000000000000
MaxNeuronTimeConstant 0.00000000000000000000
MinNeuronBias 0.00000000000000000000
MaxNeuronBias 0.00000000000000000000
DisjointCoeff 1.00000000000000000000
ExcessCoeff 1.00000000000000000000
ActivationADiffCoeff 0.00000000000000000000
ActivationBDiffCoeff 0.00000000000000000000
WeightDiffCoeff 4.00000000000000000000
TimeConstantDiffCoeff 0.00000000000000000000
BiasDiffCoeff 0.00000000000000000000
ActivationFunctionDiffCoeff 0.00000000000000000000
CompatTreshold 5.59999999999999786837
MinCompatTreshold 0.20000000000000001110
CompatTresholdModifier 0.29999999999999998890
CompatTreshChangeInterval_Generations 1
CompatTreshChangeInterval_Evaluations 10
DivisionThreshold 0.02999999999999999889
VarianceThreshold 0.02999999999999999889
BandThreshold 0.29999999999999998890
InitialDepth 3
MaxDepth 3
IterationLevel 1
TournamentSize 4
CPPN_Bias 1.00000000000000000000
Width 2.00000000000000000000
Height 2.00000000000000000000
Qtree_X 0.00000000000000000000
Qtree_Y 0.00000000000000000000
Leo false
LeoThreshold 0.10000000000000000555
LeoSeed false
GeometrySeed false
Elitism 0.05000000000000000278
NEAT_ParametersEnd
InnovationDatabaseStart
NextInnovNum: 1370
NextNeuronID: 386
InnovationDatabaseEnd

GenomeStart 10799
Neuron 1 1 0.00000000 1 0.00000000 0.00000000 0.00000000 0.00000000
Neuron 2 1 0.00000000 1 0.00000000 0.00000000 0.00000000 0.00000000
Neuron 3 1 0.00000000 1 0.00000000 0.00000000 0.00000000 0.00000000
Neuron 4 1 0.00000000 1 0.00000000 0.00000000 0.00000000 0.00000000
Neuron 5 1 0.00000000 1 0.00000000 0.00000000 0.00000000 0.00000000
Neuron 6 1 0.00000000 1 0.00000000 0.00000000 0.00000000 0.00000000
Neuron 7 1 0.00000000 1 0.00000000 0.00000000 0.00000000 0.00000000
Neuron 8 1 0.00000000 1 0.00000000 0.00000000 0.00000000 0.00000000
Neuron 9 1 0.00000000 1 0.00000000 0.00000000 0.00000000 0.00000000
Neuron 10 1 0.00000000 1 0.00000000 0.00000000 0.00000000 0.00000000
Neuron 11 1 0.00000000 1 0.00000000 0.00000000 0.00000000 0.00000000
Neuron 12 1 0.00000000 1 0.00000000 0.00000000 0.00000000 0.00000000
Neuron 13 1 0.00000000 1 0.00000000 0.00000000 0.00000000 0.00000000
Neuron 14 1 0.00000000 1 0.00000000 0.00000000 0.00000000 0.00000000
Neuron 15 2 0.00000000 1 0.00000000 0.00000000 0.00000000 0.00000000
Neuron 16 4 1.00000000 0 4.50000000 0.00000000 0.00000000 0.00000000
Neuron 17 4 1.00000000 0 4.50000000 0.00000000 0.00000000 0.00000000
Neuron 18 4 1.00000000 0 4.50000000 0.00000000 0.00000000 0.00000000
Neuron 19 4 1.00000000 0 4.50000000 0.00000000 0.00000000 0.00000000
Neuron 20 4 1.00000000 0 4.50000000 0.00000000 0.00000000 0.00000000
Link 1 16 1 0 0.28604999
Link 2 16 2 0 -0.25788141
Link 3 16 3 0 0.41019929
Link 4 16 4 0 0.25904111
Link 5 16 5 0 0.31485946
Link 6 16 6 0 0.57737968
Link 7 16 7 0 -0.07858516
Link 8 16 8 0 0.11795404
Link 9 16 9 0 0.17831965
Link 10 16 10 0 0.85851619
Link 11 16 11 0 0.85653249
Link 12 16 12 0 0.49183630
Link 13 16 13 0 -0.02218696
Link 14 16 14 0 0.28034303
Link 15 16 15 0 0.50080874
Link 1 17 16 0 -0.76998199
Link 2 17 17 0 -0.11029389
Link 3 17 18 0 0.21024201
Link 4 17 19 0 -0.80904569
Link 5 17 20 0 -0.35651723
Link 6 17 21 0 0.24292734
Link 7 17 22 0 0.39094211
Link 8 17 23 0 -0.35706656
Link 9 17 24 0 0.45762505
Link 10 17 25 0 0.09756767
Link 11 17 26 0 0.14371166
Link 12 17 27 0 -0.21967223
Link 13 17 28 0 0.26548051
Link 14 17 29 0 0.32270272
Link 15 17 30 0 0.07177953
Link 1 18 31 0 -0.93771172
Link 2 18 32 0 -0.51902829
Link 3 18 33 0 -0.82543413
Link 4 18 34 0 -0.73696097
Link 5 18 35 0 0.31180761
Link 6 18 36 0 -0.20804468
Link 7 18 37 0 0.37498093
Link 8 18 38 0 -0.00650044
Link 9 18 39 0 0.04367199
Link 10 18 40 0 0.11325419
Link 11 18 41 0 -0.31116672
Link 12 18 42 0 -0.06985687
Link 13 18 43 0 0.29282510
Link 14 18 44 0 0.03994873
Link 15 18 45 0 0.00289926
Link 1 19 46 0 -0.16565447
Link 2 19 47 0 -0.05783258
Link 3 19 48 0 -0.19965209
Link 4 19 49 0 -0.09646901
Link 5 19 50 0 -0.23523667
Link 6 19 51 0 0.55110324
Link 7 19 52 0 -0.29074984
Link 8 19 53 0 -0.24506363
Link 9 19 54 0 -0.21945860
Link 10 19 55 0 0.68324839
Link 11 19 56 0 0.12100589
Link 12 19 57 0 0.27732170
Link 13 19 58 0 0.14450514
Link 14 19 59 0 -0.26526688
Link 15 19 60 0 -0.11740471
Link 1 20 61 0 -0.37513352
Link 2 20 62 0 0.02606281
Link 3 20 63 0 0.26252022
Link 4 20 64 0 0.28678243
Link 5 20 65 0 -0.03588977
Link 6 20 66 0 -0.29532762
Link 7 20 67 0 0.81212806
Link 8 20 68 0 -0.47468490
Link 9 20 69 0 -0.44819483
Link 10 20 70 0 0.27268288
Link 11 20 71 0 0.24610126
Link 12 20 72 0 -0.35798212
Link 13 20 73 0 0.31318094
Link 14 20 74 0 -0.16147343
Link 15 20 75 0 0.57194739
GenomeEnd

GenomeStart 10801
Neuron 1 1 0.00000000 1 0.00000000 0.00000000 0.00000000 0.00000000
Neuron 2 1 0.00000000 1 0.00000000 0.00000000 0.00000000 0.00000000
Neuron 3 1 0.00000000 1 0.00000000 0.00000000 0.00000000 0.00000000
Neuron 4 1 0.00000000 1 0.00000000 0.00000000 0.00000000 0.00000000
Neuron 5 1 0.00000000 1 0.00000000 0.00000000 0.00000000 0.00000000
Neuron 6 1 0.00000000 1 0.00000000 0.00000000 0.00000000 0.00000000
Neuron 7 1 0.00000000 1 0.00000000 0.00000000 0.00000000 0.00000000
Neuron 8 1 0.00000000 1 0.00000000 0.00000000 0.00000000 0.00000000
Neuron 9 1 0.00000000 1 0.00000000 0.00000000 0.00000000 0.00000000
Neuron 10 1 0.00000000 1 0.00000000 0.00000000 0.00000000 0.00000000
Neuron 11 1 0.00000000 1 0.00000000 0.00000000 0.00000000 0.00000000
Neuron 12 1 0.00000000 1 0.00000000 0.00000000 0.00000000 0.00000000
Neuron 13 1 0.00000000 1 0.00000000 0.00000000 0.00000000 0.00000000
Neuron 14 1 0.00000000 1 0.00000000 0.00000000 0.00000000 0.00000000
Neuron 15 2 0.00000000 1 0.00000000 0.00000000 0.00000000 0.00000000
Neuron 16 4 1.00000000 0 4.50000000 0.00000000 0.00000000 0.00000000
Neuron 17 4 1.00000000 0 4.50000000 0.00000000 0.00000000 0.00000000
Neuron 18 4 1.00000000 0 4.50000000 0.00000000 0.00000000 0.00000000
Neuron 19 4 1.00000000 0 4.50000000 0.00000000 0.00000000 0.00000000
Neuron 20 4 1.00000000 0 4.50000000 0.00000000 0.00000000 0.00000000
Link 1 16 1 0 -0.44616535
Link 2 16 2 0 -1.49586475
Link 3 16 3 0 0.41019929
Link 4 16 4 0 -3.64738914
Link 5 16 5 0 0.31485946
Link 6 16 6 0 0.57737968
Link 7 16 7 0 -0.03585925
Link 8 16 8 0 0.11795404
Link 9 16 9 0 0.17831965
Link 10 16 10 0 0.85851619
Link 11 16 11 0 0.85653249
Link 12 16 12 0 -0.13440351
Link 13 16 13 0 -0.02218696
Link 14 16 14 0 0.28034303
Link 15 16 15 0 0.50080874
Link 1 17 16 0 -0.76998199
Link 2 17 17 0 -0.11029389
Link 3 17 18 0 0.21024201
Link 4 17 19 0 -3.01271096
Link 5 17 20 0 -0.35651723
Link 6 17 21 0 0.24292734
Link 7 17 22 0 0.39094211
Link 8 17 23 0 -0.97158727
Link 9 17 24 0 0.45762505
Link 10 17 25 0 0.09756767
Link 11 17 26 0 0.14371166
Link 12 17 27 0 -0.21967223
Link 13 17 28 0 0.84060182
Link 14 17 29 0 0.32270272
Link 15 17 30 0 0.07177953
Link 1 18 31 0 -0.93771172
Link 2 18 32 0 -0.51902829
Link 3 18 33 0 -0.86419264
Link 4 18 34 0 -1.98883023
Link 5 18 35 0 0.31180761
Link 6 18 36 0 1.16147343
Link 7 18 37 0 0.37498093
Link 8 18 38 0 -0.00650044
Link 9 18 39 0 -1.53245643
Link 10 18 40 0 0.11325419
Link 11 18 41 0 -0.31116672
Link 12 18 42 0 -0.06985687
Link 13 18 43 0 0.29282510
Link 14 18 44 0 0.03994873
Link 15 18 45 0 -0.47059542
Link 1 19 46 0 -0.16565447
Link 2 19 47 0 1.37859736
Link 3 19 48 0 -0.19965209
Link 4 19 49 0 1.42022461
Link 5 19 50 0 -0.23523667
Link 6 19 51 0 0.55110324
Link 7 19 52 0 0.77076022
Link 8 19 53 0 -1.94082461
Link 9 19 54 0 -1.50894192
Link 10 19 55 0 -3.97131260
Link 11 19 56 0 0.12100589
Link 12 19 57 0 0.27732170
Link 13 19 58 0 -0.78333384
Link 14 19 59 0 -1.14725180
Link 15 19 60 0 -0.11740471
Link 1 20 61 0 -0.37513352
Link 2 20 62 0 0.02606281
Link 3 20 63 0 0.26252022
Link 4 20 64 0 0.28678243
Link 5 20 65 0 0.31827753
Link 6 20 66 0 -0.45646535
Link 7 20 67 0 -1.16623432
Link 8 20 68 0 -0.47468490
Link 9 20 69 0 0.15492721
Link 10 20 70 0 -1.12411878
Link 11 20 71 0 -0.00979644
Link 12 20 72 0 -0.35798212
Link 13 20 73 0 -0.40778832
Link 14 20 74 0 5.00918607
Link 15 20 75 0 -3.50218207
GenomeEnd

GenomeStart 10802
Neuron 1 1 0.00000000 1 0.00000000 0.00000000 0.00000000 0.00000000
Neuron 2 1 0.00000000 1 0.00000000 0.00000000 0.00000000 0.00000000
Neuron 3 1 0.00000000 1 0.00000000 0.00000000 0.00000000 0.00000000
Neuron 4 1 0.00000000 1 0.00000000 0.00000000 0.00000000 0.00000000
Neuron 5 1 0.00000000 1 0.00000000 0.00000000 0.00000000 0.00000000
Neuron 6 1 0.00000000 1 0.00000000 0.00000000 0.00000000 0.00000000
Neuron 7 1 0.00000000 1 0.00000000 0.00000000 0.00000000 0.00000000
Neuron 8 1 0.00000000 1 0.00000000 0.00000000 0.00000000 0.00000000
Neuron 9 1 0.00000000 1 0.00000000 0.00000000 0.00000000 0.00000000
Neuron 10 1 0.00000000 1 0.00000000 0.00000000 0.00000000 0.00000000
Neuron 11 1 0.00000000 1 0.00000000 0.00000000 0.00000000 0.00000000
Neuron 12 1 0.00000000 1 0.00000000 0.00000000 0.00000000 0.00000000
Neuron 13 1 0.00000000 1 0.00000000 0.00000000 0.00000000 0.00000000
Neuron 14 1 0.00000000 1 0.00000000 0.00000000 0.00000000 0.00000000
Neuron 15 2 0.00000000 1 0.00000000 0.00000000 0.00000000 0.00000000
Neuron 16 4 1.00000000 0 4.50000000 0.00000000 0.00000000 0.00000000
Neuron 17 4 1.00000000 0 4.50000000 0.00000000 0.00000000 0.00000000
Neuron 18 4 1.00000000 0 4.50000000 0.00000000 0.00000000 0.00000000
Neuron 19 4 1.00000000 0 4.50000000 0.00000000 0.00000000 0.00000000
Neuron 20 4 1.00000000 0 4.50000000 0.00000000 0.00000000 0.00000000
Link 1 16 1 0 0.61225471
Link 2 16 2 0 -0.28247170
Link 3 16 3 0 0.60071848
Link 4 16 4 0 -0.57270272
Link 5 16 5 0 0.40903195
Link 6 16 6 0 0.54409543
Link 7 16 7 0 -0.14875866
Link 8 16 8 0 0.57960849
Link 9 16 9 0 1.36859493
Link 10 16 10 0 0.10217692
Link 11 16 11 0 0.85653249
Link 12 16 12 0 -0.43713187
Link 13 16 13 0 -0.23450518
Link 14 16 14 0 1.64998334
Link 15 16 15 0 -0.82555620
Link 1 17 16 0 -0.53868221
Link 2 17 17 0 -0.02947325
Link 3 17 18 0 -0.16677603
Link 4 17 19 0 -0.39974479
Link 5 17 20 0 0.07960658
Link 6 17 21 0 0.49776643
Link 7 17 22 0 1.53053377
Link 8 17 23 0 0.86281930
Link 9 17 24 0 1.29854350
Link 10 17 25 0 0.28676335
Link 11 17 26 0 0.27143162
Link 12 17 27 0 -0.12134064
Link 13 17 28 0 0.16010773
Link 14 17 29 0 0.97004132
Link 15 17 30 0 0.25256921
Link 1 18 31 0 -0.65310755
Link 2 18 32 0 -0.74761193
Link 3 18 33 0 -0.14143041
Link 4 18 34 0 -0.68643376
Link 5 18 35 0 -0.01135289
Link 6 18 36 0 -0.21012614
Link 7 18 37 0 0.28966644
Link 8 18 38 0 -0.10496078
Link 9 18 39 0 -0.42968261
Link 10 18 40 0 -0.02707373
Link 11 18 41 0 -0.01108871
Link 12 18 42 0 0.19433805
Link 13 18 43 0 -0.34549051
Link 14 18 44 0 0.22891553
Link 15 18 45 0 1.19349498
Link 1 19 46 0 -0.76441094
Link 2 19 47 0 -0.50621052
Link 3 19 48 0 -0.59978790
Link 4 19 49 0 1.51549959
Link 5 19 50 0 -0.28799554
Link 6 19 51 0 0.34856715
Link 7 19 52 0 -1.46664708
Link 8 19 53 0 1.55905713
Link 9 19 54 0 -0.38652455
Link 10 19 55 0 0.57673879
Link 11 19 56 0 -0.61058000
Link 12 19 57 0 0.60739845
Link 13 19 58 0 -1.34521012
Link 14 19 59 0 0.77455977
Link 15 19 60 0 -0.21111561
Link 1 20 61 0 -0.92275002
Link 2 20 62 0 -0.22467726
Link 3 20 63 0 -0.19815668
Link 4 20 64 0 0.01023943
Link 5 20 65 0 -1.34297846
Link 6 20 66 0 -0.18330562
Link 7 20 67 0 0.44695502
Link 8 20 68 0 -1.02849571
Link 9 20 69 0 1.75917844
Link 10 20 70 0 0.27268288
Link 11 20 71 0 -1.16661580
Link 12 20 72 0 0.43307291
Link 13 20 73 0 -3.54356517
Link 14 20 74 0 -1.04959258
Link 15 20 75 0 3.27860347
GenomeEnd

GenomeStart 10803
Neuron 1 1 0.00000000 1 0.00000000 0.00000000 0.00000000 0.00000000
Neuron 2 1 0.00000000 1 0.00000000 0.00000000 0.00000000 0.00000000
Neuron 3 1 0.00000000 1 0.00000000 0.00000000 0.00000000 0.00000000
Neuron 4 1 0.00000000 1 0.00000000 0.00000000 0.00000000 0.00000000
Neuron 5 1 0.00000000 1 0.00000000 0.00000000 0.00000000 0.00000000
Neuron 6 1 0.00000000 1 0.00000000 0.00000000 0.00000000 0.00000000
Neuron 7 1 0.00000000 1 0.00000000 0.00000000 0.00000000 0.00000000
Neuron 8 1 0.00000000 1 0.00000000 0.00000000 0.00000000 0.00000000
Neuron 9 1 0.00000000 1 0.00000000 0.00000000 0.00000000 0.00000000
Neuron 10 1 0.00000000 1 0.00000000 0.00000000 0.00000000 0.00000000
Neuron 11 1 0.00000000 1 0.00000000 0.00000000 0.00000000 0.00000000
Neuron 12 1 0.00000000 1 0.00000000 0.00000000 0.00000000 0.00000000
Neuron 13 1 0.00000000 1 0.00000000 0.00000000 0.00000000 0.00000000
Neuron 14 1 0.00000000 1 0.00000000 0.00000000 0.00000000 0.00000000
Neuron 15 2 0.00000000 1 0.00000000 0.00000000 0.00000000 0.00000000
Neuron 16 4 1.00000000 0 4.50000000 0.00000000 0.00000000 0.00000000
Neuron 17 4 1.00000000 0 4.50000000 0.00000000 0.00000000 0.00000000
Neuron 18 4 1.00000000 0 4.50000000 0.00000000 0.00000000 0.00000000
Neuron 19 4 1.00000000 0 4.50000000 0.00000000 0.00000000 0.00000000
Neuron 20 4 1.00000000 0 4.50000000 0.00000000 0.00000000 0.00000000
Link 1 16 1 0 0.83263649
Link 2 16 2 0 -0.59253212
Link 3 16 3 0 0.41019929
Link 4 16 4 0 0.81997131
Link 5 16 5 0 -2.74190497
Link 6 16 6 0 -0.58835109
Link 7 16 7 0 -0.07858516
Link 8 16 8 0 1.67579043
Link 9 16 9 0 3.97892697
Link 10 16 10 0 1.18060091
Link 11 16 11 0 2.20384839
Link 12 16 12 0 -0.13409833
Link 13 16 13 0 -0.02218696
Link 14 16 14 0 0.28034303
Link 15 16 15 0 0.50080874
Link 1 17 16 0 -0.98956267
Link 2 17 17 0 -0.11029389
Link 3 17 18 0 0.21024201
Link 4 17 19 0 -1.91991943
Link 5 17 20 0 -0.22135838
Link 6 17 21 0 -0.79027680
Link 7 17 22 0 0.39094211
Link 8 17 23 0 -0.35706656
Link 9 17 24 0 -3.71800897
Link 10 17 25 0 -1.27536851
Link 11 17 26 0 0.14371166
Link 12 17 27 0 -0.21967223
Link 13 17 28 0 0.26548051
Link 14 17 29 0 0.32270272
Link 15 17 30 0 0.07177953
Link 1 18 31 0 -0.95541246
Link 2 18 32 0 0.43426313
Link 3 18 33 0 -2.29909666
Link 4 18 34 0 -0.73696097
Link 5 18 35 0 2.39797662
Link 6 18 36 0 -0.20804468
Link 7 18 37 0 -0.70667134
Link 8 18 38 0 0.56106754
Link 9 18 39 0 2.95376446
Link 10 18 40 0 0.13034456
Link 11 18 41 0 -0.31116672
Link 12 18 42 0 -0.06985687
Link 13 18 43 0 0.29282510
Link 14 18 44 0 0.45614490
Link 15 18 45 0 -3.71558275
Link 1 19 46 0 0.59208197
Link 2 19 47 0 1.39330729
Link 3 19 48 0 1.77802362
Link 4 19 49 0 -0.51258889
Link 5 19 50 0 0.01409955
Link 6 19 51 0 0.55110324
Link 7 19 52 0 -0.29074984
Link 8 19 53 0 -1.79677724
Link 9 19 54 0 -2.54159673
Link 10 19 55 0 2.35581530
Link 11 19 56 0 1.16733299
Link 12 19 57 0 0.27732170
Link 13 19 58 0 0.71663182
Link 14 19 59 0 -3.70305490
Link 15 19 60 0 0.36823634
Link 1 20 61 0 -2.01794489
Link 2 20 62 0 0.02606281
Link 3 20 63 0 0.26252022
Link 4 20 64 0 0.28678243
Link 5 20 65 0 1.89715262
Link 6 20 66 0 -0.29532762
Link 7 20 67 0 0.81212806
Link 8 20 68 0 -0.47468490
Link 9 20 69 0 1.22061831
Link 10 20 70 0 0.27268288
Link 11 20 71 0 -0.86208686
Link 12 20 72 0 -0.35798212
Link 13 20 73 0 -2.67122410
Link 14 20 74 0 3.63438826
Link 15 20 75 0 1.23856319
GenomeEnd

GenomeStart 10805
Neuron 1 1 0.00000000 1 0.00000000 0.00000000 0.00000000 0.00000000
Neuron 2 1 0.00000000 1 0.00000000 0.00000000 0.00000000 0.00000000
Neuron 3 1 0.00000000 1 0.00000000 0.00000000 0.00000000 0.00000000
Neuron 4 1 0.00000000 1 0.00000000 0.00000000 0.00000000 0.00000000
Neuron 5 1 0.00000000 1 0.00000000 0.00000000 0.00000000 0.00000000
Neuron 6 1 0.00000000 1 0.00000000 0.00000000 0.00000000 0.00000000
Neuron 7 1 0.00000000 1 0.00000000 0.00000000 0.00000000 0.00000000
Neuron 8 1 0.00000000 1 0.00000000 0.00000000 0.00000000 0.00000000
Neuron 9 1 0.00000000 1 0.00000000 0.00000000 0.00000000 0.00000000
Neuron 10 1 0.00000000 1 0.00000000 0.00000000 0.00000000 0.00000000
Neuron 11 1 0.00000000 1 0.00000000 0.00000000 0.00000000 0.00000000
Neuron 12 1 0.00000000 1 0.00000000 0.00000000 0.00000000 0.00000000
Neuron 13 1 0.00000000 1 0.00000000 0.00000000 0.00000000 0.00000000
Neuron 14 1 0.00000000 1 0.00000000 0.00000000 0.00000000 0.00000000
Neuron 15 2 0.00000000 1 0.00000000 0.00000000 0.00000000 0.00000000
Neuron 16 4 1.00000000 0 4.50000000 0.00000000 0.00000000 0.00000000
Neuron 17 4 1.00000000 0 4.50000000 0.00000000 0.00000000 0.00000000
Neuron 18 4 1.00000000 0 4.50000000 0.00000000 0.00000000 0.00000000
Neuron 19 4 1.00000000 0 4.50000000 0.00000000 0.00000000 0.00000000
Neuron 20 4 1.00000000 0 4.50000000 0.00000000 0.00000000 0.00000000
Link 1 16 1 0 -0.44616535
Link 2 16 2 0 -1.49586475
Link 3 16 3 0 0.41019929
Link 4 16 4 0 -3.64738914
Link 5 16 5 0 0.31485946
Link 6 16 6 0 0.57737968
Link 7 16 7 0 -0.03585925
Link 8 16 8 0 0.11795404
Link 9 16 9 0 0.17831965
Link 10 16 10 0 0.85851619
Link 11 16 11 0 0.85653249
Link 12 16 12 0 -0.13440351
Link 13 16 13 0 -0.02218696
Link 14 16 14 0 0.28034303
Link 15 16 15 0 0.50080874
Link 1 17 16 0 -0.76998199
Link 2 17 17 0 -0.11029389
Link 3 17 18 0 0.21024201
Link 4 17 19 0 -3.01271096
Link 5 17 20 0 -0.35651723
Link 6 17 21 0 0.24292734
Link 7 17 22 0 0.39094211
Link 8 17 23 0 -0.97158727
Link 9 17 24 0 0.45762505
Link 10 17 25 0 0.09756767
Link 11 17 26 0 0.14371166
Link 12 17 27 0 -0.21967223
Link 13 17 28 0 0.84060182
Link 14 17 29 0 0.32270272
Link 15 17 30 0 0.07177953
Link 1 18 31 0 -0.93771172
Link 2 18 32 0 -0.51902829
Link 3 18 33 0 -0.86419264
Link 4 18 34 0 -1.98883023
Link 5 18 35 0 0.31180761
Link 6 18 36 0 1.16147343
Link 7 18 37 0 0.37498093
Link 8 18 38 0 -0.00650044
Link 9 18 39 0 -1.53245643
Link 10 18 40 0 0.11325419
Link 11 18 41 0 -0.31116672
Link 12 18 42 0 -0.06985687
Link 13 18 43 0 0.29282510
Link 14 18 44 0 0.03994873
Link 15 18 45 0 -0.47059542
Link 1 19 46 0 -0.16565447
Link 2 19 47 0 1.37859736
Link 3 19 48 0 -0.19965209
Link 4 19 49 0 1.42022461
Link 5 19 50 0 -0.23523667
Link 6 19 51 0 0.55110324
Link 7 19 52 0 0.77076022
Link 8 19 53 0 -1.94082461
Link 9 19 54 0 -1.50894192
Link 10 19 55 0 -3.97131260
Link 11 19 56 0 0.12100589
Link 12 19 57 0 0.27732170
Link 13 19 58 0 -0.78333384
Link 14 19 59 0 -1.14725180
Link 15 19 60 0 -0.11740471
Link 1 20 61 0 -0.37513352
Link 2 20 62 0 0.02606281
Link 3 20 63 0 0.26252022
Link 4 20 64 0 0.28678243
Link 5 20 65 0 0.31827753
Link 6 20 66 0 -0.45646535
Link 7 20 67 0 -1.16623432
Link 8 20 68 0 -0.47468490
Link 9 20 69 0 0.15492721
Link 10 20 70 0 -1.12411878
Link 11 20 71 0 -0.00979644
Link 12 20 72 0 -0.35798212
Link 13 20 73 0 -0.40778832
Link 14 20 74 0 5.00918607
Link 15 20 75 0 -3.50218207
GenomeEnd

GenomeStart 10806
Neuron 1 1 0.00000000 1 0.00000000 0.00000000 0.00000000 0.00000000
Neuron 2 1 0.00000000 1 0.00000000 0.00000000 0.00000000 0.00000000
Neuron 3 1 0.00000000 1 0.00000000 0.00000000 0.00000000 0.00000000
Neuron 4 1 0.00000000 1 0.00000000 0.00000000 0.00000000 0.00000000
Neuron 5 1 0.00000000 1 0.00000000 0.00000000 0.00000000 0.00000000
Neuron 6 1 0.00000000 1 0.00000000 0.00000000 0.00000000 0.00000000
Neuron 7 1 0.00000000 1 0.00000000 0.00000000 0.00000000 0.00000000
Neuron 8 1 0.00000000 1 0.00000000 0.00000000 0.00000000 0.00000000
Neuron 9 1 0.00000000 1 0.00000000 0.00000000 0.00000000 0.00000000
Neuron 10 1 0.00000000 1 0.00000000 0.00000000 0.00000000 0.00000000
Neuron 11 1 0.00000000 1 0.00000000 0.00000000 0.00000000 0.00000000
Neuron 12 1 0.00000000 1 0.00000000 0.00000000 0.00000000 0.00000000
Neuron 13 1 0.00000000 1 0.00000000 0.00000000 0.00000000 0.00000000
Neuron 14 1 0.00000000 1 0.00000000 0.00000000 0.00000000 0.00000000
Neuron 15 2 0.00000000 1 0.00000000 0.00000000 0.00000000 0.00000000
Neuron 16 4 1.00000000 0 4.50000000 0.00000000 0.00000000 0.00000000
Neuron 17 4 1.00000000 0 4.50000000 0.00000000 0.00000000 0.00000000
Neuron 18 4 1.00000000 0 4.50000000 0.00000000 0.00000000 0.00000000
Neuron 19 4 1.00000000 0 4.50000000 0.00000000 0.00000000 0.00000000
Neuron 20 4 1.00000000 0 4.50000000 0.00000000 0.00000000 0.00000000
Link 1 16 1 0 0.61225471
Link 2 16 2 0 -0.28247170
Link 3 16 3 0 0.60071848
Link 4 16 4 0 -0.57270272
Link 5 16 5 0 0.40903195
Link 6 16 6 0 0.54409543
Link 7 16 7 0 -0.14875866
Link 8 16 8 0 0.57960849
Link 9 16 9 0 1.36859493
Link 10 16 10 0 0.10217692
Link 11 16 11 0 0.85653249
Link 12 16 12 0 -0.43713187
Link 13 16 13 0 -0.23450518
Link 14 16 14 0 1.64998334
Link 15 16 15 0 -0.82555620
Link 1 17 16 0 -0.53868221
Link 2 17 17 0 -0.02947325
Link 3 17 18 0 -0.16677603
Link 4 17 19 0 -0.39974479
Link 5 17 20 0 0.07960658
Link 6 17 21 0 0.49776643
Link 7 17 22 0 1.53053377
Link 8 17 23 0 0.86281930
Link 9 17 24 0 1.29854350
Link 10 17 25 0 0.28676335
Link 11 17 26 0 0.27143162
Link 12 17 27 0 -0.12134064
Link 13 17 28 0 0.16010773
Link 14 17 29 0 0.97004132
Link 15 17 30 0 0.25256921
Link 1 18 31 0 -0.65310755
Link 2 18 32 0 -0.74761193
Link 3 18 33 0 -0.14143041
Link 4 18 34 0 -0.68643376
Link 5 18 35 0 -0.01135289
Link 6 18 36 0 -0.21012614
Link 7 18 37 0 0.28966644
Link 8 18 38 0 -0.10496078
Link 9 18 39 0 -0.42968261
Link 10 18 40 0 -0.02707373
Link 11 18 41 0 -0.01108871
Link 12 18 42 0 0.19433805
Link 13 18 43 0 -0.34549051
Link 14 18 44 0 0.22891553
Link 15 18 45 0 1.19349498
Link 1 19 46 0 -0.76441094
Link 2 19 47 0 -0.50621052
Link 3 19 48 0 -0.59978790
Link 4 19 49 0 1.51549959
Link 5 19 50 0 -0.28799554
Link 6 19 51 0 0.34856715
Link 7 19 52 0 -1.46664708
Link 8 19 53 0 1.55905713
Link 9 19 54 0 -0.38652455
Link 10 19 55 0 0.57673879
Link 11 19 56 0 -0.61058000
Link 12 19 57 0 0.60739845
Link 13 19 58 0 -1.34521012
Link 14 19 59 0 0.77455977
Link 15 19 60 0 -0.21111561
Link 1 20 61 0 -0.92275002
Link 2 20 62 0 -0.22467726
Link 3 20 63 0 -0.19815668
Link 4 20 64 0 0.01023943
Link 5 20 65 0 -1.34297846
Link 6 20 66 0 -0.18330562
Link 7 20 67 0 0.44695502
Link 8 20 68 0 -1.02849571
Link 9 20 69 0 1.75917844
Link 10 20 70 0 0.27268288
Link 11 20 71 0 -1.16661580
Link 12 20 72 0 0.43307291
Link 13 20 73 0 -3.54356517
Link 14 20 74 0 -1.04959258
Link 15 20 75 0 3.27860347
GenomeEnd

GenomeStart 10807
Neuron 1 1 0.00000000 1 0.00000000 0.00000000 0.00000000 0.00000000
Neuron 2 1 0.00000000 1 0.00000000 0.00000000 0.00000000 0.00000000
Neuron 3 1 0.00000000 1 0.00000000 0.00000000 0.00000000 0.00000000
Neuron 4 1 0.00000000 1 0.00000000 0.00000000 0.00000000 0.00000000
Neuron 5 1 0.00000000 1 0.00000000 0.00000000 0.00000000 0.00000000
Neuron 6 1 0.00000000 1 0.00000000 0.00000000 0.00000000 0.00000000
Neuron 7 1 0.00000000 1 0.00000000 0.00000000 0.00000000 0.00000000
Neuron 8 1 0.00000000 1 0.00000000 0.00000000 0.00000000 0.00000000
Neuron 9 1 0.00000000 1 0.00000000 0.00000000 0.00000000 0.00000000
Neuron 10 1 0.00000000 1 0.00000000 0.00000000 0.00000000 0.00000000
Neuron 11 1 0.00000000 1 0.00000000 0.00000000 0.00000000 0.00000000
Neuron 12 1 0.00000000 1 0.00000000 0.00000000 0.00000000 0.00000000
Neuron 13 1 0.00000000 1 0.00000000 0.00000000 0.00000000 0.00000000
Neuron 14 1 0.00000000 1 0.00000000 0.00000000 0.00000000 0.00000000
Neuron 15 2 0.00000000 1 0.00000000 0.00000000 0.00000000 0.00000000
Neuron 16 4 1.00000000 0 4.50000000 0.00000000 0.00000000 0.00000000
Neuron 17 4 1.00000000 0 4.50000000 0.00000000 0.00000000 0.00000000
Neuron 18 4 1.00000000 0 4.50000000 0.00000000 0.00000000 0.00000000
Neuron 19 4 1.00000000 0 4.50000000 0.00000000 0.00000000 0.00000000
Neuron 20 4 1.00000000 0 4.50000000 0.00000000 0.00000000 0.00000000
Link 1 16 1 0 0.83263649
Link 2 16 2 0 -0.59253212
Link 3 16 3 0 0.41019929
Link 4 16 4 0 0.81997131
Link 5 16 5 0 -2.74190497
Link 6 16 6 0 -0.58835109
Link 7 16 7 0 -0.07858516
Link 8 16 8 0 1.67579043
Link 9 16 9 0 3.97892697
Link 10 16 10 0 1.18060091
Link 11 16 11 0 2.20384839
Link 12 16 12 0 -0.13409833
Link 13 16 13 0 -0.02218696
Link 14 16 14 0 0.28034303
Link 15 16 15 0 0.50080874
Link 1 17 16 0 -0.98956267
Link 2 17 17 0 -0.11029389
Link 3 17 18 0 0.21024201
Link 4 17 19 0 -1.91991943
Link 5 17 20 0 -0.22135838
Link 6 17 21 0 -0.79027680
Link 7 17 22 0 0.39094211
Link 8 17 23 0 -0.35706656
Link 9 17 24 0 -3.71800897
Link 10 17 25 0 -1.27536851
Link 11 17 26 0 0.14371166
Link 12 17 27 0 -0.21967223
Link 13 17 28 0 0.26548051
Link 14 17 29 0 0.32270272
Link 15 17 30 0 0.07177953
Link 1 18 31 0 -0.95541246
Link 2 18 32 0 0.43426313
Link 3 18 33 0 -2.29909666
Link 4 18 34 0 -0.73696097
Link 5 18 35 0 2.39797662
Link 6 18 36 0 -0.20804468
Link 7 18 37 0 -0.70667134
Link 8 18 38 0 0.56106754
Link 9 18 39 0 2.95376446
Link 10 18 40 0 0.13034456
Link 11 18 41 0 -0.31116672
Link 12 18 42 0 -0.06985687
Link 13 18 43 0 0.29282510
Link 14 18 44 0 0.45614490
Link 15 18 45 0 -3.71558275
Link 1 19 46 0 0.59208197
Link 2 19 47 0 1.39330729
Link 3 19 48 0 1.77802362
Link 4 19 49 0 -0.51258889
Link 5 19 50 0 0.01409955
Link 6 19 51 0 0.55110324
Link 7 19 52 0 -0.29074984
Link 8 19 53 0 -1.79677724
Link 9 19 54 0 -2.54159673
Link 10 19 55 0 2.35581530
Link 11 19 56 0 1.16733299
Link 12 19 57 0 0.27732170
Link 13 19 58 0 0.71663182
Link 14 19 59 0 -3.70305490
Link 15 19 60 0 0.36823634
Link 1 20 61 0 -2.01794489
Link 2 20 62 0 0.02606281
Link 3 20 63 0 0.26252022
Link 4 20 64 0 0.28678243
Link 5 20 65 0 1.89715262
Link 6 20 66 0 -0.29532762
Link 7 20 67 0 0.81212806
Link 8 20 68 0 -0.47468490
Link 9 20 69 0 1.22061831
Link 10 20 70 0 0.27268288
Link 11 20 71 0 -0.86208686
Link 12 20 72 0 -0.35798212
Link 13 20 73 0 -2.67122410
Link 14 20 74 0 3.63438826
Link 15 20 75 0 1.23856319
GenomeEnd

GenomeStart 10809
Neuron 1 1 0.00000000 1 0.00000000 0.00000000 0.00000000 0.00000000
Neuron 2 1 0.00000000 1 0.00000000 0.00000000 0.00000000 0.00000000
Neuron 3 1 0.00000000 1 0.00000000 0.00000000 0.00000000 0.00000000
Neuron 4 1 0.00000000 1 0.00000000 0.00000000 0.00000000 0.00000000
Neuron 5 1 0.00000000 1 0.00000000 0.00000000 0.00000000 0.00000000
Neuron 6 1 0.00000000 1 0.00000000 0.00000000 0.00000000 0.00000000
Neuron 7 1 0.00000000 1 0.00000000 0.00000000 0.00000000 0.00000000
Neuron 8 1 0.00000000 1 0.00000000 0.00000000 0.00000000 0.00000000
Neuron 9 1 0.00000000 1 0.00000000 0.00000000 0.00000000 0.00000000
Neuron 10 1 0.00000000 1 0.00000000 0.00000000 0.00000000 0.00000000
Neuron 11 1 0.00000000 1 0.00000000 0.00000000 0.00000000 0.00000000
Neuron 12 1 0.00000000 1 0.00000000 0.00000000 0.00000000 0.00000000
Neuron 13 1 0.00000000 1 0.00000000 0.00000000 0.00000000 0.00000000
Neuron 14 1 0.00000000 1 0.00000000 0.00000000 0.00000000 0.00000000
Neuron 15 2 0.00000000 1 0.00000000 0.00000000 0.00000000 0.00000000
Neuron 16 4 1.00000000 0 4.50000000 0.00000000 0.00000000 0.00000000
Neuron 17 4 1.00000000 0 4.50000000 0.00000000 0.00000000 0.00000000
Neuron 18 4 1.00000000 0 4.50000000 0.00000000 0.00000000 0.00000000
Neuron 19 4 1.00000000 0 4.50000000 0.00000000 0.00000000 0.00000000
Neuron 20 4 1.00000000 0 4.50000000 0.00000000 0.00000000 0.00000000
Link 1 16 1 0 -0.56362346
Link 2 16 2 0 2.03930021
Link 3 16 3 0 0.00496641
Link 4 16 4 0 0.84327982
Link 5 16 5 0 -1.21352275
Link 6 16 6 0 2.43372906
Link 7 16 7 0 -0.43115024
Link 8 16 8 0 0.62911046
Link 9 16 9 0 4.45917386
Link 10 16 10 0 0.57915738
Link 11 16 11 0 1.81263924
Link 12 16 12 0 1.07901242
Link 13 16 13 0 -0.61490410
Link 14 16 14 0 1.86340726
Link 15 16 15 0 -1.42002625
Link 1 17 16 0 1.14452040
Link 2 17 17 0 -0.14522995
Link 3 17 18 0 1.09518723
Link 4 17 19 0 -1.02418211
Link 5 17 20 0 0.48351428
Link 6 17 21 0 0.23600345
Link 7 17 22 0 1.16420484
Link 8 17 23 0 -0.50664540
Link 9 17 24 0 0.11004975
Link 10 17 25 0 0.97222815
Link 11 17 26 0 -1.33227027
Link 12 17 27 0 0.31543169
Link 13 17 28 0 0.65601062
Link 14 17 29 0 0.41465690
Link 15 17 30 0 -0.78936518
Link 1 18 31 0 -0.94656209
Link 2 18 32 0 -2.31218909
Link 3 18 33 0 -0.19425794
Link 4 18 34 0 -0.51242104
Link 5 18 35 0 1.00541703
Link 6 18 36 0 -0.24135754
Link 7 18 37 0 0.03009125
Link 8 18 38 0 -0.28795739
Link 9 18 39 0 0.40235388
Link 10 18 40 0 -1.91996521
Link 11 18 41 0 1.74328784
Link 12 18 42 0 0.06186865
Link 13 18 43 0 -0.60982849
Link 14 18 44 0 0.58355968
Link 15 18 45 0 -3.75018311
Link 1 19 46 0 -0.60228374
Link 2 19 47 0 2.71876431
Link 3 19 48 0 0.03442488
Link 4 19 49 0 -0.30452895
Link 5 19 50 0 -0.90786462
Link 6 19 51 0 1.85023208
Link 7 19 52 0 -0.95250557
Link 8 19 53 0 -0.03364666
Link 9 19 54 0 -0.94240394
Link 10 19 55 0 1.98295541
Link 11 19 56 0 0.64416944
Link 12 19 57 0 -0.87456129
Link 13 19 58 0 0.46181181
Link 14 19 59 0 5.75650807
Link 15 19 60 0 0.12541581
Link 1 20 61 0 -0.30764947
Link 2 20 62 0 0.65031892
Link 3 20 63 0 -0.45931883
Link 4 20 64 0 0.33631779
Link 5 20 65 0 1.84351634
Link 6 20 66 0 0.35761589
Link 7 20 67 0 -2.07134464
Link 8 20 68 0 -3.01182211
Link 9 20 69 0 -2.16483047
Link 10 20 70 0 -0.49958800
Link 11 20 71 0 0.09714042
Link 12 20 72 0 0.89898373
Link 13 20 73 0 0.78499710
Link 14 20 74 0 -1.98774682
Link 15 20 75 0 -1.09939879
GenomeEnd

GenomeStart 10810
Neuron 1 1 0.00000000 1 0.00000000 0.00000000 0.00000000 0.00000000
Neuron 2 1 0.00000000 1 0.00000000 0.00000000 0.00000000 0.00000000
Neuron 3 1 0.00000000 1 0.00000000 0.00000000 0.00000000 0.00000000
Neuron 4 1 0.00000000 1 0.00000000 0.00000000 0.00000000 0.00000000
Neuron 5 1 0.00000000 1 0.00000000 0.00000000 0.00000000 0.00000000
Neuron 6 1 0.00000000 1 0.00000000 0.00000000 0.00000000 0.00000000
Neuron 7 1 0.00000000 1 0.00000000 0.00000000 0.00000000 0.00000000
Neuron 8 1 0.00000000 1 0.00000000 0.00000000 0.00000000 0.00000000
Neuron 9 1 0.00000000 1 0.00000000 0.00000000 0.00000000 0.00000000
Neuron 10 1 0.00000000 1 0.00000000 0.00000000 0.00000000 0.00000000
Neuron 11 1 0.00000000 1 0.00000000 0.00000000 0.00000000 0.00000000
Neuron 12 1 0.00000000 1 0.00000000 0.00000000 0.00000000 0.00000000
Neuron 13 1 0.00000000 1 0.00000000 0.00000000 0.00000000 0.00000000
Neuron 14 1 0.00000000 1 0.00000000 0.00000000 0.00000000 0.00000000
Neuron 15 2 0.00000000 1 0.00000000 0.00000000 0.00000000 0.00000000
Neuron 16 4 1.00000000 0 4.50000000 0.00000000 0.00000000 0.00000000
Neuron 17 4 1.00000000 0 4.50000000 0.00000000 0.00000000 0.00000000
Neuron 18 4 1.00000000 0 4.50000000 0.00000000 0.00000000 0.00000000
Neuron 19 4 1.00000000 0 4.50000000 0.00000000 0.00000000 0.00000000
Neuron 20 4 1.00000000 0 4.50000000 0.00000000 0.00000000 0.00000000
Link 1 16 1 0 -0.07170324
Link 2 16 2 0 -0.42520677
Link 3 16 3 0 -0.18090609
Link 4 16 4 0 -0.33423871
Link 5 16 5 0 -1.21352275
Link 6 16 6 0 0.13344981
Link 7 16 7 0 -0.50675985
Link 8 16 8 0 -1.22757653
Link 9 16 9 0 2.07862331
Link 10 16 10 0 1.01955855
Link 11 16 11 0 1.42226936
Link 12 16 12 0 0.72095401
Link 13 16 13 0 -0.19026765
Link 14 16 14 0 0.13905783
Link 15 16 15 0 -0.30312510
Link 1 17 16 0 -0.71068453
Link 2 17 17 0 -0.14522995
Link 3 17 18 0 2.83138523
Link 4 17 19 0 -1.36448256
Link 5 17 20 0 -0.21966079
Link 6 17 21 0 -0.27367473
Link 7 17 22 0 0.49836726
Link 8 17 23 0 -0.49699393
Link 9 17 24 0 -2.09468368
Link 10 17 25 0 0.58788567
Link 11 17 26 0 0.75046541
Link 12 17 27 0 0.33998001
Link 13 17 28 0 0.05473494
Link 14 17 29 0 -0.63683164
Link 15 17 30 0 -1.57713553
Link 1 18 31 0 2.92263558
Link 2 18 32 0 -0.27031770
Link 3 18 33 0 -1.56226539
Link 4 18 34 0 -0.82992798
Link 5 18 35 0 1.35489212
Link 6 18 36 0 0.53374107
Link 7 18 37 0 -0.18251594
Link 8 18 38 0 -0.28795739
Link 9 18 39 0 1.49871822
Link 10 18 40 0 0.12179937
Link 11 18 41 0 1.00625630
Link 12 18 42 0 -0.11784723
Link 13 18 43 0 0.24172948
Link 14 18 44 0 0.24804682
Link 15 18 45 0 -1.96113468
Link 1 19 46 0 0.21321375
Link 2 19 47 0 0.75402844
Link 3 19 48 0 0.92213202
Link 4 19 49 0 -0.30452895
Link 5 19 50 0 -0.77663503
Link 6 19 51 0 1.36832336
Link 7 19 52 0 -0.68283639
Link 8 19 53 0 0.57672353
Link 9 19 54 0 -0.47222053
Link 10 19 55 0 2.40472121
Link 11 19 56 0 0.64416944
Link 12 19 57 0 -0.74375133
Link 13 19 58 0 -0.06177137
Link 14 19 59 0 2.20128483
Link 15 19 60 0 0.12541581
Link 1 20 61 0 -0.28247170
Link 2 20 62 0 0.23332164
Link 3 20 63 0 -0.32595294
Link 4 20 64 0 0.31155011
Link 5 20 65 0 0.93063143
Link 6 20 66 0 0.13357188
Link 7 20 67 0 -0.27559740
Link 8 20 68 0 -1.50391210
Link 9 20 69 0 0.38621174
Link 10 20 70 0 2.13953825
Link 11 20 71 0 -1.90914640
Link 12 20 72 0 -0.24541460
Link 13 20 73 0 5.37449263
Link 14 20 74 0 1.51579333
Link 15 20 75 0 -0.02087466
GenomeEnd

GenomeStart 10811
Neuron 1 1 0.00000000 1 0.00000000 0.00000000 0.00000000 0.00000000
Neuron 2 1 0.00000000 1 0.00000000 0.00000000 0.00000000 0.00000000
Neuron 3 1 0.00000000 1 0.00000000 0.00000000 0.00000000 0.00000000
Neuron 4 1 0.00000000 1 0.00000000 0.00000000 0.00000000 0.00000000
Neuron 5 1 0.00000000 1 0.00000000 0.00000000 0.00000000 0.00000000
Neuron 6 1 0.00000000 1 0.00000000 0.00000000 0.00000000 0.00000000
Neuron 7 1 0.00000000 1 0.00000000 0.00000000 0.00000000 0.00000000
Neuron 8 1 0.00000000 1 0.00000000 0.00000000 0.00000000 0.00000000
Neuron 9 1 0.00000000 1 0.00000000 0.00000000 0.00000000 0.00000000
Neuron 10 1 0.00000000 1 0.00000000 0.00000000 0.00000000 0.00000000
Neuron 11 1 0.00000000 1 0.00000000 0.00000000 0.00000000 0.00000000
Neuron 12 1 0.00000000 1 0.00000000 0.00000000 0.00000000 0.00000000
Neuron 13 1 0.00000000 1 0.00000000 0.00000000 0.00000000 0.00000000
Neuron 14 1 0.00000000 1 0.00000000 0.00000000 0.00000000 0.00000000
Neuron 15 2 0.00000000 1 0.00000000 0.00000000 0.00000000 0.00000000
Neuron 16 4 1.00000000 0 4.50000000 0.00000000 0.00000000 0.00000000
Neuron 17 4 1.00000000 0 4.50000000 0.00000000 0.00000000 0.00000000
Neuron 18 4 1.00000000 0 4.50000000 0.00000000 0.00000000 0.00000000
Neuron 19 4 1.00000000 0 4.50000000 0.00000000 0.00000000 0.00000000
Neuron 20 4 1.00000000 0 4.50000000 0.00000000 0.00000000 0.00000000
Link 1 16 1 0 -0.07170324
Link 2 16 2 0 -0.42520677
Link 3 16 3 0 -0.18090609
Link 4 16 4 0 0.53950621
Link 5 16 5 0 -2.82749413
Link 6 16 6 0 -0.94225135
Link 7 16 7 0 -0.61059908
Link 8 16 8 0 0.89687224
Link 9 16 9 0 1.60551775
Link 10 16 10 0 2.91025651
Link 11 16 11 0 1.08198798
Link 12 16 12 0 0.78542436
Link 13 16 13 0 -0.19026765
Link 14 16 14 0 0.13905783
Link 15 16 15 0 -0.30312510
Link 1 17 16 0 -1.25490585
Link 2 17 17 0 -0.14522995
Link 3 17 18 0 2.75440229
Link 4 17 19 0 -1.36448256
Link 5 17 20 0 -1.65624333
Link 6 17 21 0 -0.27367473
Link 7 17 22 0 -0.83071382
Link 8 17 23 0 -0.49699393
Link 9 17 24 0 -2.09468368
Link 10 17 25 0 0.08265175
Link 11 17 26 0 0.14017151
Link 12 17 27 0 0.33998001
Link 13 17 28 0 0.05473494
Link 14 17 29 0 0.79860645
Link 15 17 30 0 -1.57713553
Link 1 18 31 0 -0.94656209
Link 2 18 32 0 -0.27031770
Link 3 18 33 0 -1.32673880
Link 4 18 34 0 -0.82992798
Link 5 18 35 0 1.35489212
Link 6 18 36 0 -0.21220760
Link 7 18 37 0 -2.34780419
Link 8 18 38 0 -0.28795739
Link 9 18 39 0 1.49871822
Link 10 18 40 0 0.12179937
Link 11 18 41 0 1.82934050
Link 12 18 42 0 -0.46652120
Link 13 18 43 0 0.24172948
Link 14 18 44 0 0.24804682
Link 15 18 45 0 -1.96113468
Link 1 19 46 0 0.21321375
Link 2 19 47 0 0.27015747
Link 3 19 48 0 0.83469649
Link 4 19 49 0 -0.30452895
Link 5 19 50 0 -0.77663503
Link 6 19 51 0 1.36832336
Link 7 19 52 0 -0.68283639
Link 8 19 53 0 -0.03364666
Link 9 19 54 0 -0.47222053
Link 10 19 55 0 1.51953185
Link 11 19 56 0 0.44419691
Link 12 19 57 0 -0.74375133
Link 13 19 58 0 -0.06177137
Link 14 19 59 0 2.20128483
Link 15 19 60 0 0.12541581
Link 1 20 61 0 -0.28247170
Link 2 20 62 0 -1.33594012
Link 3 20 63 0 -0.32595294
Link 4 20 64 0 0.37167157
Link 5 20 65 0 -0.20786157
Link 6 20 66 0 0.13357188
Link 7 20 67 0 -1.41302225
Link 8 20 68 0 -0.93581004
Link 9 20 69 0 0.55688650
Link 10 20 70 0 0.46605579
Link 11 20 71 0 -0.30799280
Link 12 20 72 0 0.22495193
Link 13 20 73 0 -2.69594409
Link 14 20 74 0 2.48023927
Link 15 20 75 0 1.66978973
GenomeEnd

GenomeStart 10812
Neuron 1 1 0.00000000 1 0.00000000 0.00000000 0.00000000 0.00000000
Neuron 2 1 0.00000000 1 0.00000000 0.00000000 0.00000000 0.00000000
Neuron 3 1 0.00000000 1 0.00000000 0.00000000 0.00000000 0.00000000
Neuron 4 1 0.00000000 1 0.00000000 0.00000000 0.00000000 0.00000000
Neuron 5 1 0.00000000 1 0.00000000 0.00000000 0.00000000 0.00000000
Neuron 6 1 0.00000000 1 0.00000000 0.00000000 0.00000000 0.00000000
Neuron 7 1 0.00000000 1 0.00000000 0.00000000 0.00000000 0.00000000
Neuron 8 1 0.00000000 1 0.00000000 0.00000000 0.00000000 0.00000000
Neuron 9 1 0.00000000 1 0.00000000 0.00000000 0.00000000 0.00000000
Neuron 10 1 0.00000000 1 0.00000000 0.00000000 0.00000000 0.00000000
Neuron 11 1 0.00000000 1 0.00000000 0.00000000 0.00000000 0.00000000
Neuron 12 1 0.00000000 1 0.00000000 0.00000000 0.00000000 0.00000000
Neuron 13 1 0.00000000 1 0.00000000 0.00000000 0.00000000 0.00000000
Neuron 14 1 0.00000000 1 0.00000000 0.00000000 0.00000000 0.00000000
Neuron 15 2 0.00000000 1 0.00000000 0.00000000 0.00000000 0.00000000
Neuron 16 4 1.00000000 0 4.50000000 0.00000000 0.00000000 0.00000000
Neuron 17 4 1.00000000 0 4.50000000 0.00000000 0.00000000 0.00000000
Neuron 18 4 1.00000000 0 4.50000000 0.00000000 0.00000000 0.00000000
Neuron 19 4 1.00000000 0 4.50000000 0.00000000 0.00000000 0.00000000
Neuron 20 4 1.00000000 0 4.50000000 0.00000000 0.00000000 0.00000000
Link 1 16 1 0 -0.07170324
Link 2 16 2 0 -0.42520677
Link 3 16 3 0 -0.18090609
Link 4 16 4 0 0.53950621
Link 5 16 5 0 -1.21352275
Link 6 16 6 0 -0.29197821
Link 7 16 7 0 -0.61059908
Link 8 16 8 0 0.78013894
Link 9 16 9 0 2.33688620
Link 10 16 10 0 1.01955855
Link 11 16 11 0 1.42226936
Link 12 16 12 0 0.78542436
Link 13 16 13 0 -0.19026765
Link 14 16 14 0 -0.20488577
Link 15 16 15 0 -0.30312510
Link 1 17 16 0 -0.49183630
Link 2 17 17 0 -0.14522995
Link 3 17 18 0 1.85090182
Link 4 17 19 0 -0.80080569
Link 5 17 20 0 -0.23511460
Link 6 17 21 0 -0.27367473
Link 7 17 22 0 0.49836726
Link 8 17 23 0 -0.49699393
Link 9 17 24 0 -2.09468368
Link 10 17 25 0 0.56118198
Link 11 17 26 0 0.75046541
Link 12 17 27 0 0.33998001
Link 13 17 28 0 0.05473494
Link 14 17 29 0 0.42559397
Link 15 17 30 0 -3.02569659
Link 1 18 31 0 -2.03645436
Link 2 18 32 0 -0.27031770
Link 3 18 33 0 -1.56226539
Link 4 18 34 0 -0.82992798
Link 5 18 35 0 1.35489212
Link 6 18 36 0 -0.21220760
Link 7 18 37 0 -0.18251594
Link 8 18 38 0 -0.28795739
Link 9 18 39 0 1.94042787
Link 10 18 40 0 0.12179937
Link 11 18 41 0 1.82934050
Link 12 18 42 0 -1.34774316
Link 13 18 43 0 -0.82054353
Link 14 18 44 0 0.72756890
Link 15 18 45 0 -3.61317789
Link 1 19 46 0 0.21321375
Link 2 19 47 0 1.17899869
Link 3 19 48 0 0.83469649
Link 4 19 49 0 0.02629169
Link 5 19 50 0 -0.77663503
Link 6 19 51 0 1.36832336
Link 7 19 52 0 -0.68283639
Link 8 19 53 0 -0.03364666
Link 9 19 54 0 -0.47222053
Link 10 19 55 0 1.51953185
Link 11 19 56 0 1.63426618
Link 12 19 57 0 -0.12524796
Link 13 19 58 0 -0.06177137
Link 14 19 59 0 2.69927061
Link 15 19 60 0 0.12541581
Link 1 20 61 0 -0.84981079
Link 2 20 62 0 0.23332164
Link 3 20 63 0 0.22460097
Link 4 20 64 0 0.31155011
Link 5 20 65 0 0.93063143
Link 6 20 66 0 1.37735374
Link 7 20 67 0 -1.34099856
Link 8 20 68 0 -2.66544657
Link 9 20 69 0 -0.76929533
Link 10 20 70 0 0.87469863
Link 11 20 71 0 -0.30799280
Link 12 20 72 0 0.22495193
Link 13 20 73 0 -1.61760308
Link 14 20 74 0 2.28943754
Link 15 20 75 0 -0.28638569
GenomeEnd

GenomeStart 10813
Neuron 1 1 0.00000000 1 0.00000000 0.00000000 0.00000000 0.00000000
Neuron 2 1 0.00000000 1 0.00000000 0.00000000 0.00000000 0.00000000
Neuron 3 1 0.00000000 1 0.00000000 0.00000000 0.00000000 0.00000000
Neuron 4 1 0.00000000 1 0.00000000 0.00000000 0.00000000 0.00000000
Neuron 5 1 0.00000000 1 0.00000000 0.00000000 0.00000000 0.00000000
Neuron 6 1 0.00000000 1 0.00000000 0.00000000 0.00000000 0.00000000
Neuron 7 1 0.00000000 1 0.00000000 0.00000000 0.00000000 0.00000000
Neuron 8 1 0.00000000 1 0.00000000 0.00000000 0.00000000 0.00000000
Neuron 9 1 0.00000000 1 0.00000000 0.00000000 0.00000000 0.00000000
Neuron 10 1 0.00000000 1 0.00000000 0.00000000 0.00000000 0.00000000
Neuron 11 1 0.00000000 1 0.00000000 0.00000000 0.00000000 0.00000000
Neuron 12 1 0.00000000 1 0.00000000 0.00000000 0.00000000 0.00000000
Neuron 13 1 0.00000000 1 0.00000000 0.00000000 0.00000000 0.00000000
Neuron 14 1 0.00000000 1 0.00000000 0.00000000 0.00000000 0.00000000
Neuron 15 2 0.00000000 1 0.00000000 0.00000000 0.00000000 0.00000000
Neuron 16 4 1.00000000 0 4.50000000 0.00000000 0.00000000 0.00000000
Neuron 17 4 1.00000000 0 4.50000000 0.00000000 0.00000000 0.00000000
Neuron 18 4 1.00000000 0 4.50000000 0.00000000 0.00000000 0.00000000
Neuron 19 4 1.00000000 0 4.50000000 0.00000000 0.00000000 0.00000000
Neuron 20 4 1.00000000 0 4.50000000 0.00000000 0.00000000 0.00000000
Link 1 16 1 0 0.28604999
Link 2 16 2 0 -0.20828883
Link 3 16 3 0 0.41019929
Link 4 16 4 0 0.25904111
Link 5 16 5 0 0.31485946
Link 6 16 6 0 -2.14276559
Link 7 16 7 0 -0.07858516
Link 8 16 8 0 0.11795404
Link 9 16 9 0 0.01725822
Link 10 16 10 0 0.85851619
Link 11 16 11 0 0.85653249
Link 12 16 12 0 0.62161626
Link 13 16 13 0 -0.02218696
Link 14 16 14 0 0.28034303
Link 15 16 15 0 0.50080874
Link 1 17 16 0 -0.76998199
Link 2 17 17 0 -0.98426771
Link 3 17 18 0 0.21024201
Link 4 17 19 0 -0.80904569
Link 5 17 20 0 -0.35651723
Link 6 17 21 0 0.24292734
Link 7 17 22 0 0.39094211
Link 8 17 23 0 0.46319468
Link 9 17 24 0 0.45762505
Link 10 17 25 0 0.09756767
Link 11 17 26 0 1.18875698
Link 12 17 27 0 -0.21967223
Link 13 17 28 0 0.26548051
Link 14 17 29 0 0.32270272
Link 15 17 30 0 0.07177953
Link 1 18 31 0 -0.93771172
Link 2 18 32 0 -0.51902829
Link 3 18 33 0 -0.82543413
Link 4 18 34 0 1.07942442
Link 5 18 35 0 1.02479629
Link 6 18 36 0 -0.20804468
Link 7 18 37 0 0.37498093
Link 8 18 38 0 0.20468765
Link 9 18 39 0 0.04367199
Link 10 18 40 0 -0.10800500
Link 11 18 41 0 -0.31116672
Link 12 18 42 0 0.30315561
Link 13 18 43 0 0.29282510
Link 14 18 44 0 0.03994873
Link 15 18 45 0 0.00289926
Link 1 19 46 0 -0.16565447
Link 2 19 47 0 -0.74846645
Link 3 19 48 0 -0.65399640
Link 4 19 49 0 -0.23036897
Link 5 19 50 0 -0.23523667
Link 6 19 51 0 0.55110324
Link 7 19 52 0 -0.42655721
Link 8 19 53 0 0.14191107
Link 9 19 54 0 -0.21945860
Link 10 19 55 0 0.68324839
Link 11 19 56 0 0.12100589
Link 12 19 57 0 0.27732170
Link 13 19 58 0 0.14450514
Link 14 19 59 0 -0.26526688
Link 15 19 60 0 -0.59326457
Link 1 20 61 0 -0.37513352
Link 2 20 62 0 0.02606281
Link 3 20 63 0 0.26252022
Link 4 20 64 0 0.28678243
Link 5 20 65 0 -0.03588977
Link 6 20 66 0 -0.29532762
Link 7 20 67 0 0.81212806
Link 8 20 68 0 -0.08839687
Link 9 20 69 0 -0.44819483
Link 10 20 70 0 2.17772454
Link 11 20 71 0 -1.63742485
Link 12 20 72 0 -0.35798212
Link 13 20 73 0 -0.28107547
Link 14 20 74 0 -1.07115390
Link 15 20 75 0 1.57896664
GenomeEnd

GenomeStart 10815
Neuron 1 1 0.00000000 1 0.00000000 0.00000000 0.00000000 0.00000000
Neuron 2 1 0.00000000 1 0.00000000 0.00000000 0.00000000 0.00000000
Neuron 3 1 0.00000000 1 0.00000000 0.00000000 0.00000000 0.00000000
Neuron 4 1 0.00000000 1 0.00000000 0.00000000 0.00000000 0.00000000
Neuron 5 1 0.00000000 1 0.00000000 0.00000000 0.00000000 0.00000000
Neuron 6 1 0.00000000 1 0.00000000 0.00000000 0.00000000 0.00000000
Neuron 7 1 0.00000000 1 0.00000000 0.00000000 0.00000000 0.00000000
Neuron 8 1 0.00000000 1 0.00000000 0.00000000 0.00000000 0.00000000
Neuron 9 1 0.00000000 1 0.00000000 0.00000000 0.00000000 0.00000000
Neuron 10 1 0.00000000 1 0.00000000 0.00000000 0.00000000 0.00000000
Neuron 11 1 0.00000000 1 0.00000000 0.00000000 0.00000000 0.00000000
Neuron 12 1 0.00000000 1 0.00000000 0.00000000 0.00000000 0.00000000
Neuron 13 1 0.00000000 1 0.00000000 0.00000000 0.00000000 0.00000000
Neuron 14 1 0.00000000 1 0.00000000 0.00000000 0.00000000 0.00000000
Neuron 15 2 0.00000000 1 0.00000000 0.00000000 0.00000000 0.00000000
Neuron 16 4 1.00000000 0 4.50000000 0.00000000 0.00000000 0.00000000
Neuron 17 4 1.00000000 0 4.50000000 0.00000000 0.00000000 0.00000000
Neuron 18 4 1.00000000 0 4.50000000 0.00000000 0.00000000 0.00000000
Neuron 19 4 1.00000000 0 4.50000000 0.00000000 0.00000000 0.00000000
Neuron 20 4 1.00000000 0 4.50000000 0.00000000 0.00000000 0.00000000
Link 1 16 1 0 0.25450148
Link 2 16 2 0 -1.16797388
Link 3 16 3 0 0.58247627
Link 4 16 4 0 1.54512925
Link 5 16 5 0 -1.11935026
Link 6 16 6 0 0.10016556
Link 7 16 7 0 -0.49750892
Link 8 16 8 0 1.35852668
Link 9 16 9 0 3.26889859
Link 10 16 10 0 0.26321928
Link 11 16 11 0 2.08508560
Link 12 16 12 0 -1.31545457
Link 13 16 13 0 -0.40258588
Link 14 16 14 0 0.68828430
Link 15 16 15 0 -1.62949004
Link 1 17 16 0 -1.64000366
Link 2 17 17 0 -0.06440931
Link 3 17 18 0 1.47304453
Link 4 17 19 0 -0.95518167
Link 5 17 20 0 0.40636444
Link 6 17 21 0 -0.01883564
Link 7 17 22 0 1.89393292
Link 8 17 23 0 -0.50181967
Link 9 17 24 0 -2.02771462
Link 10 17 25 0 0.27932447
Link 11 17 26 0 0.87818537
Link 12 17 27 0 0.43831160
Link 13 17 28 0 -0.05063784
Link 14 17 29 0 0.42838164
Link 15 17 30 0 -0.68946088
Link 1 18 31 0 -0.66195791
Link 2 18 32 0 -0.49890133
Link 3 18 33 0 -0.87826167
Link 4 18 34 0 -0.77940077
Link 5 18 35 0 1.58790094
Link 6 18 36 0 1.54792598
Link 7 18 37 0 -0.26783044
Link 8 18 38 0 0.09821620
Link 9 18 39 0 1.02536362
Link 10 18 40 0 -0.01852855
Link 11 18 41 0 0.50850417
Link 12 18 42 0 -0.20232628
Link 13 18 43 0 -0.39658612
Link 14 18 44 0 0.43701361
Link 15 18 45 0 -4.28711051
Link 1 19 46 0 -0.27796497
Link 2 19 47 0 1.87254707
Link 3 19 48 0 0.43456069
Link 4 19 49 0 -0.36558504
Link 5 19 50 0 -0.82939390
Link 6 19 51 0 0.78377183
Link 7 19 52 0 0.15480132
Link 8 19 53 0 -0.17431791
Link 9 19 54 0 -0.63928648
Link 10 19 55 0 1.93580432
Link 11 19 56 0 0.76092181
Link 12 19 57 0 -0.41367458
Link 13 19 58 0 -1.69973029
Link 14 19 59 0 3.24111149
Link 15 19 60 0 -0.98616367
Link 1 20 61 0 -0.83008820
Link 2 20 62 0 -0.01741844
Link 3 20 63 0 -0.78662984
Link 4 20 64 0 0.03500711
Link 5 20 65 0 2.35716193
Link 6 20 66 0 0.24559389
Link 7 20 67 0 -1.70617160
Link 8 20 68 0 -0.39156488
Link 9 20 69 0 3.09904782
Link 10 20 70 0 0.46605579
Link 11 20 71 0 -0.72054201
Link 12 20 72 0 0.56196783
Link 13 20 73 0 -0.59108249
Link 14 20 74 0 2.15723136
Link 15 20 75 0 -1.56761376
GenomeEnd

GenomeStart 10816
Neuron 1 1 0.00000000 1 0.00000000 0.00000000 0.00000000 0.00000000
Neuron 2 1 0.00000000 1 0.00000000 0.00000000 0.00000000 0.00000000
Neuron 3 1 0.00000000 1 0.00000000 0.00000000 0.00000000 0.00000000
Neuron 4 1 0.00000000 1 0.00000000 0.00000000 0.00000000 0.00000000
Neuron 5 1 0.00000000 1 0.00000000 0.00000000 0.00000000 0.00000000
Neuron 6 1 0.00000000 1 0.00000000 0.00000000 0.00000000 0.00000000
Neuron 7 1 0.00000000 1 0.00000000 0.00000000 0.00000000 0.00000000
Neuron 8 1 0.00000000 1 0.00000000 0.00000000 0.00000000 0.00000000
Neuron 9 1 0.00000000 1 0.00000000 0.00000000 0.00000000 0.00000000
Neuron 10 1 0.00000000 1 0.00000000 0.00000000 0.00000000 0.00000000
Neuron 11 1 0.00000000 1 0.00000000 0.00000000 0.00000000 0.00000000
Neuron 12 1 0.00000000 1 0.00000000 0.00000000 0.00000000 0.00000000
Neuron 13 1 0.00000000 1 0.00000000 0.00000000 0.00000000 0.00000000
Neuron 14 1 0.00000000 1 0.00000000 0.00000000 0.00000000 0.00000000
Neuron 15 2 0.00000000 1 0.00000000 0.00000000 0.00000000 0.00000000
Neuron 16 4 1.00000000 0 4.50000000 0.00000000 0.00000000 0.00000000
Neuron 17 4 1.00000000 0 4.50000000 0.00000000 0.00000000 0.00000000
Neuron 18 4 1.00000000 0 4.50000000 0.00000000 0.00000000 0.00000000
Neuron 19 4 1.00000000 0 4.50000000 0.00000000 0.00000000 0.00000000
Neuron 20 4 1.00000000 0 4.50000000 0.00000000 0.00000000 0.00000000
Link 1 16 1 0 -0.07170324
Link 2 16 2 0 -0.42520677
Link 3 16 3 0 -0.18090609
Link 4 16 4 0 0.53950621
Link 5 16 5 0 -1.21352275
Link 6 16 6 0 0.13344981
Link 7 16 7 0 -0.61059908
Link 8 16 8 0 0.89687224
Link 9 16 9 0 2.07862331
Link 10 16 10 0 1.01955855
Link 11 16 11 0 1.42226936
Link 12 16 12 0 0.78542436
Link 13 16 13 0 -0.19026765
Link 14 16 14 0 0.13905783
Link 15 16 15 0 -0.30312510
Link 1 17 16 0 -0.71068453
Link 2 17 17 0 -0.14522995
Link 3 17 18 0 1.85090182
Link 4 17 19 0 -1.36448256
Link 5 17 20 0 -0.21966079
Link 6 17 21 0 -0.27367473
Link 7 17 22 0 0.49836726
Link 8 17 23 0 -0.49699393
Link 9 17 24 0 -2.09468368
Link 10 17 25 0 0.56118198
Link 11 17 26 0 0.75046541
Link 12 17 27 0 0.33998001
Link 13 17 28 0 0.05473494
Link 14 17 29 0 0.42559397
Link 15 17 30 0 -1.57713553
Link 1 18 31 0 -0.94656209
Link 2 18 32 0 -0.27031770
Link 3 18 33 0 -1.56226539
Link 4 18 34 0 -0.82992798
Link 5 18 35 0 1.35489212
Link 6 18 36 0 -0.21220760
Link 7 18 37 0 -0.18251594
Link 8 18 38 0 -0.28795739
Link 9 18 39 0 1.49871822
Link 10 18 40 0 0.12179937
Link 11 18 41 0 1.82934050
Link 12 18 42 0 -0.46652120
Link 13 18 43 0 0.24172948
Link 14 18 44 0 0.24804682
Link 15 18 45 0 -1.96113468
Link 1 19 46 0 0.21321375
Link 2 19 47 0 0.66773736
Link 3 19 48 0 0.83469649
Link 4 19 49 0 -0.30452895
Link 5 19 50 0 -0.77663503
Link 6 19 51 0 1.36832336
Link 7 19 52 0 -0.68283639
Link 8 19 53 0 -0.03364666
Link 9 19 54 0 -0.47222053
Link 10 19 55 0 1.51953185
Link 11 19 56 0 0.64416944
Link 12 19 57 0 -0.74375133
Link 13 19 58 0 -0.06177137
Link 14 19 59 0 2.20128483
Link 15 19 60 0 0.12541581
Link 1 20 61 0 -0.28247170
Link 2 20 62 0 0.23332164
Link 3 20 63 0 -0.32595294
Link 4 20 64 0 0.31155011
Link 5 20 65 0 0.93063143
Link 6 20 66 0 0.13357188
Link 7 20 67 0 -1.34099856
Link 8 20 68 0 -1.50391210
Link 9 20 69 0 0.38621174
Link 10 20 70 0 0.46605579
Link 11 20 71 0 -0.30799280
Link 12 20 72 0 0.22495193
Link 13 20 73 0 0.63991973
Link 14 20 74 0 -0.77033296
Link 15 20 75 0 1.20702231
GenomeEnd

GenomeStart 10817
Neuron 1 1 0.00000000 1 0.00000000 0.00000000 0.00000000 0.00000000
Neuron 2 1 0.00000000 1 0.00000000 0.00000000 0.00000000 0.00000000
Neuron 3 1 0.00000000 1 0.00000000 0.00000000 0.00000000 0.00000000
Neuron 4 1 0.00000000 1 0.00000000 0.00000000 0.00000000 0.00000000
Neuron 5 1 0.00000000 1 0.00000000 0.00000000 0.00000000 0.00000000
Neuron 6 1 0.00000000 1 0.00000000 0.00000000 0.00000000 0.00000000
Neuron 7 1 0.00000000 1 0.00000000 0.00000000 0.00000000 0.00000000
Neuron 8 1 0.00000000 1 0.00000000 0.00000000 0.00000000 0.00000000
Neuron 9 1 0.00000000 1 0.00000000 0.00000000 0.00000000 0.00000000
Neuron 10 1 0.00000000 1 0.00000000 0.00000000 0.00000000 0.00000000
Neuron 11 1 0.00000000 1 0.00000000 0.00000000 0.00000000 0.00000000
Neuron 12 1 0.00000000 1 0.00000000 0.00000000 0.00000000 0.00000000
Neuron 13 1 0.00000000 1 0.00000000 0.00000000 0.00000000 0.00000000
Neuron 14 1 0.00000000 1 0.00000000 0.00000000 0.00000000 0.00000000
Neuron 15 2 0.00000000 1 0.00000000 0.00000000 0.00000000 0.00000000
Neuron 16 4 1.00000000 0 4.50000000 0.00000000 0.00000000 0.00000000
Neuron 17 4 1.00000000 0 4.50000000 0.00000000 0.00000000 0.00000000
Neuron 18 4 1.00000000 0 4.50000000 0.00000000 0.00000000 0.00000000
Neuron 19 4 1.00000000 0 4.50000000 0.00000000 0.00000000 0.00000000
Neuron 20 4 1.00000000 0 4.50000000 0.00000000 0.00000000 0.00000000
Link 1 16 1 0 0.28604999
Link 2 16 2 0 -0.59253212
Link 3 16 3 0 0.41019929
Link 4 16 4 0 0.81997131
Link 5 16 5 0 -2.74190497
Link 6 16 6 0 -0.31048006
Link 7 16 7 0 -1.14261299
Link 8 16 8 0 1.67579043
Link 9 16 9 0 0.17831965
Link 10 16 10 0 0.85851619
Link 11 16 11 0 1.98800623
Link 12 16 12 0 1.07901242
Link 13 16 13 0 -0.35834834
Link 14 16 14 0 -0.00222737
Link 15 16 15 0 0.50080874
Link 1 17 16 0 -0.65138706
Link 2 17 17 0 -0.11029389
Link 3 17 18 0 3.49156163
Link 4 17 19 0 -1.91991943
Link 5 17 20 0 -0.08280435
Link 6 17 21 0 -0.79027680
Link 7 17 22 0 0.39094211
Link 8 17 23 0 -0.63692129
Link 9 17 24 0 -4.64699240
Link 10 17 25 0 0.09756767
Link 11 17 26 0 1.35721915
Link 12 17 27 0 0.89963225
Link 13 17 28 0 0.26548051
Link 14 17 29 0 0.52848521
Link 15 17 30 0 -3.22605060
Link 1 18 31 0 -0.95541246
Link 2 18 32 0 -0.02160710
Link 3 18 33 0 -0.82543413
Link 4 18 34 0 -0.73696097
Link 5 18 35 0 0.31180761
Link 6 18 36 0 -0.20804468
Link 7 18 37 0 0.37498093
Link 8 18 38 0 -0.00650044
Link 9 18 39 0 2.95376446
Link 10 18 40 0 0.13034456
Link 11 18 41 0 3.96984771
Link 12 18 42 0 -0.86318552
Link 13 18 43 0 0.29282510
Link 14 18 44 0 0.45614490
Link 15 18 45 0 0.00289926
Link 1 19 46 0 0.59208197
Link 2 19 47 0 -0.05783258
Link 3 19 48 0 -0.19965209
Link 4 19 49 0 -0.51258889
Link 5 19 50 0 -0.23523667
Link 6 19 51 0 2.18554347
Link 7 19 52 0 -0.29074984
Link 8 19 53 0 0.17777032
Link 9 19 54 0 -0.72498245
Link 10 19 55 0 2.35581530
Link 11 19 56 0 1.16733299
Link 12 19 57 0 0.27732170
Link 13 19 58 0 -0.26804789
Link 14 19 59 0 4.66783654
Link 15 19 60 0 0.36823634
Link 1 20 61 0 -0.37513352
Link 2 20 62 0 0.44058046
Link 3 20 63 0 0.26252022
Link 4 20 64 0 0.33631779
Link 5 20 65 0 1.89715262
Link 6 20 66 0 -0.29532762
Link 7 20 67 0 0.81212806
Link 8 20 68 0 -0.47468490
Link 9 20 69 0 -0.44819483
Link 10 20 70 0 0.27268288
Link 11 20 71 0 0.24610126
Link 12 20 72 0 -0.35798212
Link 13 20 73 0 0.31318094
Link 14 20 74 0 -1.37919248
Link 15 20 75 0 0.57194739
GenomeEnd

GenomeStart 10818
Neuron 1 1 0.00000000 1 0.00000000 0.00000000 0.00000000 0.00000000
Neuron 2 1 0.00000000 1 0.00000000 0.00000000 0.00000000 0.00000000
Neuron 3 1 0.00000000 1 0.00000000 0.00000000 0.00000000 0.00000000
Neuron 4 1 0.00000000 1 0.00000000 0.00000000 0.00000000 0.00000000
Neuron 5 1 0.00000000 1 0.00000000 0.00000000 0.00000000 0.00000000
Neuron 6 1 0.00000000 1 0.00000000 0.00000000 0.00000000 0.00000000
Neuron 7 1 0.00000000 1 0.00000000 0.00000000 0.00000000 0.00000000
Neuron 8 1 0.00000000 1 0.00000000 0.00000000 0.00000000 0.00000000
Neuron 9 1 0.00000000 1 0.00000000 0.00000000 0.00000000 0.00000000
Neuron 10 1 0.00000000 1 0.00000000 0.00000000 0.00000000 0.00000000
Neuron 11 1 0.00000000 1 0.00000000 0.00000000 0.00000000 0.00000000
Neuron 12 1 0.00000000 1 0.00000000 0.00000000 0.00000000 0.00000000
Neuron 13 1 0.00000000 1 0.00000000 0.00000000 0.00000000 0.00000000
Neuron 14 1 0.00000000 1 0.00000000 0.00000000 0.00000000 0.00000000
Neuron 15 2 0.00000000 1 0.00000000 0.00000000 0.00000000 0.00000000
Neuron 16 4 1.00000000 0 4.50000000 0.00000000 0.00000000 0.00000000
Neuron 17 4 1.00000000 0 4.50000000 0.00000000 0.00000000 0.00000000
Neuron 18 4 1.00000000 0 4.50000000 0.00000000 0.00000000 0.00000000
Neuron 19 4 1.00000000 0 4.50000000 0.00000000 0.00000000 0.00000000
Neuron 20 4 1.00000000 0 4.50000000 0.00000000 0.00000000 0.00000000
Link 1 16 1 0 0.90456862
Link 2 16 2 0 -0.41261788
Link 3 16 3 0 -3.13412885
Link 4 16 4 0 -0.03798028
Link 5 16 5 0 -0.71469772
Link 6 16 6 0 3.22312082
Link 7 16 7 0 0.52888577
Link 8 16 8 0 0.03151990
Link 9 16 9 0 3.86319315
Link 10 16 10 0 -2.25080111
Link 11 16 11 0 -1.72508927
Link 12 16 12 0 2.26137578
Link 13 16 13 0 -0.29418318
Link 14 16 14 0 0.13905783
Link 15 16 15 0 -1.57895138
Link 1 17 16 0 -0.64545121
Link 2 17 17 0 -0.89613788
Link 3 17 18 0 1.85090182
Link 4 17 19 0 -1.59466842
Link 5 17 20 0 -0.16553240
Link 6 17 21 0 -0.37751396
Link 7 17 22 0 1.74436171
Link 8 17 23 0 -1.18236335
Link 9 17 24 0 -2.36080508
Link 10 17 25 0 0.31260872
Link 11 17 26 0 1.20458083
Link 12 17 27 0 -2.54194769
Link 13 17 28 0 1.92124698
Link 14 17 29 0 1.48626476
Link 15 17 30 0 -3.54931791
Link 1 18 31 0 -3.83123264
Link 2 18 32 0 -1.00747703
Link 3 18 33 0 -2.45325328
Link 4 18 34 0 0.01314584
Link 5 18 35 0 2.38138218
Link 6 18 36 0 0.75324545
Link 7 18 37 0 -0.18251594
Link 8 18 38 0 -1.31337931
Link 9 18 39 0 -0.06215094
Link 10 18 40 0 -0.94466994
Link 11 18 41 0 1.20973846
Link 12 18 42 0 -2.12775048
Link 13 18 43 0 0.99225593
Link 14 18 44 0 -2.04313028
Link 15 18 45 0 -4.13573107
Link 1 19 46 0 0.45057146
Link 2 19 47 0 1.70185705
Link 3 19 48 0 -0.97779779
Link 4 19 49 0 -1.25312052
Link 5 19 50 0 -0.99194311
Link 6 19 51 0 2.03690760
Link 7 19 52 0 0.24462111
Link 8 19 53 0 0.44503617
Link 9 19 54 0 0.73702200
Link 10 19 55 0 1.59399701
Link 11 19 56 0 1.04014710
Link 12 19 57 0 -1.53555406
Link 13 19 58 0 -2.07135228
Link 14 19 59 0 2.20128483
Link 15 19 60 0 0.80208746
Link 1 20 61 0 0.03766747
Link 2 20 62 0 0.85757775
Link 3 20 63 0 -0.61323893
Link 4 20 64 0 1.30828463
Link 5 20 65 0 -2.60310678
Link 6 20 66 0 0.13357188
Link 7 20 67 0 0.43708609
Link 8 20 68 0 -0.57561533
Link 9 20 69 0 0.31983398
Link 10 20 70 0 -0.55043947
Link 11 20 71 0 -0.30799280
Link 12 20 72 0 0.71358379
Link 13 20 73 0 1.58885464
Link 14 20 74 0 1.20551164
Link 15 20 75 0 2.63330485
GenomeEnd

GenomeStart 10819
Neuron 1 1 0.00000000 1 0.00000000 0.00000000 0.00000000 0.00000000
Neuron 2 1 0.00000000 1 0.00000000 0.00000000 0.00000000 0.00000000
Neuron 3 1 0.00000000 1 0.00000000 0.00000000 0.00000000 0.00000000
Neuron 4 1 0.00000000 1 0.00000000 0.00000000 0.00000000 0.00000000
Neuron 5 1 0.00000000 1 0.00000000 0.00000000 0.00000000 0.00000000
Neuron 6 1 0.00000000 1 0.00000000 0.00000000 0.00000000 0.00000000
Neuron 7 1 0.00000000 1 0.00000000 0.00000000 0.00000000 0.00000000
Neuron 8 1 0.00000000 1 0.00000000 0.00000000 0.00000000 0.00000000
Neuron 9 1 0.00000000 1 0.00000000 0.00000000 0.00000000 0.00000000
Neuron 10 1 0.00000000 1 0.00000000 0.00000000 0.00000000 0.00000000
Neuron 11 1 0.00000000 1 0.00000000 0.00000000 0.00000000 0.00000000
Neuron 12 1 0.00000000 1 0.00000000 0.00000000 0.00000000 0.00000000
Neuron 13 1 0.00000000 1 0.00000000 0.00000000 0.00000000 0.00000000
Neuron 14 1 0.00000000 1 0.00000000 0.00000000 0.00000000 0.00000000
Neuron 15 2 0.00000000 1 0.00000000 0.00000000 0.00000000 0.00000000
Neuron 16 4 1.00000000 0 4.50000000 0.00000000 0.00000000 0.00000000
Neuron 17 4 1.00000000 0 4.50000000 0.00000000 0.00000000 0.00000000
Neuron 18 4 1.00000000 0 4.50000000 0.00000000 0.00000000 0.00000000
Neuron 19 4 1.00000000 0 4.50000000 0.00000000 0.00000000 0.00000000
Neuron 20 4 1.00000000 0 4.50000000 0.00000000 0.00000000 0.00000000
Link 1 16 1 0 -0.69779046
Link 2 16 2 0 -4.05774102
Link 3 16 3 0 1.38488419
Link 4 16 4 0 0.86658834
Link 5 16 5 0 0.31485946
Link 6 16 6 0 0.66481521
Link 7 16 7 0 -0.07858516
Link 8 16 8 0 -0.56031983
Link 9 16 9 0 0.17831965
Link 10 16 10 0 1.18060091
Link 11 16 11 0 1.63727226
Link 12 16 12 0 0.49183630
Link 13 16 13 0 4.24158452
Link 14 16 14 0 1.13905759
Link 15 16 15 0 -0.83223975
Link 1 17 16 0 -0.76998199
Link 2 17 17 0 -0.11029389
Link 3 17 18 0 0.21024201
Link 4 17 19 0 -1.44529557
Link 5 17 20 0 1.04983291
Link 6 17 21 0 1.26228370
Link 7 17 22 0 1.52287363
Link 8 17 23 0 1.33442183
Link 9 17 24 0 -1.22417371
Link 10 17 25 0 0.09756767
Link 11 17 26 0 -1.19818720
Link 12 17 27 0 0.26179541
Link 13 17 28 0 0.26548051
Link 14 17 29 0 -0.11684011
Link 15 17 30 0 1.64732023
Link 1 18 31 0 0.03613392
Link 2 18 32 0 -0.51902829
Link 3 18 33 0 -0.82543413
Link 4 18 34 0 -0.73696097
Link 5 18 35 0 -0.38714255
Link 6 18 36 0 1.66136662
Link 7 18 37 0 0.75966674
Link 8 18 38 0 -1.61535996
Link 9 18 39 0 -2.14905669
Link 10 18 40 0 0.02925199
Link 11 18 41 0 -0.48327204
Link 12 18 42 0 -0.06985687
Link 13 18 43 0 0.29282510
Link 14 18 44 0 0.03994873
Link 15 18 45 0 0.83269753
Link 1 19 46 0 -2.56068033
Link 2 19 47 0 4.04422132
Link 3 19 48 0 -0.19965209
Link 4 19 49 0 -0.09646901
Link 5 19 50 0 -0.49769585
Link 6 19 51 0 1.51492069
Link 7 19 52 0 -0.29074984
Link 8 19 53 0 0.59106723
Link 9 19 54 0 -1.15982543
Link 10 19 55 0 0.68324839
Link 11 19 56 0 -2.24274422
Link 12 19 57 0 0.27732170
Link 13 19 58 0 1.19167150
Link 14 19 59 0 3.89403974
Link 15 19 60 0 -4.95590075
Link 1 20 61 0 -0.37513352
Link 2 20 62 0 0.86005738
Link 3 20 63 0 0.26252022
Link 4 20 64 0 0.06661046
Link 5 20 65 0 -0.03588977
Link 6 20 66 0 0.90008240
Link 7 20 67 0 0.81212806
Link 8 20 68 0 -0.47468490
Link 9 20 69 0 -2.74684896
Link 10 20 70 0 0.27268288
Link 11 20 71 0 0.24610126
Link 12 20 72 0 -0.35798212
Link 13 20 73 0 -0.07013153
Link 14 20 74 0 1.84595783
Link 15 20 75 0 0.47645497
GenomeEnd

GenomeStart 10820
Neuron 1 1 0.00000000 1 0.00000000 0.00000000 0.00000000 0.00000000
Neuron 2 1 0.00000000 1 0.00000000 0.00000000 0.00000000 0.00000000
Neuron 3 1 0.00000000 1 0.00000000 0.00000000 0.00000000 0.00000000
Neuron 4 1 0.00000000 1 0.00000000 0.00000000 0.00000000 0.00000000
Neuron 5 1 0.00000000 1 0.00000000 0.00000000 0.00000000 0.00000000
Neuron 6 1 0.00000000 1 0.00000000 0.00000000 0.00000000 0.00000000
Neuron 7 1 0.00000000 1 0.00000000 0.00000000 0.00000000 0.00000000
Neuron 8 1 0.00000000 1 0.00000000 0.00000000 0.00000000 0.00000000
Neuron 9 1 0.00000000 1 0.00000000 0.00000000 0.00000000 0.00000000
Neuron 10 1 0.00000000 1 0.00000000 0.00000000 0.00000000 0.00000000
Neuron 11 1 0.00000000 1 0.00000000 0.00000000 0.00000000 0.00000000
Neuron 12 1 0.00000000 1 0.00000000 0.00000000 0.00000000 0.00000000
Neuron 13 1 0.00000000 1 0.00000000 0.00000000 0.00000000 0.00000000
Neuron 14 1 0.00000000 1 0.00000000 0.00000000 0.00000000 0.00000000
Neuron 15 2 0.00000000 1 0.00000000 0.00000000 0.00000000 0.00000000
Neuron 16 4 1.00000000 0 4.50000000 0.00000000 0.00000000 0.00000000
Neuron 17 4 1.00000000 0 4.50000000 0.00000000 0.00000000 0.00000000
Neuron 18 4 1.00000000 0 4.50000000 0.00000000 0.00000000 0.00000000
Neuron 19 4 1.00000000 0 4.50000000 0.00000000 0.00000000 0.00000000
Neuron 20 4 1.00000000 0 4.50000000 0.00000000 0.00000000 0.00000000
Neuron 385 3 0.50000000 0 4.76033815 0.00000000 0.00000000 0.00000000
Link 1 16 1 0 -0.20587023
Link 2 16 2 0 0.64743492
Link 3 16 3 0 0.59607180
Link 4 16 4 0 0.56281472
Link 5 16 5 0 0.31485946
Link 6 16 6 0 0.65905484
Link 7 16 7 0 -0.04898221
Link 8 16 8 0 -0.14980773
Link 9 16 9 0 2.55887020
Link 10 16 10 0 1.01955855
Link 11 16 11 0 1.24690237
Link 12 16 12 0 0.78542436
Link 13 16 13 0 -0.44682341
Link 14 16 14 0 2.00469246
Link 15 16 15 0 -0.61609241
Link 1 17 16 0 1.08522294
Link 2 17 17 0 -0.11029389
Link 3 17 18 0 -0.54547258
Link 4 17 19 0 -0.46874524
Link 5 17 20 0 0.34665784
Link 6 17 21 0 0.75260552
Link 7 17 22 0 0.95690787
Link 8 17 23 0 -0.36671804
Link 9 17 24 0 0.45762505
Link 10 17 25 0 0.50861384
Link 11 17 26 0 -0.52723777
Link 12 17 27 0 -0.24422056
Link 13 17 28 0 0.05473494
Link 14 17 29 0 0.31176565
Link 15 17 30 0 0.85954988
Link 1 18 31 0 -0.93771172
Link 2 18 32 0 -2.56089969
Link 3 18 33 0 0.54257332
Link 4 18 34 0 -0.63590656
Link 6 18 36 0 -0.23719463
Link 7 18 37 0 1.09114353
Link 8 18 38 0 -0.00650044
Link 9 18 39 0 -1.05269235
Link 10 18 40 0 0.16139714
Link 11 18 41 0 -0.39721938
Link 12 18 42 0 0.45853297
Link 13 18 43 0 -0.81730094
Link 14 18 44 0 0.37546159
Link 15 18 45 0 -1.78614917
Link 1 19 46 0 -1.36316740
Link 2 19 47 0 1.99319437
Link 3 19 48 0 -0.99992370
Link 4 19 49 0 -0.09646901
Link 5 19 50 0 -0.36646626
Link 6 19 51 0 1.03301196
Link 7 19 52 0 -0.56041902
Link 8 19 53 0 -0.24506363
Link 9 19 54 0 -0.68964202
Link 10 19 55 0 1.14667196
Link 11 19 56 0 0.12100589
Link 12 19 57 0 0.14651174
Link 13 19 58 0 0.66808832
Link 14 19 59 0 1.81438643
Link 15 19 60 0 -0.11740471
Link 1 20 61 0 -0.40031129
Link 2 20 62 0 0.44306009
Link 3 20 63 0 0.12915433
Link 4 20 64 0 0.31155011
Link 5 20 65 0 0.87699514
Link 6 20 66 0 -0.07128361
Link 7 20 67 0 0.08178198
Link 8 20 68 0 -1.98259492
Link 9 20 69 0 -2.99923704
Link 10 20 70 0 -0.45117802
Link 11 20 71 0 0.65123447
Link 12 20 72 0 0.31604968
Link 13 20 73 0 0.42127750
Link 14 20 74 0 -0.62485122
Link 15 20 75 0 0.74008912
Link 5 385 1368 0 1.00000000
Link 385 18 1369 0 -0.03766747
GenomeEnd

GenomeStart 10799
Neuron 1 1 0.00000000 1 0.00000000 0.00000000 0.00000000 0.00000000
Neuron 2 1 0.00000000 1 0.00000000 0.00000000 0.00000000 0.00000000
Neuron 3 1 0.00000000 1 0.00000000 0.00000000 0.00000000 0.00000000
Neuron 4 1 0.00000000 1 0.00000000 0.00000000 0.00000000 0.00000000
Neuron 5 1 0.00000000 1 0.00000000 0.00000000 0.00000000 0.00000000
Neuron 6 1 0.00000000 1 0.00000000 0.00000000 0.00000000 0.00000000
Neuron 7 1 0.00000000 1 0.00000000 0.00000000 0.00000000 0.00000000
Neuron 8 1 0.00000000 1 0.00000000 0.00000000 0.00000000 0.00000000
Neuron 9 1 0.00000000 1 0.00000000 0.00000000 0.00000000 0.00000000
Neuron 10 1 0.00000000 1 0.00000000 0.00000000 0.00000000 0.00000000
Neuron 11 1 0.00000000 1 0.00000000 0.00000000 0.00000000 0.00000000
Neuron 12 1 0.00000000 1 0.00000000 0.00000000 0.00000000 0.00000000
Neuron 13 1 0.00000000 1 0.00000000 0.00000000 0.00000000 0.00000000
Neuron 14 1 0.00000000 1 0.00000000 0.00000000 0.00000000 0.00000000
Neuron 15 2 0.00000000 1 0.00000000 0.00000000 0.00000000 0.00000000
Neuron 16 4 1.00000000 0 4.50000000 0.00000000 0.00000000 0.00000000
Neuron 17 4 1.00000000 0 4.50000000 0.00000000 0.00000000 0.00000000
Neuron 18 4 1.00000000 0 4.50000000 0.00000000 0.00000000 0.00000000
Neuron 19 4 1.00000000 0 4.50000000 0.00000000 0.00000000 0.00000000
Neuron 20 4 1.00000000 0 4.50000000 0.00000000 0.00000000 0.00000000
Link 1 16 1 0 0.28604999
Link 2 16 2 0 -0.25788141
Link 3 16 3 0 0.41019929
Link 4 16 4 0 0.25904111
Link 5 16 5 0 0.31485946
Link 6 16 6 0 0.57737968
Link 7 16 7 0 -0.07858516
Link 8 16 8 0 0.11795404
Link 9 16 9 0 0.17831965
Link 10 16 10 0 0.85851619
Link 11 16 11 0 0.85653249
Link 12 16 12 0 0.49183630
Link 13 16 13 0 -0.02218696
Link 14 16 14 0 0.28034303
Link 15 16 15 0 0.50080874
Link 1 17 16 0 -0.76998199
Link 2 17 17 0 -0.11029389
Link 3 17 18 0 0.21024201
Link 4 17 19 0 -0.80904569
Link 5 17 20 0 -0.35651723
Link 6 17 21 0 0.24292734
Link 7 17 22 0 0.39094211
Link 8 17 23 0 -0.35706656
Link 9 17 24 0 0.45762505
Link 10 17 25 0 0.09756767
Link 11 17 26 0 0.14371166
Link 12 17 27 0 -0.21967223
Link 13 17 28 0 0.26548051
Link 14 17 29 0 0.32270272
Link 15 17 30 0 0.07177953
Link 1 18 31 0 -0.93771172
Link 2 18 32 0 -0.51902829
Link 3 18 33 0 -0.82543413
Link 4 18 34 0 -0.73696097
Link 5 18 35 0 0.31180761
Link 6 18 36 0 -0.20804468
Link 7 18 37 0 0.37498093
Link 8 18 38 0 -0.00650044
Link 9 18 39 0 0.04367199
Link 10 18 40 0 0.11325419
Link 11 18 41 0 -0.31116672
Link 12 18 42 0 -0.06985687
Link 13 18 43 0 0.29282510
Link 14 18 44 0 0.03994873
Link 15 18 45 0 0.00289926
Link 1 19 46 0 -0.16565447
Link 2 19 47 0 -0.05783258
Link 3 19 48 0 -0.19965209
Link 4 19 49 0 -0.09646901
Link 5 19 50 0 -0.23523667
Link 6 19 51 0 0.55110324
Link 7 19 52 0 -0.29074984
Link 8 19 53 0 -0.24506363
Link 9 19 54 0 -0.21945860
Link 10 19 55 0 0.68324839
Link 11 19 56 0 0.12100589
Link 12 19 57 0 0.27732170
Link 13 19 58 0 0.14450514
Link 14 19 59 0 -0.26526688
Link 15 19 60 0 -0.11740471
Link 1 20 61 0 -0.37513352
Link 2 20 62 0 0.02606281
Link 3 20 63 0 0.26252022
Link 4 20 64 0 0.28678243
Link 5 20 65 0 -0.03588977
Link 6 20 66 0 -0.29532762
Link 7 20 67 0 0.81212806
Link 8 20 68 0 -0.47468490
Link 9 20 69 0 -0.44819483
Link 10 20 70 0 0.27268288
Link 11 20 71 0 0.24610126
Link 12 20 72 0 -0.35798212
Link 13 20 73 0 0.31318094
Link 14 20 74 0 -0.16147343
Link 15 20 75 0 0.57194739
GenomeEnd

GenomeStart 10821
Neuron 1 1 0.00000000 1 0.00000000 0.00000000 0.00000000 0.00000000
Neuron 2 1 0.00000000 1 0.00000000 0.00000000 0.00000000 0.00000000
Neuron 3 1 0.00000000 1 0.00000000 0.00000000 0.00000000 0.00000000
Neuron 4 1 0.00000000 1 0.00000000 0.00000000 0.00000000 0.00000000
Neuron 5 1 0.00000000 1 0.00000000 0.00000000 0.00000000 0.00000000
Neuron 6 1 0.00000000 1 0.00000000 0.00000000 0.00000000 0.00000000
Neuron 7 1 0.00000000 1 0.00000000 0.00000000 0.00000000 0.00000000
Neuron 8 1 0.00000000 1 0.00000000 0.00000000 0.00000000 0.00000000
Neuron 9 1 0.00000000 1 0.00000000 0.00000000 0.00000000 0.00000000
Neuron 10 1 0.00000000 1 0.00000000 0.00000000 0.00000000 0.00000000
Neuron 11 1 0.00000000 1 0.00000000 0.00000000 0.00000000 0.00000000
Neuron 12 1 0.00000000 1 0.00000000 0.00000000 0.00000000 0.00000000
Neuron 13 1 0.00000000 1 0.00000000 0.00000000 0.00000000 0.00000000
Neuron 14 1 0.00000000 1 0.00000000 0.00000000 0.00000000 0.00000000
Neuron 15 2 0.00000000 1 0.00000000 0.00000000 0.00000000 0.00000000
Neuron 16 4 1.00000000 0 4.50000000 0.00000000 0.00000000 0.00000000
Neuron 17 4 1.00000000 0 4.50000000 0.00000000 0.00000000 0.00000000
Neuron 18 4 1.00000000 0 4.50000000 0.00000000 0.00000000 0.00000000
Neuron 19 4 1.00000000 0 4.50000000 0.00000000 0.00000000 0.00000000
Neuron 20 4 1.00000000 0 4.50000000 0.00000000 0.00000000 0.00000000
Link 1 16 1 0 -1.51510666
Link 2 16 2 0 2.95823542
Link 3 16 3 0 -0.45854060
Link 4 16 4 0 3.81309702
Link 5 16 5 0 -1.23526719
Link 6 16 6 0 1.59067049
Link 7 16 7 0 0.43818476
Link 8 16 8 0 2.56363109
Link 9 16 9 0 1.00079348
Link 10 16 10 0 -2.75801874
Link 11 16 11 0 -3.24452956
Link 12 16 12 0 4.65193640
Link 13 16 13 0 -1.83327738
Link 14 16 14 0 3.71781060
Link 15 16 15 0 4.51257363
Link 1 17 16 0 -1.01002914
Link 2 17 17 0 4.67299417
Link 3 17 18 0 -2.92172765
Link 4 17 19 0 1.49986267
Link 5 17 20 0 -3.24240852
Link 6 17 21 0 -0.73239845
Link 7 17 22 0 1.66023743
Link 8 17 23 0 0.20758309
Link 9 17 24 0 -2.62419507
Link 10 17 25 0 -0.34228034
Link 11 17 26 0 -4.55809198
Link 12 17 27 0 2.32830287
Link 13 17 28 0 -2.27460555
Link 14 17 29 0 -0.08467360
Link 15 17 30 0 3.62570574
Link 1 18 31 0 -2.74394971
Link 2 18 32 0 -2.65636158
Link 3 18 33 0 -1.38115329
Link 4 18 34 0 3.96569720
Link 5 18 35 0 -0.86725211
Link 6 18 36 0 -1.99128697
Link 7 18 37 0 1.38590655
Link 8 18 38 0 -0.01153600
Link 9 18 39 0 0.04613636
Link 10 18 40 0 -1.34806360
Link 11 18 41 0 0.34966582
Link 12 18 42 0 -2.38430433
Link 13 18 43 0 -5.52500992
Link 14 18 44 0 1.43136387
Link 15 18 45 0 1.85291604
Link 1 19 46 0 -4.55838191
Link 2 19 47 0 0.15070040
Link 3 19 48 0 -0.72807054
Link 4 19 49 0 -0.14564959
Link 5 19 50 0 1.23232215
Link 6 19 51 0 -0.49629200
Link 7 19 52 0 2.34766686
Link 8 19 53 0 -0.75498215
Link 9 19 54 0 -1.76262703
Link 10 19 55 0 -4.04720450
Link 11 19 56 0 -2.24896237
Link 12 19 57 0 2.90963469
Link 13 19 58 0 4.32550279
Link 14 19 59 0 -0.13996551
Link 15 19 60 0 2.20337535
Link 1 20 61 0 -2.46658223
Link 2 20 62 0 -2.59929197
Link 3 20 63 0 5.19968261
Link 4 20 64 0 3.79008606
Link 5 20 65 0 6.86555834
Link 6 20 66 0 2.46675771
Link 7 20 67 0 -1.71594134
Link 8 20 68 0 2.84344004
Link 9 20 69 0 1.80537584
Link 10 20 70 0 -4.20956297
Link 11 20 71 0 -0.71151616
Link 12 20 72 0 -2.29289568
Link 13 20 73 0 1.00131230
Link 14 20 74 0 0.53706473
Link 15 20 75 0 -0.14346751
GenomeEnd

GenomeStart 10822
Neuron 1 1 0.00000000 1 0.00000000 0.00000000 0.00000000 0.00000000
Neuron 2 1 0.00000000 1 0.00000000 0.00000000 0.00000000 0.00000000
Neuron 3 1 0.00000000 1 0.00000000 0.00000000 0.00000000 0.00000000
Neuron 4 1 0.00000000 1 0.00000000 0.00000000 0.00000000 0.00000000
Neuron 5 1 0.00000000 1 0.00000000 0.00000000 0.00000000 0.00000000
Neuron 6 1 0.00000000 1 0.00000000 0.00000000 0.00000000 0.00000000
Neuron 7 1 0.00000000 1 0.00000000 0.00000000 0.00000000 0.00000000
Neuron 8 1 0.00000000 1 0.00000000 0.00000000 0.00000000 0.00000000
Neuron 9 1 0.00000000 1 0.00000000 0.00000000 0.00000000 0.00000000
Neuron 10 1 0.00000000 1 0.00000000 0.00000000 0.00000000 0.00000000
Neuron 11 1 0.00000000 1 0.00000000 0.00000000 0.00000000 0.00000000
Neuron 12 1 0.00000000 1 0.00000000 0.00000000 0.00000000 0.00000000
Neuron 13 1 0.00000000 1 0.00000000 0.00000000 0.00000000 0.00000000
Neuron 14 1 0.00000000 1 0.00000000 0.00000000 0.00000000 0.00000000
Neuron 15 2 0.00000000 1 0.00000000 0.00000000 0.00000000 0.00000000
Neuron 16 4 1.00000000 0 4.50000000 0.00000000 0.00000000 0.00000000
Neuron 17 4 1.00000000 0 4.50000000 0.00000000 0.00000000 0.00000000
Neuron 18 4 1.00000000 0 4.50000000 0.00000000 0.00000000 0.00000000
Neuron 19 4 1.00000000 0 4.50000000 0.00000000 0.00000000 0.00000000
Neuron 20 4 1.00000000 0 4.50000000 0.00000000 0.00000000 0.00000000
Link 1 16 1 0 -1.54612110
Link 2 16 2 0 3.46285897
Link 3 16 3 0 -0.19272439
Link 4 16 4 0 4.30200354
Link 5 16 5 0 0.48158971
Link 6 16 6 0 0.85902737
Link 7 16 7 0 -0.52589496
Link 8 16 8 0 -0.64033937
Link 9 16 9 0 1.47348704
Link 10 16 10 0 -3.28614154
Link 11 16 11 0 -2.74456008
Link 12 16 12 0 3.96362957
Link 13 16 13 0 -3.17172765
Link 14 16 14 0 4.14812159
Link 15 16 15 0 3.76310770
Link 1 17 16 0 -0.90603732
Link 2 17 17 0 4.03172399
Link 3 17 18 0 -2.92172765
Link 4 17 19 0 1.77780999
Link 5 17 20 0 -2.74298837
Link 6 17 21 0 -0.57244331
Link 7 17 22 0 -0.64619892
Link 8 17 23 0 0.23867382
Link 9 17 24 0 -1.80183569
Link 10 17 25 0 -1.27500229
Link 11 17 26 0 -2.36996063
Link 12 17 27 0 2.61777093
Link 13 17 28 0 -1.86874752
Link 14 17 29 0 -0.60070345
Link 15 17 30 0 3.87866604
Link 1 18 31 0 -2.22421949
Link 2 18 32 0 -3.08140812
Link 3 18 33 0 -1.48255104
Link 4 18 34 0 3.75107578
Link 5 18 35 0 -1.04609058
Link 6 18 36 0 -0.60902738
Link 7 18 37 0 1.27840510
Link 8 18 38 0 -3.20151372
Link 9 18 39 0 4.26184500
Link 10 18 40 0 -3.43587298
Link 11 18 41 0 -1.75570696
Link 12 18 42 0 -2.76200903
Link 13 18 43 0 -6.20984527
Link 14 18 44 0 3.92678610
Link 15 18 45 0 0.89226966
Link 1 19 46 0 -4.46312601
Link 2 19 47 0 -0.07200842
Link 3 19 48 0 -1.21045373
Link 4 19 49 0 0.60419019
Link 5 19 50 0 1.96259194
Link 6 19 51 0 -0.39329203
Link 7 19 52 0 1.62868130
Link 8 19 53 0 -0.77943510
Link 9 19 54 0 -0.61558885
Link 10 19 55 0 -3.57309946
Link 11 19 56 0 -3.19803461
Link 12 19 57 0 3.05379650
Link 13 19 58 0 6.90477462
Link 14 19 59 0 -0.03147221
Link 15 19 60 0 2.57604450
Link 1 20 61 0 -2.47569964
Link 2 20 62 0 -3.06374554
Link 3 20 63 0 4.50164800
Link 4 20 64 0 3.79008606
Link 5 20 65 0 6.86555834
Link 6 20 66 0 1.32758950
Link 7 20 67 0 -1.62472915
Link 8 20 68 0 3.92768639
Link 9 20 69 0 0.93872646
Link 10 20 70 0 -4.06254006
Link 11 20 71 0 -0.58570360
Link 12 20 72 0 -3.33811648
Link 13 20 73 0 0.48744163
Link 14 20 74 0 0.37025056
Link 15 20 75 0 -0.35156560
GenomeEnd

GenomeStart 10823
Neuron 1 1 0.00000000 1 0.00000000 0.00000000 0.00000000 0.00000000
Neuron 2 1 0.00000000 1 0.00000000 0.00000000 0.00000000 0.00000000
Neuron 3 1 0.00000000 1 0.00000000 0.00000000 0.00000000 0.00000000
Neuron 4 1 0.00000000 1 0.00000000 0.00000000 0.00000000 0.00000000
Neuron 5 1 0.00000000 1 0.00000000 0.00000000 0.00000000 0.00000000
Neuron 6 1 0.00000000 1 0.00000000 0.00000000 0.00000000 0.00000000
Neuron 7 1 0.00000000 1 0.00000000 0.00000000 0.00000000 0.00000000
Neuron 8 1 0.00000000 1 0.00000000 0.00000000 0.00000000 0.00000000
Neuron 9 1 0.00000000 1 0.00000000 0.00000000 0.00000000 0.00000000
Neuron 10 1 0.00000000 1 0.00000000 0.00000000 0.00000000 0.00000000
Neuron 11 1 0.00000000 1 0.00000000 0.00000000 0.00000000 0.00000000
Neuron 12 1 0.00000000 1 0.00000000 0.00000000 0.00000000 0.00000000
Neuron 13 1 0.00000000 1 0.00000000 0.00000000 0.00000000 0.00000000
Neuron 14 1 0.00000000 1 0.00000000 0.00000000 0.00000000 0.00000000
Neuron 15 2 0.00000000 1 0.00000000 0.00000000 0.00000000 0.00000000
Neuron 16 4 1.00000000 0 4.50000000 0.00000000 0.00000000 0.00000000
Neuron 17 4 1.00000000 0 4.50000000 0.00000000 0.00000000 0.00000000
Neuron 18 4 1.00000000 0 4.50000000 0.00000000 0.00000000 0.00000000
Neuron 19 4 1.00000000 0 4.50000000 0.00000000 0.00000000 0.00000000
Neuron 20 4 1.00000000 0 4.50000000 0.00000000 0.00000000 0.00000000
Link 1 16 1 0 -1.57713553
Link 2 16 2 0 -0.16406751
Link 3 16 3 0 -0.03433332
Link 4 16 4 0 3.81309702
Link 5 16 5 0 -0.77588733
Link 6 16 6 0 0.98327586
Link 7 16 7 0 -1.48997467
Link 8 16 8 0 2.56363109
Link 9 16 9 0 3.51681570
Link 10 16 10 0 -5.81696524
Link 11 16 11 0 -3.07469405
Link 12 16 12 0 1.81913205
Link 13 16 13 0 -1.83327738
Link 14 16 14 0 4.71645253
Link 15 16 15 0 2.19101535
Link 1 17 16 0 -0.80204550
Link 2 17 17 0 4.67299417
Link 3 17 18 0 -2.92172765
Link 4 17 19 0 1.80924406
Link 5 17 20 0 -3.31064791
Link 6 17 21 0 -0.73239845
Link 7 17 22 0 1.66023743
Link 8 17 23 0 0.26976455
Link 9 17 24 0 -1.04661702
Link 10 17 25 0 -0.34228034
Link 11 17 26 0 -0.18182928
Link 12 17 27 0 2.65828425
Link 13 17 28 0 -2.27460555
Link 14 17 29 0 -0.08467360
Link 15 17 30 0 3.62570574
Link 1 18 31 0 -1.70448927
Link 2 18 32 0 -3.50645466
Link 3 18 33 0 -1.58394879
Link 4 18 34 0 3.53645436
Link 5 18 35 0 -1.22492904
Link 6 18 36 0 -1.90278329
Link 7 18 37 0 1.17090365
Link 8 18 38 0 0.85160375
Link 9 18 39 0 0.04613636
Link 10 18 40 0 -2.17656484
Link 11 18 41 0 -3.86107974
Link 12 18 42 0 -2.38430433
Link 13 18 43 0 -5.52500992
Link 14 18 44 0 1.43136387
Link 15 18 45 0 1.90205084
Link 1 19 46 0 -4.61507004
Link 2 19 47 0 0.15070040
Link 3 19 48 0 -0.21390996
Link 4 19 49 0 1.35402997
Link 5 19 50 0 0.42037721
Link 6 19 51 0 -0.29029206
Link 7 19 52 0 0.90969573
Link 8 19 53 0 -1.44965972
Link 9 19 54 0 5.20255135
Link 10 19 55 0 -4.04720450
Link 11 19 56 0 -2.24896237
Link 12 19 57 0 2.90963469
Link 13 19 58 0 5.81877346
Link 14 19 59 0 1.79857021
Link 15 19 60 0 2.20337535
Link 1 20 61 0 -2.46658223
Link 2 20 62 0 -3.00556963
Link 3 20 63 0 5.19281594
Link 4 20 64 0 3.79008606
Link 5 20 65 0 6.73081912
Link 6 20 66 0 0.18842128
Link 7 20 67 0 -1.71594134
Link 8 20 68 0 4.29268776
Link 9 20 69 0 1.80537584
Link 10 20 70 0 -4.20956297
Link 11 20 71 0 -0.71151616
Link 12 20 72 0 1.77471236
Link 13 20 73 0 0.49787896
Link 14 20 74 0 2.67818232
Link 15 20 75 0 -0.13385418
GenomeEnd

GenomeStart 10824
Neuron 1 1 0.00000000 1 0.00000000 0.00000000 0.00000000 0.00000000
Neuron 2 1 0.00000000 1 0.00000000 0.00000000 0.00000000 0.00000000
Neuron 3 1 0.00000000 1 0.00000000 0.00000000 0.00000000 0.00000000
Neuron 4 1 0.00000000 1 0.00000000 0.00000000 0.00000000 0.00000000
Neuron 5 1 0.00000000 1 0.00000000 0.00000000 0.00000000 0.00000000
Neuron 6 1 0.00000000 1 0.00000000 0.00000000 0.00000000 0.00000000
Neuron 7 1 0.00000000 1 0.00000000 0.00000000 0.00000000 0.00000000
Neuron 8 1 0.00000000 1 0.00000000 0.00000000 0.00000000 0.00000000
Neuron 9 1 0.00000000 1 0.00000000 0.00000000 0.00000000 0.00000000
Neuron 10 1 0.00000000 1 0.00000000 0.00000000 0.00000000 0.00000000
Neuron 11 1 0.00000000 1 0.00000000 0.00000000 0.00000000 0.00000000
Neuron 12 1 0.00000000 1 0.00000000 0.00000000 0.00000000 0.00000000
Neuron 13 1 0.00000000 1 0.00000000 0.00000000 0.00000000 0.00000000
Neuron 14 1 0.00000000 1 0.00000000 0.00000000 0.00000000 0.00000000
Neuron 15 2 0.00000000 1 0.00000000 0.00000000 0.00000000 0.00000000
Neuron 16 4 1.00000000 0 4.50000000 0.00000000 0.00000000 0.00000000
Neuron 17 4 1.00000000 0 4.50000000 0.00000000 0.00000000 0.00000000
Neuron 18 4 1.00000000 0 4.50000000 0.00000000 0.00000000 0.00000000
Neuron 19 4 1.00000000 0 4.50000000 0.00000000 0.00000000 0.00000000
Neuron 20 4 1.00000000 0 4.50000000 0.00000000 0.00000000 0.00000000
Link 1 16 1 0 -1.51510666
Link 2 16 2 0 2.90585803
Link 3 16 3 0 -1.23801386
Link 4 16 4 0 3.81309702
Link 5 16 5 0 -1.23526719
Link 6 16 6 0 1.59067049
Link 7 16 7 0 0.43818476
Link 8 16 8 0 2.86397137
Link 9 16 9 0 1.00079348
Link 10 16 10 0 -2.75801874
Link 11 16 11 0 -3.30304117
Link 12 16 12 0 4.65193640
Link 13 16 13 0 -1.38755455
Link 14 16 14 0 3.71781060
Link 15 16 15 0 4.51257363
Link 1 17 16 0 -1.01002914
Link 2 17 17 0 4.67299417
Link 3 17 18 0 -2.92172765
Link 4 17 19 0 1.19524979
Link 5 17 20 0 -2.70784631
Link 6 17 21 0 -0.73239845
Link 7 17 22 0 1.66023743
Link 8 17 23 0 1.67619861
Link 9 17 24 0 -2.62419507
Link 10 17 25 0 -0.34228034
Link 11 17 26 0 -4.55809198
Link 12 17 27 0 2.32830287
Link 13 17 28 0 -1.90147862
Link 14 17 29 0 -0.08467360
Link 15 17 30 0 3.93997009
Link 1 18 31 0 -2.74394971
Link 2 18 32 0 -2.65636158
Link 3 18 33 0 -1.38115329
Link 4 18 34 0 3.96569720
Link 5 18 35 0 -0.86725211
Link 6 18 36 0 -1.99128697
Link 7 18 37 0 1.38590655
Link 8 18 38 0 -0.01153600
Link 9 18 39 0 0.04613636
Link 10 18 40 0 -0.04225288
Link 11 18 41 0 0.34966582
Link 12 18 42 0 -2.38430433
Link 13 18 43 0 -5.52500992
Link 14 18 44 0 1.43136387
Link 15 18 45 0 1.87725455
Link 1 19 46 0 -4.55838191
Link 2 19 47 0 0.15070040
Link 3 19 48 0 -1.16059412
Link 4 19 49 0 0.88839381
Link 5 19 50 0 1.23232215
Link 6 19 51 0 -0.49629200
Link 7 19 52 0 2.34766686
Link 8 19 53 0 -0.75498215
Link 9 19 54 0 -2.09436323
Link 10 19 55 0 -4.04720450
Link 11 19 56 0 -2.24896237
Link 12 19 57 0 2.90963469
Link 13 19 58 0 4.32550279
Link 14 19 59 0 -0.13996551
Link 15 19 60 0 0.28574480
Link 1 20 61 0 -2.25730155
Link 2 20 62 0 -2.59929197
Link 3 20 63 0 5.19968261
Link 4 20 64 0 3.79008606
Link 5 20 65 0 6.86555834
Link 6 20 66 0 2.03591266
Link 7 20 67 0 -1.71594134
Link 8 20 68 0 2.84344004
Link 9 20 69 0 2.33014161
Link 10 20 70 0 -3.63440352
Link 11 20 71 0 -0.71151616
Link 12 20 72 0 -2.29289568
Link 13 20 73 0 -3.64830470
Link 14 20 74 0 -1.78386792
Link 15 20 75 0 -0.14346751
GenomeEnd

GenomeStart 10825
Neuron 1 1 0.00000000 1 0.00000000 0.00000000 0.00000000 0.00000000
Neuron 2 1 0.00000000 1 0.00000000 0.00000000 0.00000000 0.00000000
Neuron 3 1 0.00000000 1 0.00000000 0.00000000 0.00000000 0.00000000
Neuron 4 1 0.00000000 1 0.00000000 0.00000000 0.00000000 0.00000000
Neuron 5 1 0.00000000 1 0.00000000 0.00000000 0.00000000 0.00000000
Neuron 6 1 0.00000000 1 0.00000000 0.00000000 0.00000000 0.00000000
Neuron 7 1 0.00000000 1 0.00000000 0.00000000 0.00000000 0.00000000
Neuron 8 1 0.00000000 1 0.00000000 0.00000000 0.00000000 0.00000000
Neuron 9 1 0.00000000 1 0.00000000 0.00000000 0.00000000 0.00000000
Neuron 10 1 0.00000000 1 0.00000000 0.00000000 0.00000000 0.00000000
Neuron 11 1 0.00000000 1 0.00000000 0.00000000 0.00000000 0.00000000
Neuron 12 1 0.00000000 1 0.00000000 0.00000000 0.00000000 0.00000000
Neuron 13 1 0.00000000 1 0.00000000 0.00000000 0.00000000 0.00000000
Neuron 14 1 0.00000000 1 0.00000000 0.00000000 0.00000000 0.00000000
Neuron 15 2 0.00000000 1 0.00000000 0.00000000 0.00000000 0.00000000
Neuron 16 4 1.00000000 0 4.50000000 0.00000000 0.00000000 0.00000000
Neuron 17 4 1.00000000 0 4.50000000 0.00000000 0.00000000 0.00000000
Neuron 18 4 1.00000000 0 4.50000000 0.00000000 0.00000000 0.00000000
Neuron 19 4 1.00000000 0 4.50000000 0.00000000 0.00000000 0.00000000
Neuron 20 4 1.00000000 0 4.50000000 0.00000000 0.00000000 0.00000000
Link 1 16 1 0 -2.69251076
Link 2 16 2 0 2.95823542
Link 3 16 3 0 -0.84421827
Link 4 16 4 0 3.81309702
Link 5 16 5 0 -1.23526719
Link 6 16 6 0 2.29213843
Link 7 16 7 0 0.43818476
Link 8 16 8 0 0.22110660
Link 9 16 9 0 2.35871456
Link 10 16 10 0 -2.75801874
Link 11 16 11 0 -3.24452956
Link 12 16 12 0 4.10023804
Link 13 16 13 0 -1.83327738
Link 14 16 14 0 3.71781060
Link 15 16 15 0 4.51257363
Link 1 17 16 0 -1.01002914
Link 2 17 17 0 1.38285470
Link 3 17 18 0 -2.92172765
Link 4 17 19 0 1.49986267
Link 5 17 20 0 -5.61564989
Link 6 17 21 0 -0.73239845
Link 7 17 22 0 1.66023743
Link 8 17 23 0 -0.08295312
Link 9 17 24 0 -2.62419507
Link 10 17 25 0 -0.34228034
Link 11 17 26 0 -4.55809198
Link 12 17 27 0 0.99151585
Link 13 17 28 0 -2.27460555
Link 14 17 29 0 0.20647298
Link 15 17 30 0 3.62570574
Link 1 18 31 0 -2.73426008
Link 2 18 32 0 -2.88853114
Link 3 18 33 0 -1.38115329
Link 4 18 34 0 3.96569720
Link 5 18 35 0 -0.86725211
Link 6 18 36 0 -1.99128697
Link 7 18 37 0 1.38590655
Link 8 18 38 0 -0.01153600
Link 9 18 39 0 0.04613636
Link 10 18 40 0 1.40574358
Link 11 18 41 0 0.34966582
Link 12 18 42 0 -1.80559709
Link 13 18 43 0 -3.86625263
Link 14 18 44 0 1.43136387
Link 15 18 45 0 0.18347728
Link 1 19 46 0 -4.42967009
Link 2 19 47 0 -0.12388989
Link 3 19 48 0 -1.31074519
Link 4 19 49 0 -0.14564959
Link 5 19 50 0 1.23232215
Link 6 19 51 0 1.52327036
Link 7 19 52 0 2.34766686
Link 8 19 53 0 -0.75498215
Link 9 19 54 0 -1.76262703
Link 10 19 55 0 -4.04720450
Link 11 19 56 0 -2.91449477
Link 12 19 57 0 4.01455733
Link 13 19 58 0 4.32550279
Link 14 19 59 0 -0.13996551
Link 15 19 60 0 1.91360210
Link 1 20 61 0 -2.46658223
Link 2 20 62 0 -2.67688528
Link 3 20 63 0 6.37479781
Link 4 20 64 0 3.79008606
Link 5 20 65 0 6.20902890
Link 6 20 66 0 2.12334819
Link 7 20 67 0 -1.71594134
Link 8 20 68 0 2.84344004
Link 9 20 69 0 1.80537584
Link 10 20 70 0 -4.20956297
Link 11 20 71 0 -0.71151616
Link 12 20 72 0 -2.29289568
Link 13 20 73 0 2.25150304
Link 14 20 74 0 -2.54908902
Link 15 20 75 0 2.29090243
GenomeEnd

GenomeStart 10826
Neuron 1 1 0.00000000 1 0.00000000 0.00000000 0.00000000 0.00000000
Neuron 2 1 0.00000000 1 0.00000000 0.00000000 0.00000000 0.00000000
Neuron 3 1 0.00000000 1 0.00000000 0.00000000 0.00000000 0.00000000
Neuron 4 1 0.00000000 1 0.00000000 0.00000000 0.00000000 0.00000000
Neuron 5 1 0.00000000 1 0.00000000 0.00000000 0.00000000 0.00000000
Neuron 6 1 0.00000000 1 0.00000000 0.00000000 0.00000000 0.00000000
Neuron 7 1 0.00000000 1 0.00000000 0.00000000 0.00000000 0.00000000
Neuron 8 1 0.00000000 1 0.00000000 0.00000000 0.00000000 0.00000000
Neuron 9 1 0.00000000 1 0.00000000 0.00000000 0.00000000 0.00000000
Neuron 10 1 0.00000000 1 0.00000000 0.00000000 0.00000000 0.00000000
Neuron 11 1 0.00000000 1 0.00000000 0.00000000 0.00000000 0.00000000
Neuron 12 1 0.00000000 1 0.00000000 0.00000000 0.00000000 0.00000000
Neuron 13 1 0.00000000 1 0.00000000 0.00000000 0.00000000 0.00000000
Neuron 14 1 0.00000000 1 0.00000000 0.00000000 0.00000000 0.00000000
Neuron 15 2 0.00000000 1 0.00000000 0.00000000 0.00000000 0.00000000
Neuron 16 4 1.00000000 0 4.50000000 0.00000000 0.00000000 0.00000000
Neuron 17 4 1.00000000 0 4.50000000 0.00000000 0.00000000 0.00000000
Neuron 18 4 1.00000000 0 4.50000000 0.00000000 0.00000000 0.00000000
Neuron 19 4 1.00000000 0 4.50000000 0.00000000 0.00000000 0.00000000
Neuron 20 4 1.00000000 0 4.50000000 0.00000000 0.00000000 0.00000000
Link 1 16 1 0 -1.51510666
Link 2 16 2 0 1.11114078
Link 3 16 3 0 0.62082278
Link 4 16 4 0 3.81309702
Link 5 16 5 0 -0.74094363
Link 6 16 6 0 -3.57835627
Link 7 16 7 0 2.20749535
Link 8 16 8 0 3.90495773
Link 9 16 9 0 1.00079348
Link 10 16 10 0 -2.11743522
Link 11 16 11 0 -3.30304117
Link 12 16 12 0 3.03025910
Link 13 16 13 0 -1.83327738
Link 14 16 14 0 4.13843196
Link 15 16 15 0 4.51257363
Link 1 17 16 0 -0.39832377
Link 2 17 17 0 5.37583544
Link 3 17 18 0 -2.92172765
Link 4 17 19 0 1.49986267
Link 5 17 20 0 -3.75000763
Link 6 17 21 0 -0.15491195
Link 7 17 22 0 2.11542100
Link 8 17 23 0 -0.29326380
Link 9 17 24 0 -2.71134831
Link 10 17 25 0 -0.34228034
Link 11 17 26 0 -4.55809198
Link 12 17 27 0 2.32830287
Link 13 17 28 0 -3.09883419
Link 14 17 29 0 -0.08467360
Link 15 17 30 0 3.62570574
Link 1 18 31 0 -3.41829432
Link 2 18 32 0 -2.65636158
Link 3 18 33 0 0.10147023
Link 4 18 34 0 3.96569720
Link 5 18 35 0 -1.55849635
Link 6 18 36 0 -1.99128697
Link 7 18 37 0 -0.01248207
Link 8 18 38 0 0.56667531
Link 9 18 39 0 -0.32962279
Link 10 18 40 0 -0.99412519
Link 11 18 41 0 0.23472549
Link 12 18 42 0 0.64747307
Link 13 18 43 0 -5.52500992
Link 14 18 44 0 1.87647633
Link 15 18 45 0 1.85291604
Link 1 19 46 0 -4.41006958
Link 2 19 47 0 3.08578753
Link 3 19 48 0 -2.00351535
Link 4 19 49 0 0.28290658
Link 5 19 50 0 1.23232215
Link 6 19 51 0 -0.15662099
Link 7 19 52 0 2.91561632
Link 8 19 53 0 -0.57354961
Link 9 19 54 0 -1.76262703
Link 10 19 55 0 -3.49680319
Link 11 19 56 0 -2.96565142
Link 12 19 57 0 2.90963469
Link 13 19 58 0 4.32550279
Link 14 19 59 0 -0.13996551
Link 15 19 60 0 -1.46571245
Link 1 20 61 0 -1.73795282
Link 2 20 62 0 -3.93203528
Link 3 20 63 0 5.19968261
Link 4 20 64 0 3.79008606
Link 5 20 65 0 6.72841578
Link 6 20 66 0 0.67570269
Link 7 20 67 0 -1.71594134
Link 8 20 68 0 2.84344004
Link 9 20 69 0 2.33014161
Link 10 20 70 0 -3.11331141
Link 11 20 71 0 0.63954207
Link 12 20 72 0 -1.96676725
Link 13 20 73 0 0.47187719
Link 14 20 74 0 0.42683187
Link 15 20 75 0 -0.23145238
GenomeEnd

GenomeStart 10828
Neuron 1 1 0.00000000 1 0.00000000 0.00000000 0.00000000 0.00000000
Neuron 2 1 0.00000000 1 0.00000000 0.00000000 0.00000000 0.00000000
Neuron 3 1 0.00000000 1 0.00000000 0.00000000 0.00000000 0.00000000
Neuron 4 1 0.00000000 1 0.00000000 0.00000000 0.00000000 0.00000000
Neuron 5 1 0.00000000 1 0.00000000 0.00000000 0.00000000 0.00000000
Neuron 6 1 0.00000000 1 0.00000000 0.00000000 0.00000000 0.00000000
Neuron 7 1 0.00000000 1 0.00000000 0.00000000 0.00000000 0.00000000
Neuron 8 1 0.00000000 1 0.00000000 0.00000000 0.00000000 0.00000000
Neuron 9 1 0.00000000 1 0.00000000 0.00000000 0.00000000 0.00000000
Neuron 10 1 0.00000000 1 0.00000000 0.00000000 0.00000000 0.00000000
Neuron 11 1 0.00000000 1 0.00000000 0.00000000 0.00000000 0.00000000
Neuron 12 1 0.00000000 1 0.00000000 0.00000000 0.00000000 0.00000000
Neuron 13 1 0.00000000 1 0.00000000 0.00000000 0.00000000 0.00000000
Neuron 14 1 0.00000000 1 0.00000000 0.00000000 0.00000000 0.00000000
Neuron 15 2 0.00000000 1 0.00000000 0.00000000 0.00000000 0.00000000
Neuron 16 4 1.00000000 0 4.50000000 0.00000000 0.00000000 0.00000000
Neuron 17 4 1.00000000 0 4.50000000 0.00000000 0.00000000 0.00000000
Neuron 18 4 1.00000000 0 4.50000000 0.00000000 0.00000000 0.00000000
Neuron 19 4 1.00000000 0 4.50000000 0.00000000 0.00000000 0.00000000
Neuron 20 4 1.00000000 0 4.50000000 0.00000000 0.00000000 0.00000000
Link 1 16 1 0 -2.24732200
Link 2 16 2 0 1.72025208
Link 3 16 3 0 -0.45854060
Link 4 16 4 0 -3.64738914
Link 5 16 5 0 -1.23526719
Link 6 16 6 0 1.59067049
Link 7 16 7 0 0.48091067
Link 8 16 8 0 2.56363109
Link 9 16 9 0 1.00079348
Link 10 16 10 0 -2.75801874
Link 11 16 11 0 -3.24452956
Link 12 16 12 0 4.02569658
Link 13 16 13 0 -1.83327738
Link 14 16 14 0 3.71781060
Link 15 16 15 0 4.51257363
Link 1 17 16 0 -1.01002914
Link 2 17 17 0 4.67299417
Link 3 17 18 0 -2.92172765
Link 4 17 19 0 -0.70380261
Link 5 17 20 0 -3.24240852
Link 6 17 21 0 -0.73239845
Link 7 17 22 0 1.66023743
Link 8 17 23 0 -0.97158727
Link 9 17 24 0 -2.62419507
Link 10 17 25 0 -0.34228034
Link 11 17 26 0 -4.55809198
Link 12 17 27 0 2.32830287
Link 13 17 28 0 -1.69948424
Link 14 17 29 0 -0.08467360
Link 15 17 30 0 3.62570574
Link 1 18 31 0 -2.74394971
Link 2 18 32 0 -2.65636158
Link 3 18 33 0 -1.41991180
Link 4 18 34 0 2.71382794
Link 5 18 35 0 -0.86725211
Link 6 18 36 0 -0.62176885
Link 7 18 37 0 1.38590655
Link 8 18 38 0 -0.01153600
Link 9 18 39 0 -1.53245643
Link 10 18 40 0 -1.34806360
Link 11 18 41 0 0.34966582
Link 12 18 42 0 -2.38430433
Link 13 18 43 0 -5.52500992
Link 14 18 44 0 1.43136387
Link 15 18 45 0 -0.47059542
Link 1 19 46 0 -4.55838191
Link 2 19 47 0 1.58713034
Link 3 19 48 0 -0.72807054
Link 4 19 49 0 1.37104404
Link 5 19 50 0 1.23232215
Link 6 19 51 0 -0.49629200
Link 7 19 52 0 3.40917692
Link 8 19 53 0 -2.45074313
Link 9 19 54 0 -3.05211035
Link 10 19 55 0 -3.97131260
Link 11 19 56 0 -2.24896237
Link 12 19 57 0 2.90963469
Link 13 19 58 0 3.39766381
Link 14 19 59 0 -1.02195044
Link 15 19 60 0 2.20337535
Link 1 20 61 0 -2.46658223
Link 2 20 62 0 -2.59929197
Link 3 20 63 0 5.19968261
Link 4 20 64 0 3.79008606
Link 5 20 65 0 7.21972564
Link 6 20 66 0 2.30561998
Link 7 20 67 0 -1.16623432
Link 8 20 68 0 2.84344004
Link 9 20 69 0 2.40849788
Link 10 20 70 0 -1.12411878
Link 11 20 71 0 -0.96741386
Link 12 20 72 0 -2.29289568
Link 13 20 73 0 -0.40778832
Link 14 20 74 0 5.00918607
Link 15 20 75 0 -3.50218207
GenomeEnd

GenomeStart 10829
Neuron 1 1 0.00000000 1 0.00000000 0.00000000 0.00000000 0.00000000
Neuron 2 1 0.00000000 1 0.00000000 0.00000000 0.00000000 0.00000000
Neuron 3 1 0.00000000 1 0.00000000 0.00000000 0.00000000 0.00000000
Neuron 4 1 0.00000000 1 0.00000000 0.00000000 0.00000000 0.00000000
Neuron 5 1 0.00000000 1 0.00000000 0.00000000 0.00000000 0.00000000
Neuron 6 1 0.00000000 1 0.00000000 0.00000000 0.00000000 0.00000000
Neuron 7 1 0.00000000 1 0.00000000 0.00000000 0.00000000 0.00000000
Neuron 8 1 0.00000000 1 0.00000000 0.00000000 0.00000000 0.00000000
Neuron 9 1 0.00000000 1 0.00000000 0.00000000 0.00000000 0.00000000
Neuron 10 1 0.00000000 1 0.00000000 0.00000000 0.00000000 0.00000000
Neuron 11 1 0.00000000 1 0.00000000 0.00000000 0.00000000 0.00000000
Neuron 12 1 0.00000000 1 0.00000000 0.00000000 0.00000000 0.00000000
Neuron 13 1 0.00000000 1 0.00000000 0.00000000 0.00000000 0.00000000
Neuron 14 1 0.00000000 1 0.00000000 0.00000000 0.00000000 0.00000000
Neuron 15 2 0.00000000 1 0.00000000 0.00000000 0.00000000 0.00000000
Neuron 16 4 1.00000000 0 4.50000000 0.00000000 0.00000000 0.00000000
Neuron 17 4 1.00000000 0 4.50000000 0.00000000 0.00000000 0.00000000
Neuron 18 4 1.00000000 0 4.50000000 0.00000000 0.00000000 0.00000000
Neuron 19 4 1.00000000 0 4.50000000 0.00000000 0.00000000 0.00000000
Neuron 20 4 1.00000000 0 4.50000000 0.00000000 0.00000000 0.00000000
Link 1 16 1 0 -1.54612110
Link 2 16 2 0 3.54823450
Link 3 16 3 0 -0.19272439
Link 4 16 4 0 4.30200354
Link 5 16 5 0 -0.51598407
Link 6 16 6 0 0.85902737
Link 7 16 7 0 -0.52589496
Link 8 16 8 0 2.56363109
Link 9 16 9 0 1.47348704
Link 10 16 10 0 -3.28614154
Link 11 16 11 0 -3.86107974
Link 12 16 12 0 4.02954955
Link 13 16 13 0 -1.09334086
Link 14 16 14 0 4.80442213
Link 15 16 15 0 3.76310770
Link 1 17 16 0 -0.90603732
Link 2 17 17 0 4.03172399
Link 3 17 18 0 -2.92088839
Link 4 17 19 0 0.81907102
Link 5 17 20 0 -3.46642964
Link 6 17 21 0 -0.57244331
Link 7 17 22 0 0.72759178
Link 8 17 23 0 0.86281930
Link 9 17 24 0 -1.06145665
Link 10 17 25 0 -0.35860775
Link 11 17 26 0 -2.36996063
Link 12 17 27 0 2.61777093
Link 13 17 28 0 -1.86874752
Link 14 17 29 0 0.04384747
Link 15 17 30 0 3.87866604
Link 1 18 31 0 -2.22421949
Link 2 18 32 0 -3.08140812
Link 3 18 33 0 -1.48255104
Link 4 18 34 0 3.75107578
Link 5 18 35 0 -0.01135289
Link 6 18 36 0 -1.94703513
Link 7 18 37 0 1.27840510
Link 8 18 38 0 -0.04564043
Link 9 18 39 0 2.38556703
Link 10 18 40 0 -1.76231422
Link 11 18 41 0 -1.41260262
Link 12 18 42 0 -2.76200903
Link 13 18 43 0 -5.08104190
Link 14 18 44 0 1.62805567
Link 15 18 45 0 3.06488235
Link 1 19 46 0 -4.58672597
Link 2 19 47 0 -1.58183538
Link 3 19 48 0 -1.21045373
Link 4 19 49 0 2.22487564
Link 5 19 50 0 1.96259194
Link 6 19 51 0 -0.01127659
Link 7 19 52 0 0.58761864
Link 8 19 53 0 1.16535691
Link 9 19 54 0 -2.67734306
Link 10 19 55 0 -3.57309946
Link 11 19 56 0 -2.97793512
Link 12 19 57 0 3.05379650
Link 13 19 58 0 5.07213813
Link 14 19 59 0 -0.03147221
Link 15 19 60 0 2.57604450
Link 1 20 61 0 -2.47569964
Link 2 20 62 0 -2.80243080
Link 3 20 63 0 4.50164800
Link 4 20 64 0 3.79008606
Link 5 20 65 0 5.61368908
Link 6 20 66 0 1.32758950
Link 7 20 67 0 -1.62472915
Link 8 20 68 0 3.92768639
Link 9 20 69 0 1.80537584
Link 10 20 70 0 -4.06254006
Link 11 20 71 0 -1.58587146
Link 12 20 72 0 -2.88407735
Link 13 20 73 0 -3.54356517
Link 14 20 74 0 -1.04959258
Link 15 20 75 0 3.27860347
GenomeEnd

GenomeStart 10830
Neuron 1 1 0.00000000 1 0.00000000 0.00000000 0.00000000 0.00000000
Neuron 2 1 0.00000000 1 0.00000000 0.00000000 0.00000000 0.00000000
Neuron 3 1 0.00000000 1 0.00000000 0.00000000 0.00000000 0.00000000
Neuron 4 1 0.00000000 1 0.00000000 0.00000000 0.00000000 0.00000000
Neuron 5 1 0.00000000 1 0.00000000 0.00000000 0.00000000 0.00000000
Neuron 6 1 0.00000000 1 0.00000000 0.00000000 0.00000000 0.00000000
Neuron 7 1 0.00000000 1 0.00000000 0.00000000 0.00000000 0.00000000
Neuron 8 1 0.00000000 1 0.00000000 0.00000000 0.00000000 0.00000000
Neuron 9 1 0.00000000 1 0.00000000 0.00000000 0.00000000 0.00000000
Neuron 10 1 0.00000000 1 0.00000000 0.00000000 0.00000000 0.00000000
Neuron 11 1 0.00000000 1 0.00000000 0.00000000 0.00000000 0.00000000
Neuron 12 1 0.00000000 1 0.00000000 0.00000000 0.00000000 0.00000000
Neuron 13 1 0.00000000 1 0.00000000 0.00000000 0.00000000 0.00000000
Neuron 14 1 0.00000000 1 0.00000000 0.00000000 0.00000000 0.00000000
Neuron 15 2 0.00000000 1 0.00000000 0.00000000 0.00000000 0.00000000
Neuron 16 4 1.00000000 0 4.50000000 0.00000000 0.00000000 0.00000000
Neuron 17 4 1.00000000 0 4.50000000 0.00000000 0.00000000 0.00000000
Neuron 18 4 1.00000000 0 4.50000000 0.00000000 0.00000000 0.00000000
Neuron 19 4 1.00000000 0 4.50000000 0.00000000 0.00000000 0.00000000
Neuron 20 4 1.00000000 0 4.50000000 0.00000000 0.00000000 0.00000000
Link 1 16 1 0 -0.96852016
Link 2 16 2 0 2.85348064
Link 3 16 3 0 -0.45854060
Link 4 16 4 0 3.81309702
Link 5 16 5 0 -1.23526719
Link 6 16 6 0 0.42493973
Link 7 16 7 0 0.43818476
Link 8 16 8 0 1.89916685
Link 9 16 9 0 1.00079348
Link 10 16 10 0 -2.75801874
Link 11 16 11 0 -3.14571062
Link 12 16 12 0 4.02600177
Link 13 16 13 0 -1.83327738
Link 14 16 14 0 3.71781060
Link 15 16 15 0 4.51257363
Link 1 17 16 0 -1.22960982
Link 2 17 17 0 4.67299417
Link 3 17 18 0 -2.92172765
Link 4 17 19 0 1.49986267
Link 5 17 20 0 -4.39616077
Link 6 17 21 0 -0.73239845
Link 7 17 22 0 1.66023743
Link 8 17 23 0 0.20758309
Link 9 17 24 0 2.71375164
Link 10 17 25 0 -1.27536851
Link 11 17 26 0 -4.55809198
Link 12 17 27 0 2.32830287
Link 13 17 28 0 -2.27460555
Link 14 17 29 0 -0.08467360
Link 15 17 30 0 3.62570574
Link 1 18 31 0 -4.09263894
Link 2 18 32 0 -2.20049135
Link 3 18 33 0 0.72988067
Link 4 18 34 0 3.96569720
Link 5 18 35 0 -2.24974059
Link 6 18 36 0 -1.99128697
Link 7 18 37 0 -1.37752922
Link 8 18 38 0 0.55603198
Link 9 18 39 0 -0.70538194
Link 10 18 40 0 -0.64018677
Link 11 18 41 0 0.34966582
Link 12 18 42 0 -2.38430433
Link 13 18 43 0 -5.52500992
Link 14 18 44 0 1.43136387
Link 15 18 45 0 2.06250191
Link 1 19 46 0 0.09338664
Link 2 19 47 0 0.12109745
Link 3 19 48 0 -0.81909200
Link 4 19 49 0 -0.33547472
Link 5 19 50 0 1.48165838
Link 6 19 51 0 -0.49629200
Link 7 19 52 0 2.34766686
Link 8 19 53 0 -2.30669576
Link 9 19 54 0 -3.57924131
Link 10 19 55 0 -3.87920011
Link 11 19 56 0 -3.68234046
Link 12 19 57 0 2.90963469
Link 13 19 58 0 5.31018250
Link 14 19 59 0 -3.70305490
Link 15 19 60 0 -1.63188574
Link 1 20 61 0 -4.29471725
Link 2 20 62 0 -2.59929197
Link 3 20 63 0 5.19968261
Link 4 20 64 0 3.79008606
Link 5 20 65 0 6.59127323
Link 6 20 66 0 2.46675771
Link 7 20 67 0 -1.71594134
Link 8 20 68 0 2.84344004
Link 9 20 69 0 2.85490738
Link 10 20 70 0 -4.20956297
Link 11 20 71 0 2.20392468
Link 12 20 72 0 -2.29289568
Link 13 20 73 0 -2.67122410
Link 14 20 74 0 3.63438826
