NEAT_ParametersStart
PopulationSize 80
DynamicCompatibility false
MinSpecies 5
MaxSpecies 25
InnovationsForever false
AllowClones true
YoungAgeTreshold 1
YoungAgeFitnessBoost 1.10000000000000008882
SpeciesDropoffAge 3
StagnationDelta 20.00000000000000000000
OldAgeTreshold 5
OldAgePenalty 1.00000000000000000000
DetectCompetetiveCoevolutionStagnation true
KillWorstSpeciesEach 30
KillWorstAge 2
SurvivalRate 0.14999999999999999445
CrossoverRate 0.75000000000000000000
OverallMutationRate 0.80000000000000004441
InterspeciesCrossoverRate 0.00010000000000000000
MultipointCrossoverRate 0.40000000000000002220
RouletteWheelSelection false
PhasedSearching false
DeltaCoding false
SimplifyingPhaseMPCTreshold 20
SimplifyingPhaseStagnationTreshold 30
ComplexityFloorGenerations 40
NoveltySearch_K 15
NoveltySearch_P_min 0.50000000000000000000
NoveltySearch_Dynamic_Pmin true
NoveltySearch_No_Archiving_Stagnation_Treshold 150
NoveltySearch_Pmin_lowering_multiplier 0.90000000000000002220
NoveltySearch_Pmin_min 0.05000000000000000278
NoveltySearch_Quick_Archiving_Min_Evaluations 8
NoveltySearch_Pmin_raising_multiplier 1.10000000000000008882
NoveltySearch_Recompute_Sparseness_Each 25
MutateAddNeuronProb 0.05000000000000000278
SplitRecurrent true
SplitLoopedRecurrent true
NeuronTries -858993460
MutateAddLinkProb 0.05999999999999999778
MutateAddLinkFromBiasProb 0.00000000000000000000
MutateRemLinkProb 0.01000000000000000021
MutateRemSimpleNeuronProb 0.00000000000000000000
LinkTries 32
RecurrentProb 0.01000000000000000021
RecurrentLoopProb 0.25000000000000000000
MutateWeightsProb 0.90000000000000002220
MutateWeightsSevereProb 0.50000000000000000000
WeightMutationRate 0.25000000000000000000
WeightMutationMaxPower 2.50000000000000000000
WeightReplacementMaxPower 6.00000000000000000000
MaxWeight 8.00000000000000000000
MutateActivationAProb 0.00000000000000000000
MutateActivationBProb 0.00000000000000000000
ActivationAMutationMaxPower 0.00000000000000000000
ActivationBMutationMaxPower 0.00000000000000000000
TimeConstantMutationMaxPower 0.00000000000000000000
BiasMutationMaxPower 1.00000000000000000000
MinActivationA 4.90000000000000035527
MaxActivationA 4.90000000000000035527
MinActivationB 0.00000000000000000000
MaxActivationB 0.00000000000000000000
MutateNeuronActivationTypeProb 0.00000000000000000000
ActivationFunction_SignedSigmoid_Prob 0.00000000000000000000
ActivationFunction_UnsignedSigmoid_Prob 0.98999999999999999112
ActivationFunction_Tanh_Prob 0.00000000000000000000
ActivationFunction_TanhCubic_Prob 0.00000000000000000000
ActivationFunction_SignedStep_Prob 0.00000000000000000000
ActivationFunction_UnsignedStep_Prob 0.00000000000000000000
ActivationFunction_SignedGauss_Prob 0.00000000000000000000
ActivationFunction_UnsignedGauss_Prob 0.00000000000000000000
ActivationFunction_Abs_Prob 0.00000000000000000000
ActivationFunction_SignedSine_Prob 0.00000000000000000000
ActivationFunction_UnsignedSine_Prob 0.00000000000000000000
ActivationFunction_Linear_Prob 0.00000000000000000000
ActivationFunction_Relu_Prob 0.01000000000000000021
ActivationFunction_Softplus_Prob 0.00000000000000000000
MutateNeuronTimeConstantsProb 0.00000000000000000000
MutateNeuronBiasesProb 0.00000000000000000000
MinNeuronTimeConstant 0.00000000000000000000
MaxNeuronTimeConstant 0.00000000000000000000
MinNeuronBias 0.00000000000000000000
MaxNeuronBias 0.00000000000000000000
DisjointCoeff 1.00000000000000000000
ExcessCoeff 1.00000000000000000000
ActivationADiffCoeff 0.00000000000000000000
ActivationBDiffCoeff 0.00000000000000000000
WeightDiffCoeff 4.00000000000000000000
TimeConstantDiffCoeff 0.00000000000000000000
BiasDiffCoeff 0.00000000000000000000
ActivationFunctionDiffCoeff 0.00000000000000000000
CompatTreshold 2.00000000000000000000
MinCompatTreshold 0.20000000000000001110
CompatTresholdModifier 0.29999999999999998890
CompatTreshChangeInterval_Generations 1
CompatTreshChangeInterval_Evaluations 10
DivisionThreshold 0.02999999999999999889
VarianceThreshold 0.02999999999999999889
BandThreshold 0.29999999999999998890
InitialDepth 3
MaxDepth 3
IterationLevel 1
TournamentSize 4
CPPN_Bias 1.00000000000000000000
Width 2.00000000000000000000
Height 2.00000000000000000000
Qtree_X 0.00000000000000000000
Qtree_Y 0.00000000000000000000
Leo false
LeoThreshold 0.10000000000000000555
LeoSeed false
GeometrySeed false
Elitism 0.02000000000000000042
NEAT_ParametersEnd
InnovationDatabaseStart
NextInnovNum: 182
NextNeuronID: 45
InnovationDatabaseEnd

GenomeStart 1891
Neuron 1 1 0.00000000 1 0.00000000 0.00000000 0.00000000 0.00000000
Neuron 2 1 0.00000000 1 0.00000000 0.00000000 0.00000000 0.00000000
Neuron 3 1 0.00000000 1 0.00000000 0.00000000 0.00000000 0.00000000
Neuron 4 1 0.00000000 1 0.00000000 0.00000000 0.00000000 0.00000000
Neuron 5 1 0.00000000 1 0.00000000 0.00000000 0.00000000 0.00000000
Neuron 6 1 0.00000000 1 0.00000000 0.00000000 0.00000000 0.00000000
Neuron 7 1 0.00000000 1 0.00000000 0.00000000 0.00000000 0.00000000
Neuron 8 1 0.00000000 1 0.00000000 0.00000000 0.00000000 0.00000000
Neuron 9 2 0.00000000 1 0.00000000 0.00000000 0.00000000 0.00000000
Neuron 10 4 1.00000000 1 4.90000000 0.00000000 0.00000000 0.00000000
Neuron 11 4 1.00000000 1 4.90000000 0.00000000 0.00000000 0.00000000
Neuron 12 4 1.00000000 1 4.90000000 0.00000000 0.00000000 0.00000000
Neuron 13 4 1.00000000 1 4.90000000 0.00000000 0.00000000 0.00000000
Neuron 14 4 1.00000000 1 4.90000000 0.00000000 0.00000000 0.00000000
Neuron 15 4 1.00000000 1 4.90000000 0.00000000 0.00000000 0.00000000
Neuron 16 4 1.00000000 1 4.90000000 0.00000000 0.00000000 0.00000000
Neuron 17 3 0.50000000 1 4.90000000 0.00000000 0.00000000 0.00000000
Neuron 19 3 0.50000000 1 4.90000000 0.00000000 0.00000000 0.00000000
Neuron 21 3 0.50000000 1 4.90000000 0.00000000 0.00000000 0.00000000
Link 1 10 1 0 -6.84208198
Link 2 10 2 0 -2.19902646
Link 3 10 3 0 0.36364330
Link 4 10 4 0 -3.90479751
Link 5 10 5 0 -1.88375500
Link 6 10 6 0 -2.83829768
Link 7 10 7 0 -3.22119815
Link 8 10 8 0 -3.57670827
Link 9 10 9 0 1.52023378
Link 1 11 10 0 -4.32152776
Link 2 11 11 0 -0.55299539
Link 4 11 13 0 -1.11165196
Link 5 11 14 0 1.00399793
Link 6 11 15 0 -4.25431074
Link 7 11 16 0 -1.33400983
Link 8 11 17 0 -1.26802881
Link 9 11 18 0 0.01152074
Link 1 12 19 0 -2.33544420
Link 2 12 20 0 1.35218360
Link 3 12 21 0 2.16821802
Link 4 12 22 0 1.62158574
Link 5 12 23 0 3.61073642
Link 6 12 24 0 1.83697012
Link 7 12 25 0 0.73076571
Link 8 12 26 0 1.40554521
Link 9 12 27 0 3.25637074
Link 1 13 28 0 -0.69603565
Link 3 13 30 0 3.18855861
Link 4 13 31 0 3.33393353
Link 5 13 32 0 2.31928465
Link 6 13 33 0 -1.20438246
Link 7 13 34 0 -4.52722251
Link 8 13 35 0 -0.69666128
Link 9 13 36 0 -0.37771233
Link 1 14 37 0 4.78414258
Link 2 14 38 0 -0.68350780
Link 3 14 39 0 -1.11488693
Link 4 14 40 0 1.24698630
Link 5 14 41 0 -3.90243233
Link 6 14 42 0 2.53224280
Link 7 14 43 0 1.20456557
Link 8 14 44 0 -3.62895596
Link 9 14 45 0 0.65825373
Link 2 15 47 0 1.97692801
Link 3 15 48 0 1.18012024
Link 4 15 49 0 -0.06456190
Link 5 15 50 0 -1.21872615
Link 6 15 51 0 -0.51806696
Link 7 15 52 0 1.09006012
Link 8 15 53 0 -1.03091525
Link 9 15 54 0 0.94756920
Link 1 16 55 0 -1.99754326
Link 2 16 56 0 -0.22624897
Link 3 16 57 0 -0.20216987
Link 4 16 58 0 -2.04510636
Link 5 16 59 0 -2.22278512
Link 6 16 60 0 1.31597339
Link 7 16 61 0 8.00000000
Link 8 16 62 0 0.03964354
Link 9 16 63 0 -2.79168065
Link 1 17 65 0 -4.35879086
Link 17 15 66 0 6.78438673
Link 2 19 71 0 -2.35978271
Link 19 13 72 0 -2.18550676
Link 3 21 80 0 0.65309610
Link 21 11 81 0 2.29012421
GenomeEnd

GenomeStart 1892
Neuron 1 1 0.00000000 1 0.00000000 0.00000000 0.00000000 0.00000000
Neuron 2 1 0.00000000 1 0.00000000 0.00000000 0.00000000 0.00000000
Neuron 3 1 0.00000000 1 0.00000000 0.00000000 0.00000000 0.00000000
Neuron 4 1 0.00000000 1 0.00000000 0.00000000 0.00000000 0.00000000
Neuron 5 1 0.00000000 1 0.00000000 0.00000000 0.00000000 0.00000000
Neuron 6 1 0.00000000 1 0.00000000 0.00000000 0.00000000 0.00000000
Neuron 7 1 0.00000000 1 0.00000000 0.00000000 0.00000000 0.00000000
Neuron 8 1 0.00000000 1 0.00000000 0.00000000 0.00000000 0.00000000
Neuron 9 2 0.00000000 1 0.00000000 0.00000000 0.00000000 0.00000000
Neuron 10 4 1.00000000 1 4.90000000 0.00000000 0.00000000 0.00000000
Neuron 11 4 1.00000000 1 4.90000000 0.00000000 0.00000000 0.00000000
Neuron 12 4 1.00000000 1 4.90000000 0.00000000 0.00000000 0.00000000
Neuron 13 4 1.00000000 1 4.90000000 0.00000000 0.00000000 0.00000000
Neuron 14 4 1.00000000 1 4.90000000 0.00000000 0.00000000 0.00000000
Neuron 15 4 1.00000000 1 4.90000000 0.00000000 0.00000000 0.00000000
Neuron 16 4 1.00000000 1 4.90000000 0.00000000 0.00000000 0.00000000
Neuron 17 3 0.50000000 1 4.90000000 0.00000000 0.00000000 0.00000000
Neuron 19 3 0.50000000 1 4.90000000 0.00000000 0.00000000 0.00000000
Neuron 21 3 0.50000000 1 4.90000000 0.00000000 0.00000000 0.00000000
Link 1 10 1 0 -6.84208198
Link 2 10 2 0 -0.85329752
Link 3 10 3 0 1.90691855
Link 4 10 4 0 -3.64645833
Link 5 10 5 0 -1.88375500
Link 6 10 6 0 -2.83829768
Link 7 10 7 0 -3.22119815
Link 8 10 8 0 -3.16707358
Link 9 10 9 0 1.52023378
Link 1 11 10 0 -4.32152776
Link 2 11 11 0 -0.55299539
Link 4 11 13 0 -0.28986480
Link 5 11 14 0 -0.70717490
Link 6 11 15 0 -4.25431074
Link 7 11 16 0 -1.30242317
Link 8 11 17 0 -1.26802881
Link 9 11 18 0 0.01152074
Link 1 12 19 0 -2.33544420
Link 2 12 20 0 1.35218360
Link 3 12 21 0 2.16821802
Link 4 12 22 0 1.37713248
Link 5 12 23 0 3.61073642
Link 6 12 24 0 1.83697012
Link 7 12 25 0 0.73076571
Link 8 12 26 0 1.40554521
Link 9 12 27 0 3.25637074
Link 1 13 28 0 -0.69603565
Link 3 13 30 0 3.18855861
Link 4 13 31 0 3.33393353
Link 5 13 32 0 0.40081485
Link 6 13 33 0 -1.11954100
Link 7 13 34 0 -4.52722251
Link 8 13 35 0 -0.69666128
Link 9 13 36 0 -0.37771233
Link 1 14 37 0 4.78414258
Link 2 14 38 0 1.24753563
Link 3 14 39 0 -1.11488693
Link 4 14 40 0 1.24698630
Link 5 14 41 0 -3.90243233
Link 6 14 42 0 2.53224280
Link 7 14 43 0 1.20456557
Link 8 14 44 0 -3.62895596
Link 9 14 45 0 0.65825373
Link 2 15 47 0 2.65382855
Link 3 15 48 0 -2.90432447
Link 4 15 49 0 1.65439315
Link 5 15 50 0 -0.59530930
Link 6 15 51 0 -0.51806696
Link 7 15 52 0 1.09006012
Link 8 15 53 0 -1.03091525
Link 9 15 54 0 1.62881863
Link 1 16 55 0 -1.99754326
Link 2 16 56 0 -0.22624897
Link 3 16 57 0 -0.20216987
Link 4 16 58 0 -1.55497910
Link 5 16 59 0 -3.38012330
Link 6 16 60 0 1.31597339
Link 7 16 61 0 8.00000000
Link 8 16 62 0 1.34641560
Link 9 16 63 0 -3.45927304
Link 1 17 65 0 -4.67908262
Link 17 15 66 0 7.59152501
Link 2 19 71 0 -2.35978271
Link 19 13 72 0 3.65031892
Link 3 21 80 0 3.25717948
Link 21 11 81 0 1.72522660
GenomeEnd

GenomeStart 1891
Neuron 1 1 0.00000000 1 0.00000000 0.00000000 0.00000000 0.00000000
Neuron 2 1 0.00000000 1 0.00000000 0.00000000 0.00000000 0.00000000
Neuron 3 1 0.00000000 1 0.00000000 0.00000000 0.00000000 0.00000000
Neuron 4 1 0.00000000 1 0.00000000 0.00000000 0.00000000 0.00000000
Neuron 5 1 0.00000000 1 0.00000000 0.00000000 0.00000000 0.00000000
Neuron 6 1 0.00000000 1 0.00000000 0.00000000 0.00000000 0.00000000
Neuron 7 1 0.00000000 1 0.00000000 0.00000000 0.00000000 0.00000000
Neuron 8 1 0.00000000 1 0.00000000 0.00000000 0.00000000 0.00000000
Neuron 9 2 0.00000000 1 0.00000000 0.00000000 0.00000000 0.00000000
Neuron 10 4 1.00000000 1 4.90000000 0.00000000 0.00000000 0.00000000
Neuron 11 4 1.00000000 1 4.90000000 0.00000000 0.00000000 0.00000000
Neuron 12 4 1.00000000 1 4.90000000 0.00000000 0.00000000 0.00000000
Neuron 13 4 1.00000000 1 4.90000000 0.00000000 0.00000000 0.00000000
Neuron 14 4 1.00000000 1 4.90000000 0.00000000 0.00000000 0.00000000
Neuron 15 4 1.00000000 1 4.90000000 0.00000000 0.00000000 0.00000000
Neuron 16 4 1.00000000 1 4.90000000 0.00000000 0.00000000 0.00000000
Neuron 17 3 0.50000000 1 4.90000000 0.00000000 0.00000000 0.00000000
Neuron 19 3 0.50000000 1 4.90000000 0.00000000 0.00000000 0.00000000
Neuron 21 3 0.50000000 1 4.90000000 0.00000000 0.00000000 0.00000000
Link 1 10 1 0 -6.84208198
Link 2 10 2 0 -2.19902646
Link 3 10 3 0 0.36364330
Link 4 10 4 0 -3.90479751
Link 5 10 5 0 -1.88375500
Link 6 10 6 0 -2.83829768
Link 7 10 7 0 -3.22119815
Link 8 10 8 0 -3.57670827
Link 9 10 9 0 1.52023378
Link 1 11 10 0 -4.32152776
Link 2 11 11 0 -0.55299539
Link 4 11 13 0 -1.11165196
Link 5 11 14 0 1.00399793
Link 6 11 15 0 -4.25431074
Link 7 11 16 0 -1.33400983
Link 8 11 17 0 -1.26802881
Link 9 11 18 0 0.01152074
Link 1 12 19 0 -2.33544420
Link 2 12 20 0 1.35218360
Link 3 12 21 0 2.16821802
Link 4 12 22 0 1.62158574
Link 5 12 23 0 3.61073642
Link 6 12 24 0 1.83697012
Link 7 12 25 0 0.73076571
Link 8 12 26 0 1.40554521
Link 9 12 27 0 3.25637074
Link 1 13 28 0 -0.69603565
Link 3 13 30 0 3.18855861
Link 4 13 31 0 3.33393353
Link 5 13 32 0 2.31928465
Link 6 13 33 0 -1.20438246
Link 7 13 34 0 -4.52722251
Link 8 13 35 0 -0.69666128
Link 9 13 36 0 -0.37771233
Link 1 14 37 0 4.78414258
Link 2 14 38 0 -0.68350780
Link 3 14 39 0 -1.11488693
Link 4 14 40 0 1.24698630
Link 5 14 41 0 -3.90243233
Link 6 14 42 0 2.53224280
Link 7 14 43 0 1.20456557
Link 8 14 44 0 -3.62895596
Link 9 14 45 0 0.65825373
Link 2 15 47 0 1.97692801
Link 3 15 48 0 1.18012024
Link 4 15 49 0 -0.06456190
Link 5 15 50 0 -1.21872615
Link 6 15 51 0 -0.51806696
Link 7 15 52 0 1.09006012
Link 8 15 53 0 -1.03091525
Link 9 15 54 0 0.94756920
Link 1 16 55 0 -1.99754326
Link 2 16 56 0 -0.22624897
Link 3 16 57 0 -0.20216987
Link 4 16 58 0 -2.04510636
Link 5 16 59 0 -2.22278512
Link 6 16 60 0 1.31597339
Link 7 16 61 0 8.00000000
Link 8 16 62 0 0.03964354
Link 9 16 63 0 -2.79168065
Link 1 17 65 0 -4.35879086
Link 17 15 66 0 6.78438673
Link 2 19 71 0 -2.35978271
Link 19 13 72 0 -2.18550676
Link 3 21 80 0 0.65309610
Link 21 11 81 0 2.29012421
GenomeEnd

GenomeStart 1891
Neuron 1 1 0.00000000 1 0.00000000 0.00000000 0.00000000 0.00000000
Neuron 2 1 0.00000000 1 0.00000000 0.00000000 0.00000000 0.00000000
Neuron 3 1 0.00000000 1 0.00000000 0.00000000 0.00000000 0.00000000
Neuron 4 1 0.00000000 1 0.00000000 0.00000000 0.00000000 0.00000000
Neuron 5 1 0.00000000 1 0.00000000 0.00000000 0.00000000 0.00000000
Neuron 6 1 0.00000000 1 0.00000000 0.00000000 0.00000000 0.00000000
Neuron 7 1 0.00000000 1 0.00000000 0.00000000 0.00000000 0.00000000
Neuron 8 1 0.00000000 1 0.00000000 0.00000000 0.00000000 0.00000000
Neuron 9 2 0.00000000 1 0.00000000 0.00000000 0.00000000 0.00000000
Neuron 10 4 1.00000000 1 4.90000000 0.00000000 0.00000000 0.00000000
Neuron 11 4 1.00000000 1 4.90000000 0.00000000 0.00000000 0.00000000
Neuron 12 4 1.00000000 1 4.90000000 0.00000000 0.00000000 0.00000000
Neuron 13 4 1.00000000 1 4.90000000 0.00000000 0.00000000 0.00000000
Neuron 14 4 1.00000000 1 4.90000000 0.00000000 0.00000000 0.00000000
Neuron 15 4 1.00000000 1 4.90000000 0.00000000 0.00000000 0.00000000
Neuron 16 4 1.00000000 1 4.90000000 0.00000000 0.00000000 0.00000000
Neuron 17 3 0.50000000 1 4.90000000 0.00000000 0.00000000 0.00000000
Neuron 19 3 0.50000000 1 4.90000000 0.00000000 0.00000000 0.00000000
Neuron 21 3 0.50000000 1 4.90000000 0.00000000 0.00000000 0.00000000
Link 1 10 1 0 -6.84208198
Link 2 10 2 0 -2.19902646
Link 3 10 3 0 0.36364330
Link 4 10 4 0 -3.90479751
Link 5 10 5 0 -1.88375500
Link 6 10 6 0 -2.83829768
Link 7 10 7 0 -3.22119815
Link 8 10 8 0 -3.57670827
Link 9 10 9 0 1.52023378
Link 1 11 10 0 -4.32152776
Link 2 11 11 0 -0.55299539
Link 4 11 13 0 -1.11165196
Link 5 11 14 0 1.00399793
Link 6 11 15 0 -4.25431074
Link 7 11 16 0 -1.33400983
Link 8 11 17 0 -1.26802881
Link 9 11 18 0 0.01152074
Link 1 12 19 0 -2.33544420
Link 2 12 20 0 1.35218360
Link 3 12 21 0 2.16821802
Link 4 12 22 0 1.62158574
Link 5 12 23 0 3.61073642
Link 6 12 24 0 1.83697012
Link 7 12 25 0 0.73076571
Link 8 12 26 0 1.40554521
Link 9 12 27 0 3.25637074
Link 1 13 28 0 -0.69603565
Link 3 13 30 0 3.18855861
Link 4 13 31 0 3.33393353
Link 5 13 32 0 2.31928465
Link 6 13 33 0 -1.20438246
Link 7 13 34 0 -4.52722251
Link 8 13 35 0 -0.69666128
Link 9 13 36 0 -0.37771233
Link 1 14 37 0 4.78414258
Link 2 14 38 0 -0.68350780
Link 3 14 39 0 -1.11488693
Link 4 14 40 0 1.24698630
Link 5 14 41 0 -3.90243233
Link 6 14 42 0 2.53224280
Link 7 14 43 0 1.20456557
Link 8 14 44 0 -3.62895596
Link 9 14 45 0 0.65825373
Link 2 15 47 0 1.97692801
Link 3 15 48 0 1.18012024
Link 4 15 49 0 -0.06456190
Link 5 15 50 0 -1.21872615
Link 6 15 51 0 -0.51806696
Link 7 15 52 0 1.09006012
Link 8 15 53 0 -1.03091525
Link 9 15 54 0 0.94756920
Link 1 16 55 0 -1.99754326
Link 2 16 56 0 -0.22624897
Link 3 16 57 0 -0.20216987
Link 4 16 58 0 -2.04510636
Link 5 16 59 0 -2.22278512
Link 6 16 60 0 1.31597339
Link 7 16 61 0 8.00000000
Link 8 16 62 0 0.03964354
Link 9 16 63 0 -2.79168065
Link 1 17 65 0 -4.35879086
Link 17 15 66 0 6.78438673
Link 2 19 71 0 -2.35978271
Link 19 13 72 0 -2.18550676
Link 3 21 80 0 0.65309610
Link 21 11 81 0 2.29012421
GenomeEnd

GenomeStart 1894
Neuron 1 1 0.00000000 1 0.00000000 0.00000000 0.00000000 0.00000000
Neuron 2 1 0.00000000 1 0.00000000 0.00000000 0.00000000 0.00000000
Neuron 3 1 0.00000000 1 0.00000000 0.00000000 0.00000000 0.00000000
Neuron 4 1 0.00000000 1 0.00000000 0.00000000 0.00000000 0.00000000
Neuron 5 1 0.00000000 1 0.00000000 0.00000000 0.00000000 0.00000000
Neuron 6 1 0.00000000 1 0.00000000 0.00000000 0.00000000 0.00000000
Neuron 7 1 0.00000000 1 0.00000000 0.00000000 0.00000000 0.00000000
Neuron 8 1 0.00000000 1 0.00000000 0.00000000 0.00000000 0.00000000
Neuron 9 2 0.00000000 1 0.00000000 0.00000000 0.00000000 0.00000000
Neuron 10 4 1.00000000 1 4.90000000 0.00000000 0.00000000 0.00000000
Neuron 11 4 1.00000000 1 4.90000000 0.00000000 0.00000000 0.00000000
Neuron 12 4 1.00000000 1 4.90000000 0.00000000 0.00000000 0.00000000
Neuron 13 4 1.00000000 1 4.90000000 0.00000000 0.00000000 0.00000000
Neuron 14 4 1.00000000 1 4.90000000 0.00000000 0.00000000 0.00000000
Neuron 15 4 1.00000000 1 4.90000000 0.00000000 0.00000000 0.00000000
Neuron 16 4 1.00000000 1 4.90000000 0.00000000 0.00000000 0.00000000
Neuron 17 3 0.50000000 1 4.90000000 0.00000000 0.00000000 0.00000000
Neuron 19 3 0.50000000 1 4.90000000 0.00000000 0.00000000 0.00000000
Neuron 21 3 0.50000000 1 4.90000000 0.00000000 0.00000000 0.00000000
Neuron 40 3 0.50000000 1 4.90000000 0.00000000 0.00000000 0.00000000
Link 1 10 1 0 -5.64812159
Link 2 10 2 0 -1.61844234
Link 3 10 3 0 -1.90894803
Link 4 10 4 0 -2.86220893
Link 5 10 5 0 -1.80639058
Link 6 10 6 0 0.61784722
Link 7 10 7 0 -2.74213385
Link 8 10 8 0 -2.24970245
Link 9 10 9 0 1.80535295
Link 1 11 10 0 -4.97988830
Link 2 11 11 0 -0.25994140
Link 4 11 13 0 -2.33277382
Link 5 11 14 0 1.39524522
Link 6 11 15 0 -2.36689352
Link 7 11 16 0 0.01620533
Link 8 11 17 0 -1.73152867
Link 9 11 18 0 -0.13733329
Link 1 12 19 0 0.44616535
Link 2 12 20 0 0.41404462
Link 3 12 21 0 4.49827570
Link 4 12 22 0 0.21308023
Link 5 12 23 0 3.98207038
Link 6 12 24 0 3.50163274
Link 7 12 25 0 -0.69582202
Link 8 12 26 0 1.30475783
Link 9 12 27 0 4.01452681
Link 1 13 28 0 1.03207495
Link 3 13 30 0 2.23737297
Link 4 13 31 0 3.55046235
Link 5 13 32 0 2.10252693
Link 7 13 34 0 -4.37310403
Link 8 13 35 0 -2.08006531
Link 9 13 36 0 0.14186529
Link 1 14 37 0 -0.23508408
Link 2 14 38 0 -1.42236092
Link 3 14 39 0 -0.33605457
Link 4 14 40 0 1.16898099
Link 5 14 41 0 -2.27709281
Link 6 14 42 0 1.12091433
Link 7 14 43 0 0.96438490
Link 8 14 44 0 -2.44801172
Link 9 14 45 0 -2.53765984
Link 2 15 47 0 1.62039552
Link 3 15 48 0 1.72235786
Link 4 15 49 0 -0.75336466
Link 5 15 50 0 -1.42365794
Link 6 15 51 0 -0.54553362
Link 7 15 52 0 -0.83849605
Link 8 15 53 0 0.84455397
Link 9 15 54 0 -1.37855159
Link 1 16 55 0 -1.99342326
Link 2 16 56 0 -0.39478743
Link 3 16 57 0 0.04808191
Link 4 16 58 0 -0.77546007
Link 5 16 59 0 0.79276406
Link 6 16 60 0 1.34618671
Link 7 16 61 0 4.44105350
Link 8 16 62 0 0.86335337
Link 9 16 63 0 0.09663686
Link 1 17 65 0 -0.45641957
Link 17 15 66 0 6.95971556
Link 2 19 71 0 -2.35978271
Link 19 13 72 0 0.46143986
Link 3 21 80 0 -0.42298654
Link 21 11 81 0 0.53523362
Link 6 40 165 0 1.00000000
Link 40 13 166 0 -0.90087588
GenomeEnd

GenomeStart 1895
Neuron 1 1 0.00000000 1 0.00000000 0.00000000 0.00000000 0.00000000
Neuron 2 1 0.00000000 1 0.00000000 0.00000000 0.00000000 0.00000000
Neuron 3 1 0.00000000 1 0.00000000 0.00000000 0.00000000 0.00000000
Neuron 4 1 0.00000000 1 0.00000000 0.00000000 0.00000000 0.00000000
Neuron 5 1 0.00000000 1 0.00000000 0.00000000 0.00000000 0.00000000
Neuron 6 1 0.00000000 1 0.00000000 0.00000000 0.00000000 0.00000000
Neuron 7 1 0.00000000 1 0.00000000 0.00000000 0.00000000 0.00000000
Neuron 8 1 0.00000000 1 0.00000000 0.00000000 0.00000000 0.00000000
Neuron 9 2 0.00000000 1 0.00000000 0.00000000 0.00000000 0.00000000
Neuron 10 4 1.00000000 1 4.90000000 0.00000000 0.00000000 0.00000000
Neuron 11 4 1.00000000 1 4.90000000 0.00000000 0.00000000 0.00000000
Neuron 12 4 1.00000000 1 4.90000000 0.00000000 0.00000000 0.00000000
Neuron 13 4 1.00000000 1 4.90000000 0.00000000 0.00000000 0.00000000
Neuron 14 4 1.00000000 1 4.90000000 0.00000000 0.00000000 0.00000000
Neuron 15 4 1.00000000 1 4.90000000 0.00000000 0.00000000 0.00000000
Neuron 16 4 1.00000000 1 4.90000000 0.00000000 0.00000000 0.00000000
Neuron 17 3 0.50000000 1 4.90000000 0.00000000 0.00000000 0.00000000
Neuron 23 3 0.50000000 1 4.90000000 0.00000000 0.00000000 0.00000000
Neuron 29 3 0.50000000 1 4.90000000 0.00000000 0.00000000 0.00000000
Neuron 31 3 0.50000000 1 4.90000000 0.00000000 0.00000000 0.00000000
Link 1 10 1 0 -1.03379925
Link 2 10 2 0 -1.90066225
Link 3 10 3 0 3.67983032
Link 4 10 4 0 3.41264077
Link 5 10 5 0 -2.12335582
Link 6 10 6 0 -5.06755272
Link 7 10 7 0 -2.53750725
Link 8 10 8 0 -2.08766442
Link 9 10 9 0 -6.29802851
Link 1 11 10 0 -1.67189550
Link 2 11 11 0 -2.64860226
Link 3 11 12 0 3.86007263
Link 5 11 14 0 -3.23996704
Link 6 11 15 0 -2.12640766
Link 7 11 16 0 2.17419202
Link 8 11 17 0 0.51672414
Link 9 11 18 0 1.63246559
Link 1 12 19 0 2.48022401
Link 3 12 21 0 -0.33530686
Link 4 12 22 0 3.93122653
Link 5 12 23 0 3.60730308
Link 6 12 24 0 1.72235786
Link 7 12 25 0 1.89741203
Link 8 12 26 0 2.69104587
Link 9 12 27 0 3.76769311
Link 1 13 28 0 -1.11880856
Link 2 13 29 0 -0.98747215
Link 3 13 30 0 -1.39475692
Link 4 13 31 0 -4.08861049
Link 5 13 32 0 2.53634754
Link 6 13 33 0 -1.46922208
Link 7 13 34 0 2.83538316
Link 8 13 35 0 1.64311655
Link 9 13 36 0 0.44895780
Link 1 14 37 0 6.13061922
Link 2 14 38 0 -1.37891781
Link 3 14 39 0 -0.93127995
Link 4 14 40 0 -5.53447065
Link 5 14 41 0 2.49517808
Link 6 14 42 0 -2.01521347
Link 7 14 43 0 0.22727134
Link 8 14 44 0 3.54753258
Link 9 14 45 0 2.94589068
Link 2 15 47 0 2.68453780
Link 3 15 48 0 -2.84180731
Link 4 15 49 0 1.09669790
Link 5 15 50 0 -0.79268777
Link 6 15 51 0 2.32816553
Link 7 15 52 0 -4.11053804
Link 8 15 53 0 3.82859279
Link 9 15 54 0 -6.54478591
Link 1 16 55 0 -2.13129063
Link 2 16 56 0 -3.45915098
Link 3 16 57 0 -0.78376110
Link 4 16 58 0 3.23007904
Link 5 16 59 0 6.70368053
Link 6 16 60 0 -0.95788446
Link 7 16 61 0 -3.00190741
Link 9 16 63 0 0.72533341
Link 1 17 65 0 1.42492447
Link 17 15 66 0 0.05694754
Link 2 23 90 0 -2.64961699
Link 23 12 91 0 -1.01374859
Link 8 29 112 0 -2.03875851
Link 29 16 113 0 2.43317972
Link 4 31 124 0 2.55531480
Link 31 11 125 0 -3.34452345
GenomeEnd

GenomeStart 1896
Neuron 1 1 0.00000000 1 0.00000000 0.00000000 0.00000000 0.00000000
Neuron 2 1 0.00000000 1 0.00000000 0.00000000 0.00000000 0.00000000
Neuron 3 1 0.00000000 1 0.00000000 0.00000000 0.00000000 0.00000000
Neuron 4 1 0.00000000 1 0.00000000 0.00000000 0.00000000 0.00000000
Neuron 5 1 0.00000000 1 0.00000000 0.00000000 0.00000000 0.00000000
Neuron 6 1 0.00000000 1 0.00000000 0.00000000 0.00000000 0.00000000
Neuron 7 1 0.00000000 1 0.00000000 0.00000000 0.00000000 0.00000000
Neuron 8 1 0.00000000 1 0.00000000 0.00000000 0.00000000 0.00000000
Neuron 9 2 0.00000000 1 0.00000000 0.00000000 0.00000000 0.00000000
Neuron 10 4 1.00000000 1 4.90000000 0.00000000 0.00000000 0.00000000
Neuron 11 4 1.00000000 1 4.90000000 0.00000000 0.00000000 0.00000000
Neuron 12 4 1.00000000 1 4.90000000 0.00000000 0.00000000 0.00000000
Neuron 13 4 1.00000000 1 4.90000000 0.00000000 0.00000000 0.00000000
Neuron 14 4 1.00000000 1 4.90000000 0.00000000 0.00000000 0.00000000
Neuron 15 4 1.00000000 1 4.90000000 0.00000000 0.00000000 0.00000000
Neuron 16 4 1.00000000 1 4.90000000 0.00000000 0.00000000 0.00000000
Neuron 17 3 0.50000000 1 4.90000000 0.00000000 0.00000000 0.00000000
Neuron 18 3 0.50000000 1 4.90000000 0.00000000 0.00000000 0.00000000
Neuron 19 3 0.50000000 1 4.90000000 0.00000000 0.00000000 0.00000000
Neuron 21 3 0.50000000 1 4.90000000 0.00000000 0.00000000 0.00000000
Link 1 10 1 0 3.40348521
Link 2 10 2 0 -4.21063875
Link 3 10 3 0 0.30166020
Link 4 10 4 0 0.52864162
Link 5 10 5 0 -2.89857174
Link 6 10 6 0 2.78237251
Link 7 10 7 0 -1.69924009
Link 8 10 8 0 -3.55490280
Link 9 10 9 0 0.21633046
Link 1 11 10 0 1.69307535
Link 2 11 11 0 -2.46009705
Link 4 11 13 0 -1.60673848
Link 5 11 14 0 0.42200995
Link 6 11 15 0 0.66359447
Link 7 11 16 0 0.35763115
Link 8 11 17 0 -2.32633442
Link 9 11 18 0 0.77694021
Link 1 12 19 0 2.61069063
Link 2 12 20 0 -2.57686087
Link 3 12 21 0 4.44647053
Link 4 12 22 0 -2.33651234
Link 5 12 23 0 2.85578479
Link 6 12 24 0 3.98718223
Link 7 12 25 0 -1.12628560
Link 8 12 26 0 0.79273354
Link 9 12 27 0 1.15601062
Link 1 13 28 0 3.13815729
Link 3 13 30 0 3.04153569
Link 4 13 31 0 1.16376232
Link 5 13 32 0 -0.51214637
Link 6 13 33 0 -0.64551226
Link 7 13 34 0 1.08163701
Link 8 13 35 0 3.33719901
Link 9 13 36 0 0.71851253
Link 1 14 37 0 3.21689505
Link 2 14 38 0 0.03749199
Link 3 14 39 0 -2.12901700
Link 4 14 40 0 2.83674124
Link 5 14 41 0 -5.51896725
Link 6 14 42 0 -0.30162969
Link 7 14 43 0 1.13536485
Link 8 14 44 0 1.49876400
Link 9 14 45 0 -0.70838038
Link 2 15 47 0 1.56828517
Link 3 15 48 0 -2.51191748
Link 5 15 50 0 1.45994446
Link 6 15 51 0 -0.66451003
Link 7 15 52 0 -2.05481125
Link 8 15 53 0 0.23174230
Link 9 15 54 0 0.19006928
Link 1 16 55 0 -2.16890469
Link 2 16 56 0 -0.49923703
Link 3 16 57 0 -2.89333781
Link 4 16 58 0 -2.05784784
Link 5 16 59 0 0.30523087
Link 6 16 60 0 1.66792810
Link 7 16 61 0 3.72714927
Link 8 16 62 0 1.60548722
Link 9 16 63 0 1.95568712
Link 1 17 65 0 -1.00140385
Link 17 15 66 0 5.64162114
Link 4 18 68 0 0.05987732
Link 18 15 69 0 -1.83204138
Link 2 19 71 0 -1.52983184
Link 19 13 72 0 -1.18640706
Link 3 21 80 0 -4.78901028
Link 21 11 81 0 -4.21924497
GenomeEnd

GenomeStart 1897
Neuron 1 1 0.00000000 1 0.00000000 0.00000000 0.00000000 0.00000000
Neuron 2 1 0.00000000 1 0.00000000 0.00000000 0.00000000 0.00000000
Neuron 3 1 0.00000000 1 0.00000000 0.00000000 0.00000000 0.00000000
Neuron 4 1 0.00000000 1 0.00000000 0.00000000 0.00000000 0.00000000
Neuron 5 1 0.00000000 1 0.00000000 0.00000000 0.00000000 0.00000000
Neuron 6 1 0.00000000 1 0.00000000 0.00000000 0.00000000 0.00000000
Neuron 7 1 0.00000000 1 0.00000000 0.00000000 0.00000000 0.00000000
Neuron 8 1 0.00000000 1 0.00000000 0.00000000 0.00000000 0.00000000
Neuron 9 2 0.00000000 1 0.00000000 0.00000000 0.00000000 0.00000000
Neuron 10 4 1.00000000 1 4.90000000 0.00000000 0.00000000 0.00000000
Neuron 11 4 1.00000000 1 4.90000000 0.00000000 0.00000000 0.00000000
Neuron 12 4 1.00000000 1 4.90000000 0.00000000 0.00000000 0.00000000
Neuron 13 4 1.00000000 1 4.90000000 0.00000000 0.00000000 0.00000000
Neuron 14 4 1.00000000 1 4.90000000 0.00000000 0.00000000 0.00000000
Neuron 15 4 1.00000000 1 4.90000000 0.00000000 0.00000000 0.00000000
Neuron 16 4 1.00000000 1 4.90000000 0.00000000 0.00000000 0.00000000
Neuron 17 3 0.50000000 1 4.90000000 0.00000000 0.00000000 0.00000000
Neuron 23 3 0.50000000 1 4.90000000 0.00000000 0.00000000 0.00000000
Neuron 29 3 0.50000000 1 4.90000000 0.00000000 0.00000000 0.00000000
Link 1 10 1 0 0.18610187
Link 2 10 2 0 -0.74431593
Link 3 10 3 0 3.95220802
Link 4 10 4 0 -3.60043641
Link 5 10 5 0 -1.66750084
Link 6 10 6 0 -2.19093905
Link 7 10 7 0 -2.58465835
Link 8 10 8 0 0.08616901
Link 9 10 9 0 -1.83927427
Link 1 11 10 0 -0.94924772
Link 2 11 11 0 -5.52519303
Link 3 11 12 0 0.26752525
Link 4 11 13 0 -1.64264351
Link 5 11 14 0 -4.33881649
Link 6 11 15 0 -0.62627033
Link 7 11 16 0 -2.02337718
Link 8 11 17 0 -1.92696921
Link 9 11 18 0 -0.01886044
Link 1 12 19 0 -3.93266091
Link 3 12 21 0 1.01570177
Link 4 12 22 0 1.12837611
Link 5 12 23 0 -0.68025758
Link 6 12 24 0 -1.03952147
Link 7 12 25 0 0.11024812
Link 8 12 26 0 -3.63194678
Link 9 12 27 0 -2.56334117
Link 1 13 28 0 0.93578906
Link 2 13 29 0 -0.26517533
Link 3 13 30 0 2.88967559
Link 4 13 31 0 -7.05233925
Link 5 13 32 0 0.01867733
Link 6 13 33 0 0.39478744
Link 7 13 34 0 1.78624836
Link 8 13 35 0 -0.61540574
Link 9 13 36 0 -0.48200933
Link 1 14 37 0 4.76381726
Link 2 14 38 0 0.78682821
Link 3 14 39 0 -1.95876949
Link 4 14 40 0 -2.34125797
Link 5 14 41 0 -1.14050722
Link 6 14 42 0 0.82300790
Link 7 14 43 0 3.68272957
Link 8 14 44 0 4.14299448
Link 9 14 45 0 -0.59620960
Link 2 15 47 0 -4.00370800
Link 3 15 48 0 -4.16369365
Link 4 15 49 0 -1.93664357
Link 5 15 50 0 -2.22278512
Link 6 15 51 0 1.11070589
Link 7 15 52 0 -5.62623982
Link 8 15 53 0 7.24506363
Link 9 15 54 0 -8.00000000
Link 1 16 55 0 0.07368694
Link 2 16 56 0 -1.79490036
Link 3 16 57 0 1.14796900
Link 4 16 58 0 0.24573504
Link 5 16 59 0 3.59506516
Link 6 16 60 0 0.51715140
Link 7 16 61 0 0.74443800
Link 9 16 63 0 1.25940733
Link 1 17 65 0 1.18619343
Link 17 15 66 0 2.65337077
Link 2 23 90 0 4.49894711
Link 23 12 91 0 -4.82845546
Link 8 29 112 0 -0.65155492
Link 29 16 113 0 4.01818903
GenomeEnd

GenomeStart 1899
Neuron 1 1 0.00000000 1 0.00000000 0.00000000 0.00000000 0.00000000
Neuron 2 1 0.00000000 1 0.00000000 0.00000000 0.00000000 0.00000000
Neuron 3 1 0.00000000 1 0.00000000 0.00000000 0.00000000 0.00000000
Neuron 4 1 0.00000000 1 0.00000000 0.00000000 0.00000000 0.00000000
Neuron 5 1 0.00000000 1 0.00000000 0.00000000 0.00000000 0.00000000
Neuron 6 1 0.00000000 1 0.00000000 0.00000000 0.00000000 0.00000000
Neuron 7 1 0.00000000 1 0.00000000 0.00000000 0.00000000 0.00000000
Neuron 8 1 0.00000000 1 0.00000000 0.00000000 0.00000000 0.00000000
Neuron 9 2 0.00000000 1 0.00000000 0.00000000 0.00000000 0.00000000
Neuron 10 4 1.00000000 1 4.90000000 0.00000000 0.00000000 0.00000000
Neuron 11 4 1.00000000 1 4.90000000 0.00000000 0.00000000 0.00000000
Neuron 12 4 1.00000000 1 4.90000000 0.00000000 0.00000000 0.00000000
Neuron 13 4 1.00000000 1 4.90000000 0.00000000 0.00000000 0.00000000
Neuron 14 4 1.00000000 1 4.90000000 0.00000000 0.00000000 0.00000000
Neuron 15 4 1.00000000 1 4.90000000 0.00000000 0.00000000 0.00000000
Neuron 16 4 1.00000000 1 4.90000000 0.00000000 0.00000000 0.00000000
Neuron 17 3 0.50000000 1 4.90000000 0.00000000 0.00000000 0.00000000
Neuron 19 3 0.50000000 1 4.90000000 0.00000000 0.00000000 0.00000000
Neuron 21 3 0.50000000 1 4.90000000 0.00000000 0.00000000 0.00000000
Link 1 10 1 0 -6.34089176
Link 2 10 2 0 -1.27042451
Link 3 10 3 0 -1.34073916
Link 4 10 4 0 -2.86220893
Link 5 10 5 0 -2.64114811
Link 6 10 6 0 -1.24439222
Link 7 10 7 0 -3.01634266
Link 8 10 8 0 -2.77332377
Link 9 10 9 0 1.82435072
Link 1 11 10 0 -4.25385296
Link 2 11 11 0 -0.37591174
Link 4 11 13 0 -2.14371166
Link 5 11 14 0 1.00399793
Link 6 11 15 0 -4.19113742
Link 7 11 16 0 0.98051393
Link 8 11 17 0 -1.75411237
Link 9 11 18 0 0.75693533
Link 1 12 19 0 -1.14705344
Link 2 12 20 0 0.21468245
Link 3 12 21 0 2.27277444
Link 4 12 22 0 0.76035341
Link 5 12 23 0 3.45890683
Link 6 12 24 0 4.94553972
Link 7 12 25 0 -0.84452346
Link 8 12 26 0 0.84690389
Link 9 12 27 0 3.52462844
Link 1 13 28 0 1.03207495
Link 3 13 30 0 2.23737297
Link 4 13 31 0 3.33393353
Link 5 13 32 0 1.08137760
Link 6 13 33 0 -0.90087588
Link 7 13 34 0 -3.43000579
Link 8 13 35 0 -2.58384961
Link 9 13 36 0 0.59590442
Link 1 14 37 0 -1.37403485
Link 2 14 38 0 -1.42236092
Link 3 14 39 0 -1.89089633
Link 4 14 40 0 -0.67921994
Link 5 14 41 0 -3.90243233
Link 6 14 42 0 2.35477767
Link 7 14 43 0 -0.68842128
Link 8 14 44 0 -3.83892331
Link 9 14 45 0 -1.12356944
Link 2 15 47 0 2.37237159
Link 3 15 48 0 1.82238227
Link 4 15 49 0 0.49385052
Link 5 15 50 0 -2.55810724
Link 6 15 51 0 0.43836787
Link 7 15 52 0 -2.19573046
Link 8 15 53 0 0.33886227
Link 9 15 54 0 -0.23639637
Link 1 16 55 0 -0.49389630
Link 2 16 56 0 0.71303446
Link 3 16 57 0 0.58406323
Link 4 16 58 0 -3.69981994
Link 5 16 59 0 -2.26581622
Link 6 16 60 0 1.10135197
Link 7 16 61 0 5.96140935
Link 8 16 62 0 -0.83608509
Link 9 16 63 0 -0.28298288
Link 1 17 65 0 -2.04022340
Link 17 15 66 0 6.21895504
Link 2 19 71 0 -2.35978271
Link 19 13 72 0 0.55171361
Link 3 21 80 0 1.81847591
Link 21 11 81 0 -0.64162114
GenomeEnd

GenomeStart 1900
Neuron 1 1 0.00000000 1 0.00000000 0.00000000 0.00000000 0.00000000
Neuron 2 1 0.00000000 1 0.00000000 0.00000000 0.00000000 0.00000000
Neuron 3 1 0.00000000 1 0.00000000 0.00000000 0.00000000 0.00000000
Neuron 4 1 0.00000000 1 0.00000000 0.00000000 0.00000000 0.00000000
Neuron 5 1 0.00000000 1 0.00000000 0.00000000 0.00000000 0.00000000
Neuron 6 1 0.00000000 1 0.00000000 0.00000000 0.00000000 0.00000000
Neuron 7 1 0.00000000 1 0.00000000 0.00000000 0.00000000 0.00000000
Neuron 8 1 0.00000000 1 0.00000000 0.00000000 0.00000000 0.00000000
Neuron 9 2 0.00000000 1 0.00000000 0.00000000 0.00000000 0.00000000
Neuron 10 4 1.00000000 1 4.90000000 0.00000000 0.00000000 0.00000000
Neuron 11 4 1.00000000 1 4.90000000 0.00000000 0.00000000 0.00000000
Neuron 12 4 1.00000000 1 4.90000000 0.00000000 0.00000000 0.00000000
Neuron 13 4 1.00000000 1 4.90000000 0.00000000 0.00000000 0.00000000
Neuron 14 4 1.00000000 1 4.90000000 0.00000000 0.00000000 0.00000000
Neuron 15 4 1.00000000 1 4.90000000 0.00000000 0.00000000 0.00000000
Neuron 16 4 1.00000000 1 4.90000000 0.00000000 0.00000000 0.00000000
Neuron 17 3 0.50000000 1 4.90000000 0.00000000 0.00000000 0.00000000
Neuron 19 3 0.50000000 1 4.90000000 0.00000000 0.00000000 0.00000000
Neuron 21 3 0.50000000 1 4.90000000 0.00000000 0.00000000 0.00000000
Link 1 10 1 0 -6.34089176
Link 2 10 2 0 -1.30201117
Link 3 10 3 0 0.59421064
Link 4 10 4 0 -2.86220893
Link 5 10 5 0 -2.64114811
Link 6 10 6 0 -1.24439222
Link 7 10 7 0 -3.81371502
Link 8 10 8 0 -2.52787866
Link 9 10 9 0 -2.62251656
Link 1 11 10 0 -5.50885037
Link 2 11 11 0 -0.41218299
Link 4 11 13 0 -2.14371166
Link 5 11 14 0 1.00399793
Link 6 11 15 0 -4.19113742
Link 7 11 16 0 0.49938963
Link 8 11 17 0 -1.75411237
Link 9 11 18 0 0.75693533
Link 1 12 19 0 -1.14705344
Link 2 12 20 0 1.28145695
Link 3 12 21 0 2.27277444
Link 4 12 22 0 0.65315715
Link 5 12 23 0 3.45890683
Link 6 12 24 0 4.94553972
Link 7 12 25 0 -0.84452346
Link 8 12 26 0 0.84690389
Link 9 12 27 0 0.51344340
Link 1 13 28 0 0.54683065
Link 3 13 30 0 2.23737297
Link 4 13 31 0 3.33393353
Link 5 13 32 0 1.08137760
Link 6 13 33 0 0.13019196
Link 7 13 34 0 -3.62929166
Link 8 13 35 0 -2.58384961
Link 9 13 36 0 0.59590442
Link 1 14 37 0 -1.37403485
Link 2 14 38 0 -1.42236092
Link 3 14 39 0 -1.89089633
Link 4 14 40 0 0.43554491
Link 5 14 41 0 -3.90243233
Link 6 14 42 0 2.35477767
Link 7 14 43 0 -0.68842128
Link 8 14 44 0 -3.83892331
Link 9 14 45 0 -1.12356944
Link 2 15 47 0 2.37237159
Link 3 15 48 0 1.82238227
Link 4 15 49 0 0.49385052
Link 5 15 50 0 -3.97958312
Link 6 15 51 0 0.43836787
Link 7 15 52 0 -2.19573046
Link 8 15 53 0 0.33886227
Link 9 15 54 0 -0.23639637
Link 1 16 55 0 -2.46174505
Link 2 16 56 0 0.71303446
Link 3 16 57 0 0.58406323
Link 4 16 58 0 -3.69981994
Link 5 16 59 0 -2.44953765
Link 6 16 60 0 1.10135197
Link 7 16 61 0 5.96140935
Link 8 16 62 0 -1.31278421
Link 9 16 63 0 -0.28298288
Link 1 17 65 0 -2.14166692
Link 17 15 66 0 1.11716056
Link 2 19 71 0 -2.35978271
Link 19 13 72 0 3.69243446
Link 3 21 80 0 2.68733787
Link 21 11 81 0 1.97979675
GenomeEnd

GenomeStart 1901
Neuron 1 1 0.00000000 1 0.00000000 0.00000000 0.00000000 0.00000000
Neuron 2 1 0.00000000 1 0.00000000 0.00000000 0.00000000 0.00000000
Neuron 3 1 0.00000000 1 0.00000000 0.00000000 0.00000000 0.00000000
Neuron 4 1 0.00000000 1 0.00000000 0.00000000 0.00000000 0.00000000
Neuron 5 1 0.00000000 1 0.00000000 0.00000000 0.00000000 0.00000000
Neuron 6 1 0.00000000 1 0.00000000 0.00000000 0.00000000 0.00000000
Neuron 7 1 0.00000000 1 0.00000000 0.00000000 0.00000000 0.00000000
Neuron 8 1 0.00000000 1 0.00000000 0.00000000 0.00000000 0.00000000
Neuron 9 2 0.00000000 1 0.00000000 0.00000000 0.00000000 0.00000000
Neuron 10 4 1.00000000 1 4.90000000 0.00000000 0.00000000 0.00000000
Neuron 11 4 1.00000000 1 4.90000000 0.00000000 0.00000000 0.00000000
Neuron 12 4 1.00000000 1 4.90000000 0.00000000 0.00000000 0.00000000
Neuron 13 4 1.00000000 1 4.90000000 0.00000000 0.00000000 0.00000000
Neuron 14 4 1.00000000 1 4.90000000 0.00000000 0.00000000 0.00000000
Neuron 15 4 1.00000000 1 4.90000000 0.00000000 0.00000000 0.00000000
Neuron 16 4 1.00000000 1 4.90000000 0.00000000 0.00000000 0.00000000
Neuron 17 3 0.50000000 1 4.90000000 0.00000000 0.00000000 0.00000000
Neuron 19 3 0.50000000 1 4.90000000 0.00000000 0.00000000 0.00000000
Neuron 21 3 0.50000000 1 4.90000000 0.00000000 0.00000000 0.00000000
Link 1 10 1 0 -6.34089176
Link 2 10 2 0 -1.27042451
Link 3 10 3 0 -1.34073916
Link 4 10 4 0 -2.86220893
Link 5 10 5 0 -2.64114811
Link 6 10 6 0 -1.24439222
Link 7 10 7 0 -3.01634266
Link 8 10 8 0 -2.77332377
Link 9 10 9 0 1.82435072
Link 1 11 10 0 -4.25385296
Link 2 11 11 0 -0.37591174
Link 4 11 13 0 -2.14371166
Link 5 11 14 0 1.00399793
Link 6 11 15 0 -4.19113742
Link 7 11 16 0 0.98051393
Link 8 11 17 0 -1.75411237
Link 9 11 18 0 0.75693533
Link 1 12 19 0 -1.14705344
Link 2 12 20 0 0.21468245
Link 3 12 21 0 2.27277444
Link 4 12 22 0 0.76035341
Link 5 12 23 0 3.45890683
Link 6 12 24 0 4.94553972
Link 7 12 25 0 -0.84452346
Link 8 12 26 0 0.84690389
Link 9 12 27 0 3.52462844
Link 1 13 28 0 1.03207495
Link 3 13 30 0 2.23737297
Link 4 13 31 0 3.33393353
Link 5 13 32 0 1.08137760
Link 6 13 33 0 -0.90087588
Link 7 13 34 0 -3.43000579
Link 8 13 35 0 -2.58384961
Link 9 13 36 0 0.59590442
Link 1 14 37 0 -1.37403485
Link 2 14 38 0 -1.42236092
Link 3 14 39 0 -1.89089633
Link 4 14 40 0 -0.67921994
Link 5 14 41 0 -3.90243233
Link 6 14 42 0 2.35477767
Link 7 14 43 0 -0.68842128
Link 8 14 44 0 -3.83892331
Link 9 14 45 0 -1.12356944
Link 2 15 47 0 2.37237159
Link 3 15 48 0 1.82238227
Link 4 15 49 0 0.49385052
Link 5 15 50 0 -2.55810724
Link 6 15 51 0 0.43836787
Link 7 15 52 0 -2.19573046
Link 8 15 53 0 0.33886227
Link 9 15 54 0 -0.23639637
Link 1 16 55 0 -0.49389630
Link 2 16 56 0 0.71303446
Link 3 16 57 0 0.58406323
Link 4 16 58 0 -3.69981994
Link 5 16 59 0 -2.26581622
Link 6 16 60 0 1.10135197
Link 7 16 61 0 5.96140935
Link 8 16 62 0 -0.83608509
Link 9 16 63 0 -0.28298288
Link 1 17 65 0 -2.04022340
Link 17 15 66 0 6.21895504
Link 2 19 71 0 -2.35978271
Link 19 13 72 0 0.55171361
Link 3 21 80 0 1.81847591
Link 21 11 81 0 -0.64162114
Link 21 14 181 0 0.07049776
GenomeEnd

GenomeStart 1902
Neuron 1 1 0.00000000 1 0.00000000 0.00000000 0.00000000 0.00000000
Neuron 2 1 0.00000000 1 0.00000000 0.00000000 0.00000000 0.00000000
Neuron 3 1 0.00000000 1 0.00000000 0.00000000 0.00000000 0.00000000
Neuron 4 1 0.00000000 1 0.00000000 0.00000000 0.00000000 0.00000000
Neuron 5 1 0.00000000 1 0.00000000 0.00000000 0.00000000 0.00000000
Neuron 6 1 0.00000000 1 0.00000000 0.00000000 0.00000000 0.00000000
Neuron 7 1 0.00000000 1 0.00000000 0.00000000 0.00000000 0.00000000
Neuron 8 1 0.00000000 1 0.00000000 0.00000000 0.00000000 0.00000000
Neuron 9 2 0.00000000 1 0.00000000 0.00000000 0.00000000 0.00000000
Neuron 10 4 1.00000000 1 4.90000000 0.00000000 0.00000000 0.00000000
Neuron 11 4 1.00000000 1 4.90000000 0.00000000 0.00000000 0.00000000
Neuron 12 4 1.00000000 1 4.90000000 0.00000000 0.00000000 0.00000000
Neuron 13 4 1.00000000 1 4.90000000 0.00000000 0.00000000 0.00000000
Neuron 14 4 1.00000000 1 4.90000000 0.00000000 0.00000000 0.00000000
Neuron 15 4 1.00000000 1 4.90000000 0.00000000 0.00000000 0.00000000
Neuron 16 4 1.00000000 1 4.90000000 0.00000000 0.00000000 0.00000000
Neuron 17 3 0.50000000 1 4.90000000 0.00000000 0.00000000 0.00000000
Neuron 19 3 0.50000000 1 4.90000000 0.00000000 0.00000000 0.00000000
Neuron 21 3 0.50000000 1 4.90000000 0.00000000 0.00000000 0.00000000
Link 1 10 1 0 -6.34089176
Link 2 10 2 0 -1.27042451
Link 3 10 3 0 -1.34073916
Link 4 10 4 0 -2.03279214
Link 5 10 5 0 -2.64114811
Link 6 10 6 0 -1.24439222
Link 7 10 7 0 -3.01634266
Link 8 10 8 0 -2.77332377
Link 9 10 9 0 1.82435072
Link 1 11 10 0 -4.25385296
Link 2 11 11 0 -0.37591174
Link 4 11 13 0 -2.14371166
Link 5 11 14 0 1.00399793
Link 6 11 15 0 -4.19113742
Link 7 11 16 0 0.98051393
Link 8 11 17 0 -1.75411237
Link 9 11 18 0 -0.83162938
Link 1 12 19 0 -1.14705344
Link 2 12 20 0 0.84560686
Link 3 12 21 0 2.27277444
Link 4 12 22 0 0.76035341
Link 5 12 23 0 3.45890683
Link 6 12 24 0 4.94553972
Link 7 12 25 0 -0.84452346
Link 8 12 26 0 1.16673787
Link 9 12 27 0 3.52462844
Link 1 13 28 0 1.12858974
Link 3 13 30 0 2.23737297
Link 4 13 31 0 2.72470778
Link 5 13 32 0 1.76361888
Link 6 13 33 0 -0.90087588
Link 7 13 34 0 -3.43000579
Link 8 13 35 0 -2.58384961
Link 9 13 36 0 0.59590442
Link 1 14 37 0 -1.37403485
Link 2 14 38 0 -0.13379315
Link 3 14 39 0 -1.89089633
Link 4 14 40 0 -0.67921994
Link 5 14 41 0 -3.90243233
Link 6 14 42 0 2.56436353
Link 7 14 43 0 -2.05322428
Link 8 14 44 0 -2.08319346
Link 9 14 45 0 -1.12356944
Link 2 15 47 0 2.37237159
Link 3 15 48 0 1.82238227
Link 4 15 49 0 -0.58978546
Link 5 15 50 0 -2.55810724
Link 6 15 51 0 0.58394116
Link 7 15 52 0 -2.19573046
Link 8 15 53 0 0.22669149
Link 9 15 54 0 -0.23639637
Link 1 16 55 0 -0.49389630
Link 2 16 56 0 -0.61551255
Link 3 16 57 0 0.58406323
Link 4 16 58 0 -3.69981994
Link 5 16 59 0 -2.26581622
Link 6 16 60 0 1.10135197
Link 7 16 61 0 7.04176459
Link 8 16 62 0 -0.83608509
Link 9 16 63 0 -0.28298288
Link 1 17 65 0 -2.69682913
Link 17 15 66 0 6.21895504
Link 2 19 71 0 -2.33414716
Link 19 13 72 0 4.08447523
Link 3 21 80 0 2.85341960
Link 21 11 81 0 -1.92870876
GenomeEnd

GenomeStart 1903
Neuron 1 1 0.00000000 1 0.00000000 0.00000000 0.00000000 0.00000000
Neuron 2 1 0.00000000 1 0.00000000 0.00000000 0.00000000 0.00000000
Neuron 3 1 0.00000000 1 0.00000000 0.00000000 0.00000000 0.00000000
Neuron 4 1 0.00000000 1 0.00000000 0.00000000 0.00000000 0.00000000
Neuron 5 1 0.00000000 1 0.00000000 0.00000000 0.00000000 0.00000000
Neuron 6 1 0.00000000 1 0.00000000 0.00000000 0.00000000 0.00000000
Neuron 7 1 0.00000000 1 0.00000000 0.00000000 0.00000000 0.00000000
Neuron 8 1 0.00000000 1 0.00000000 0.00000000 0.00000000 0.00000000
Neuron 9 2 0.00000000 1 0.00000000 0.00000000 0.00000000 0.00000000
Neuron 10 4 1.00000000 1 4.90000000 0.00000000 0.00000000 0.00000000
Neuron 11 4 1.00000000 1 4.90000000 0.00000000 0.00000000 0.00000000
Neuron 12 4 1.00000000 1 4.90000000 0.00000000 0.00000000 0.00000000
Neuron 13 4 1.00000000 1 4.90000000 0.00000000 0.00000000 0.00000000
Neuron 14 4 1.00000000 1 4.90000000 0.00000000 0.00000000 0.00000000
Neuron 15 4 1.00000000 1 4.90000000 0.00000000 0.00000000 0.00000000
Neuron 16 4 1.00000000 1 4.90000000 0.00000000 0.00000000 0.00000000
Neuron 17 3 0.50000000 1 4.90000000 0.00000000 0.00000000 0.00000000
Neuron 23 3 0.50000000 1 4.90000000 0.00000000 0.00000000 0.00000000
Neuron 29 3 0.50000000 1 4.90000000 0.00000000 0.00000000 0.00000000
Neuron 31 3 0.50000000 1 4.90000000 0.00000000 0.00000000 0.00000000
Link 1 10 1 0 -0.70809046
Link 2 10 2 0 -0.69350261
Link 3 10 3 0 3.63534959
Link 4 10 4 0 -2.36362041
Link 5 10 5 0 -1.76457259
Link 6 10 6 0 1.47866756
Link 7 10 7 0 -1.57289346
Link 8 10 8 0 -0.32007050
Link 9 10 9 0 -6.60367138
Link 1 11 10 0 0.43430128
Link 2 11 11 0 -1.08162939
Link 3 11 12 0 1.49217963
Link 5 11 14 0 -3.05945006
Link 6 11 15 0 0.97841197
Link 7 11 16 0 0.41579180
Link 8 11 17 0 -3.46796319
Link 9 11 18 0 1.77600940
Link 1 12 19 0 -0.38985107
Link 3 12 21 0 1.33921324
Link 4 12 22 0 1.14027833
Link 5 12 23 0 -0.53784295
Link 6 12 24 0 -0.82170324
Link 7 12 25 0 1.18729209
Link 8 12 26 0 -2.75453963
Link 9 12 27 0 -0.90525529
Link 1 13 28 0 -1.57181768
Link 2 13 29 0 -0.55452895
Link 3 13 30 0 0.06315043
Link 4 13 31 0 -4.42194891
Link 5 13 32 0 1.14760277
Link 6 13 33 0 -1.62092196
Link 7 13 34 0 0.69670324
Link 8 13 35 0 1.97355571
Link 9 13 36 0 0.14751122
Link 1 14 37 0 4.20585498
Link 2 14 38 0 3.63329722
Link 3 14 39 0 -2.81690420
Link 4 14 40 0 -1.87538530
Link 5 14 41 0 3.53184606
Link 6 14 42 0 -0.56104464
Link 7 14 43 0 0.53103351
Link 8 14 44 0 3.40394299
Link 9 14 45 0 2.77321696
Link 2 15 47 0 2.23240608
Link 3 15 48 0 -0.81732002
Link 4 15 49 0 1.00781274
Link 5 15 50 0 -2.25735496
Link 6 15 51 0 2.23783075
Link 7 15 52 0 -4.42438276
Link 8 15 53 0 4.49812311
Link 9 15 54 0 -6.31990264
Link 1 16 55 0 -0.92727439
Link 2 16 56 0 -2.80765709
Link 3 16 57 0 0.39824366
Link 4 16 58 0 0.04559465
Link 5 16 59 0 4.65775780
Link 6 16 60 0 0.99217200
Link 7 16 61 0 1.75994140
Link 9 16 63 0 1.50035096
Link 1 17 65 0 0.37382122
Link 17 15 66 0 -1.99444563
Link 2 23 90 0 1.13776055
Link 23 12 91 0 -2.94679098
Link 8 29 112 0 1.94218268
Link 29 16 113 0 1.11905271
Link 4 31 124 0 0.37432478
Link 31 11 125 0 2.25739311
Link 31 12 156 0 1.81691946
GenomeEnd

GenomeStart 1905
Neuron 1 1 0.00000000 1 0.00000000 0.00000000 0.00000000 0.00000000
Neuron 2 1 0.00000000 1 0.00000000 0.00000000 0.00000000 0.00000000
Neuron 3 1 0.00000000 1 0.00000000 0.00000000 0.00000000 0.00000000
Neuron 4 1 0.00000000 1 0.00000000 0.00000000 0.00000000 0.00000000
Neuron 5 1 0.00000000 1 0.00000000 0.00000000 0.00000000 0.00000000
Neuron 6 1 0.00000000 1 0.00000000 0.00000000 0.00000000 0.00000000
Neuron 7 1 0.00000000 1 0.00000000 0.00000000 0.00000000 0.00000000
Neuron 8 1 0.00000000 1 0.00000000 0.00000000 0.00000000 0.00000000
Neuron 9 2 0.00000000 1 0.00000000 0.00000000 0.00000000 0.00000000
Neuron 10 4 1.00000000 1 4.90000000 0.00000000 0.00000000 0.00000000
Neuron 11 4 1.00000000 1 4.90000000 0.00000000 0.00000000 0.00000000
Neuron 12 4 1.00000000 1 4.90000000 0.00000000 0.00000000 0.00000000
Neuron 13 4 1.00000000 1 4.90000000 0.00000000 0.00000000 0.00000000
Neuron 14 4 1.00000000 1 4.90000000 0.00000000 0.00000000 0.00000000
Neuron 15 4 1.00000000 1 4.90000000 0.00000000 0.00000000 0.00000000
Neuron 16 4 1.00000000 1 4.90000000 0.00000000 0.00000000 0.00000000
Neuron 17 3 0.50000000 1 4.90000000 0.00000000 0.00000000 0.00000000
Neuron 23 3 0.50000000 1 4.90000000 0.00000000 0.00000000 0.00000000
Neuron 29 3 0.50000000 1 4.90000000 0.00000000 0.00000000 0.00000000
Neuron 31 3 0.50000000 1 4.90000000 0.00000000 0.00000000 0.00000000
Link 1 10 1 0 2.58607746
Link 2 10 2 0 -1.21750542
Link 3 10 3 0 4.93024995
Link 4 10 4 0 -0.09601123
Link 5 10 5 0 1.58073672
Link 6 10 6 0 -7.88769189
Link 7 10 7 0 -3.58574176
Link 8 10 8 0 -2.47120579
Link 9 10 9 0 -8.00000000
Link 1 11 10 0 -1.92748802
Link 2 11 11 0 -2.64860226
Link 3 11 12 0 3.73281045
Link 5 11 14 0 0.69287698
Link 6 11 15 0 -2.25794244
Link 7 11 16 0 -4.19269387
Link 8 11 17 0 2.11841182
Link 9 11 18 0 -0.11868648
Link 1 12 19 0 -4.40858180
Link 3 12 21 0 -0.03698843
Link 4 12 22 0 0.23802911
Link 5 12 23 0 5.16618854
Link 6 12 24 0 1.72235786
Link 7 12 25 0 0.29541918
Link 8 12 26 0 1.52073733
Link 9 12 27 0 3.76769311
Link 1 13 28 0 -1.97790460
Link 2 13 29 0 -2.26192511
Link 3 13 30 0 -1.50523392
Link 4 13 31 0 -3.51440474
Link 5 13 32 0 -2.60328990
Link 6 13 33 0 -2.84627827
Link 7 13 34 0 4.88035218
Link 8 13 35 0 0.67468795
Link 9 13 36 0 -0.32972197
Link 1 14 37 0 6.10254219
Link 2 14 38 0 -2.66267891
Link 3 14 39 0 -0.74755852
Link 4 14 40 0 -0.27242347
Link 5 14 41 0 2.49517808
Link 6 14 42 0 -1.23310037
Link 7 14 43 0 -0.02748192
Link 8 14 44 0 4.58432264
Link 9 14 45 0 3.03874325
Link 2 15 47 0 1.70237587
Link 3 15 48 0 -2.84180731
Link 4 15 49 0 0.91183203
Link 5 15 50 0 -2.07809687
Link 6 15 51 0 2.70949431
Link 7 15 52 0 -3.38091678
Link 8 15 53 0 3.03755303
Link 9 15 54 0 -6.32848597
Link 1 16 55 0 -1.93246254
Link 2 16 56 0 -3.26032289
Link 3 16 57 0 1.03636280
Link 4 16 58 0 0.78353221
Link 5 16 59 0 6.70368053
Link 6 16 60 0 -0.58656575
Link 7 16 61 0 -2.59257790
Link 9 16 63 0 0.61294900
Link 1 17 65 0 2.15645314
Link 17 15 66 0 -3.41850032
Link 2 23 90 0 -3.11601611
Link 23 12 91 0 0.81797235
Link 8 29 112 0 -2.03875851
Link 29 16 113 0 -1.60277108
Link 4 31 124 0 0.61909848
Link 31 11 125 0 0.25269326
GenomeEnd

GenomeStart 1908
Neuron 1 1 0.00000000 1 0.00000000 0.00000000 0.00000000 0.00000000
Neuron 2 1 0.00000000 1 0.00000000 0.00000000 0.00000000 0.00000000
Neuron 3 1 0.00000000 1 0.00000000 0.00000000 0.00000000 0.00000000
Neuron 4 1 0.00000000 1 0.00000000 0.00000000 0.00000000 0.00000000
Neuron 5 1 0.00000000 1 0.00000000 0.00000000 0.00000000 0.00000000
Neuron 6 1 0.00000000 1 0.00000000 0.00000000 0.00000000 0.00000000
Neuron 7 1 0.00000000 1 0.00000000 0.00000000 0.00000000 0.00000000
Neuron 8 1 0.00000000 1 0.00000000 0.00000000 0.00000000 0.00000000
Neuron 9 2 0.00000000 1 0.00000000 0.00000000 0.00000000 0.00000000
Neuron 10 4 1.00000000 1 4.90000000 0.00000000 0.00000000 0.00000000
Neuron 11 4 1.00000000 1 4.90000000 0.00000000 0.00000000 0.00000000
Neuron 12 4 1.00000000 1 4.90000000 0.00000000 0.00000000 0.00000000
Neuron 13 4 1.00000000 1 4.90000000 0.00000000 0.00000000 0.00000000
Neuron 14 4 1.00000000 1 4.90000000 0.00000000 0.00000000 0.00000000
Neuron 15 4 1.00000000 1 4.90000000 0.00000000 0.00000000 0.00000000
Neuron 16 4 1.00000000 1 4.90000000 0.00000000 0.00000000 0.00000000
Neuron 17 3 0.50000000 1 4.90000000 0.00000000 0.00000000 0.00000000
Neuron 23 3 0.50000000 1 4.90000000 0.00000000 0.00000000 0.00000000
Neuron 29 3 0.50000000 1 4.90000000 0.00000000 0.00000000 0.00000000
Link 1 10 1 0 -0.38856166
Link 2 10 2 0 0.79206213
Link 3 10 3 0 3.79236732
Link 4 10 4 0 -4.09765923
Link 5 10 5 0 -1.55504013
Link 6 10 6 0 -2.24396496
Link 7 10 7 0 -1.54794458
Link 8 10 8 0 -0.72714927
Link 9 10 9 0 -3.91514329
Link 1 11 10 0 -0.57902768
Link 2 11 11 0 -5.01705985
Link 3 11 12 0 2.81331828
Link 4 11 13 0 -1.08537553
Link 5 11 14 0 -1.16330454
Link 6 11 15 0 -0.17139195
Link 7 11 16 0 1.47753075
Link 8 11 17 0 -1.73241371
Link 9 11 18 0 -0.78235725
Link 1 12 19 0 -2.45442061
Link 3 12 21 0 2.11955626
Link 4 12 22 0 0.73934141
Link 5 12 23 0 0.17438277
Link 6 12 24 0 1.15341654
Link 7 12 25 0 -1.12155522
Link 8 12 26 0 -1.78069399
Link 9 12 27 0 -2.54548784
Link 1 13 28 0 -0.17798395
Link 2 13 29 0 -1.41045869
Link 3 13 30 0 0.96682638
Link 4 13 31 0 -6.09947508
Link 5 13 32 0 6.53941465
Link 6 13 33 0 0.39478744
Link 7 13 34 0 -0.96774957
Link 8 13 35 0 1.10385449
Link 9 13 36 0 -2.39880062
Link 1 14 37 0 3.68562883
Link 2 14 38 0 3.77813044
Link 3 14 39 0 -1.81426435
Link 4 14 40 0 -0.41859188
Link 5 14 41 0 -1.30164495
Link 6 14 42 0 0.99238563
Link 7 14 43 0 3.52525406
Link 8 14 44 0 1.97961364
Link 9 14 45 0 0.62306589
Link 2 15 47 0 -2.26453444
Link 3 15 48 0 -3.20098727
Link 4 15 49 0 -2.22038942
Link 5 15 50 0 -2.00038148
Link 6 15 51 0 1.25444807
Link 7 15 52 0 -5.62623982
Link 8 15 53 0 7.29000214
Link 9 15 54 0 -7.70336009
Link 1 16 55 0 -1.00766015
Link 2 16 56 0 -0.82212287
Link 3 16 57 0 -0.09245582
Link 4 16 58 0 0.64522233
Link 5 16 59 0 5.59364604
Link 6 16 60 0 1.37502670
Link 7 16 61 0 1.18230232
Link 9 16 63 0 2.41468551
Link 1 17 65 0 1.26615192
Link 17 15 66 0 2.39228492
Link 2 23 90 0 4.27417829
Link 23 12 91 0 -3.68218024
Link 8 29 112 0 -0.01409955
Link 29 16 113 0 -2.31705680
GenomeEnd

GenomeStart 1909
Neuron 1 1 0.00000000 1 0.00000000 0.00000000 0.00000000 0.00000000
Neuron 2 1 0.00000000 1 0.00000000 0.00000000 0.00000000 0.00000000
Neuron 3 1 0.00000000 1 0.00000000 0.00000000 0.00000000 0.00000000
Neuron 4 1 0.00000000 1 0.00000000 0.00000000 0.00000000 0.00000000
Neuron 5 1 0.00000000 1 0.00000000 0.00000000 0.00000000 0.00000000
Neuron 6 1 0.00000000 1 0.00000000 0.00000000 0.00000000 0.00000000
Neuron 7 1 0.00000000 1 0.00000000 0.00000000 0.00000000 0.00000000
Neuron 8 1 0.00000000 1 0.00000000 0.00000000 0.00000000 0.00000000
Neuron 9 2 0.00000000 1 0.00000000 0.00000000 0.00000000 0.00000000
Neuron 10 4 1.00000000 1 4.90000000 0.00000000 0.00000000 0.00000000
Neuron 11 4 1.00000000 1 4.90000000 0.00000000 0.00000000 0.00000000
Neuron 12 4 1.00000000 1 4.90000000 0.00000000 0.00000000 0.00000000
Neuron 13 4 1.00000000 1 4.90000000 0.00000000 0.00000000 0.00000000
Neuron 14 4 1.00000000 1 4.90000000 0.00000000 0.00000000 0.00000000
Neuron 15 4 1.00000000 1 4.90000000 0.00000000 0.00000000 0.00000000
Neuron 16 4 1.00000000 1 4.90000000 0.00000000 0.00000000 0.00000000
Neuron 17 3 0.50000000 1 4.90000000 0.00000000 0.00000000 0.00000000
Neuron 23 3 0.50000000 1 4.90000000 0.00000000 0.00000000 0.00000000
Neuron 29 3 0.50000000 1 4.90000000 0.00000000 0.00000000 0.00000000
Link 1 10 1 0 -0.38856166
Link 2 10 2 0 0.79206213
Link 3 10 3 0 3.79023102
Link 4 10 4 0 -4.09765923
Link 5 10 5 0 -1.55504013
Link 6 10 6 0 -2.24396496
Link 7 10 7 0 -1.54794458
Link 8 10 8 0 -0.40922270
Link 9 10 9 0 -2.01477096
Link 1 11 10 0 -0.57902768
Link 2 11 11 0 -5.01705985
Link 3 11 12 0 1.86320078
Link 4 11 13 0 -0.83062227
Link 5 11 14 0 -1.16330454
Link 6 11 15 0 -0.17139195
Link 7 11 16 0 1.47753075
Link 8 11 17 0 -1.73241371
Link 9 11 18 0 -1.35015412
Link 1 12 19 0 -2.45442061
Link 3 12 21 0 2.11955626
Link 4 12 22 0 0.73934141
Link 5 12 23 0 -1.59279152
Link 6 12 24 0 1.15341654
Link 7 12 25 0 -1.12155522
Link 8 12 26 0 -1.78069399
Link 9 12 27 0 -2.54548784
Link 1 13 28 0 0.10904263
Link 2 13 29 0 -0.30309457
Link 3 13 30 0 0.96682638
Link 4 13 31 0 -6.82123783
Link 5 13 32 0 6.53941465
Link 6 13 33 0 -0.55540635
Link 7 13 34 0 0.97696615
Link 8 13 35 0 1.10385449
Link 9 13 36 0 -2.39880062
Link 1 14 37 0 3.68562883
Link 2 14 38 0 3.77813044
Link 3 14 39 0 -1.81426435
Link 4 14 40 0 -1.56593524
Link 5 14 41 0 -1.30164495
Link 6 14 42 0 0.99238563
Link 7 14 43 0 3.52525406
Link 8 14 44 0 1.97961364
Link 9 14 45 0 0.62306589
Link 2 15 47 0 -3.60147404
Link 3 15 48 0 -3.20098727
Link 4 15 49 0 -3.29874569
Link 5 15 50 0 -2.00038148
Link 6 15 51 0 1.25444807
Link 7 15 52 0 -6.26873074
Link 8 15 53 0 7.29000214
Link 9 15 54 0 -7.70336009
Link 1 16 55 0 -1.13675345
Link 2 16 56 0 -0.82212287
Link 3 16 57 0 0.73683889
Link 4 16 58 0 1.18143254
Link 5 16 59 0 5.59364604
Link 6 16 60 0 1.17902157
Link 7 16 61 0 1.18230232
Link 9 16 63 0 2.41468551
Link 1 17 65 0 1.26615192
Link 17 15 66 0 2.39228492
Link 2 23 90 0 4.27417829
Link 23 12 91 0 -0.78572954
Link 8 29 112 0 -1.36912137
Link 29 16 113 0 -2.06805628
GenomeEnd

GenomeStart 1911
Neuron 1 1 0.00000000 1 0.00000000 0.00000000 0.00000000 0.00000000
Neuron 2 1 0.00000000 1 0.00000000 0.00000000 0.00000000 0.00000000
Neuron 3 1 0.00000000 1 0.00000000 0.00000000 0.00000000 0.00000000
Neuron 4 1 0.00000000 1 0.00000000 0.00000000 0.00000000 0.00000000
Neuron 5 1 0.00000000 1 0.00000000 0.00000000 0.00000000 0.00000000
Neuron 6 1 0.00000000 1 0.00000000 0.00000000 0.00000000 0.00000000
Neuron 7 1 0.00000000 1 0.00000000 0.00000000 0.00000000 0.00000000
Neuron 8 1 0.00000000 1 0.00000000 0.00000000 0.00000000 0.00000000
Neuron 9 2 0.00000000 1 0.00000000 0.00000000 0.00000000 0.00000000
Neuron 10 4 1.00000000 1 4.90000000 0.00000000 0.00000000 0.00000000
Neuron 11 4 1.00000000 1 4.90000000 0.00000000 0.00000000 0.00000000
Neuron 12 4 1.00000000 1 4.90000000 0.00000000 0.00000000 0.00000000
Neuron 13 4 1.00000000 1 4.90000000 0.00000000 0.00000000 0.00000000
Neuron 14 4 1.00000000 1 4.90000000 0.00000000 0.00000000 0.00000000
Neuron 15 4 1.00000000 1 4.90000000 0.00000000 0.00000000 0.00000000
Neuron 16 4 1.00000000 1 4.90000000 0.00000000 0.00000000 0.00000000
Neuron 17 3 0.50000000 1 4.90000000 0.00000000 0.00000000 0.00000000
Neuron 19 3 0.50000000 1 4.90000000 0.00000000 0.00000000 0.00000000
Neuron 21 3 0.50000000 1 4.90000000 0.00000000 0.00000000 0.00000000
Link 1 10 1 0 -3.70638142
Link 2 10 2 0 -1.61844234
Link 3 10 3 0 -6.60483108
Link 4 10 4 0 -3.17143773
Link 5 10 5 0 -3.55044710
Link 6 10 6 0 -4.40821558
Link 7 10 7 0 -2.22103030
Link 8 10 8 0 -4.34815516
Link 9 10 9 0 -1.03813287
Link 1 11 10 0 -5.51632740
Link 2 11 11 0 0.44386120
Link 4 11 13 0 1.35886715
Link 5 11 14 0 1.82258065
Link 6 11 15 0 -3.47416608
Link 7 11 16 0 -1.85869930
Link 8 11 17 0 -1.96041749
Link 9 11 18 0 -0.13695181
Link 1 12 19 0 2.32480850
Link 2 12 20 0 2.52066103
Link 3 12 21 0 2.36228522
Link 4 12 22 0 -0.87746818
Link 5 12 23 0 -5.42246773
Link 6 12 24 0 4.56443983
Link 7 12 25 0 5.76104007
Link 8 12 26 0 0.09595019
Link 9 12 27 0 3.91747795
Link 1 13 28 0 -0.95718253
Link 3 13 30 0 2.67310099
Link 4 13 31 0 0.86170537
Link 5 13 32 0 4.49235511
Link 6 13 33 0 0.46078371
Link 7 13 34 0 -4.18495742
Link 8 13 35 0 -2.47611927
Link 9 13 36 0 -0.13905759
Link 1 14 37 0 0.66066469
Link 2 14 38 0 -1.96612446
Link 3 14 39 0 0.11836604
Link 4 14 40 0 4.37632374
Link 5 14 41 0 -2.70114750
Link 6 14 42 0 4.28263191
Link 7 14 43 0 2.05523850
Link 8 14 44 0 -0.72878201
Link 9 14 45 0 4.94689779
Link 2 15 47 0 1.63954588
Link 3 15 48 0 0.96649068
Link 4 15 49 0 -2.19513535
Link 5 15 50 0 1.40151677
Link 6 15 51 0 -5.26261177
Link 7 15 52 0 2.02642903
Link 8 15 53 0 2.03347880
Link 9 15 54 0 -2.14189581
Link 1 16 55 0 2.33173620
Link 2 16 56 0 1.23169653
Link 3 16 57 0 -1.33872494
Link 4 16 58 0 -2.01985229
Link 5 16 59 0 -2.26899015
Link 6 16 60 0 2.85624256
Link 7 16 61 0 4.41183203
Link 8 16 62 0 -0.79029207
Link 9 16 63 0 1.15013581
Link 1 17 65 0 -1.69867550
Link 17 15 66 0 -1.42483291
Link 2 19 71 0 -2.09205909
Link 19 13 72 0 -1.83805353
Link 3 21 80 0 0.92873928
Link 21 11 81 0 0.51020844
GenomeEnd

GenomeStart 1912
Neuron 1 1 0.00000000 1 0.00000000 0.00000000 0.00000000 0.00000000
Neuron 2 1 0.00000000 1 0.00000000 0.00000000 0.00000000 0.00000000
Neuron 3 1 0.00000000 1 0.00000000 0.00000000 0.00000000 0.00000000
Neuron 4 1 0.00000000 1 0.00000000 0.00000000 0.00000000 0.00000000
Neuron 5 1 0.00000000 1 0.00000000 0.00000000 0.00000000 0.00000000
Neuron 6 1 0.00000000 1 0.00000000 0.00000000 0.00000000 0.00000000
Neuron 7 1 0.00000000 1 0.00000000 0.00000000 0.00000000 0.00000000
Neuron 8 1 0.00000000 1 0.00000000 0.00000000 0.00000000 0.00000000
Neuron 9 2 0.00000000 1 0.00000000 0.00000000 0.00000000 0.00000000
Neuron 10 4 1.00000000 1 4.90000000 0.00000000 0.00000000 0.00000000
Neuron 11 4 1.00000000 1 4.90000000 0.00000000 0.00000000 0.00000000
Neuron 12 4 1.00000000 1 4.90000000 0.00000000 0.00000000 0.00000000
Neuron 13 4 1.00000000 1 4.90000000 0.00000000 0.00000000 0.00000000
Neuron 14 4 1.00000000 1 4.90000000 0.00000000 0.00000000 0.00000000
Neuron 15 4 1.00000000 1 4.90000000 0.00000000 0.00000000 0.00000000
Neuron 16 4 1.00000000 1 4.90000000 0.00000000 0.00000000 0.00000000
Neuron 17 3 0.50000000 1 4.90000000 0.00000000 0.00000000 0.00000000
Neuron 19 3 0.50000000 1 4.90000000 0.00000000 0.00000000 0.00000000
Neuron 21 3 0.50000000 1 4.90000000 0.00000000 0.00000000 0.00000000
Link 1 10 1 0 -3.70638142
Link 2 10 2 0 -1.61844234
Link 3 10 3 0 -6.60483108
Link 4 10 4 0 -3.17143773
Link 5 10 5 0 -3.55044710
Link 6 10 6 0 -4.40821558
Link 7 10 7 0 -2.22103030
Link 8 10 8 0 -4.34815516
Link 9 10 9 0 -1.03813287
Link 1 11 10 0 -5.51632740
Link 2 11 11 0 0.44386120
Link 4 11 13 0 1.35886715
Link 5 11 14 0 1.82258065
Link 6 11 15 0 -3.47416608
Link 7 11 16 0 -1.85869930
Link 8 11 17 0 -1.96041749
Link 9 11 18 0 -0.13695181
Link 1 12 19 0 2.32480850
Link 2 12 20 0 2.52066103
Link 3 12 21 0 2.36228522
Link 4 12 22 0 -0.87746818
Link 5 12 23 0 -5.42246773
Link 6 12 24 0 4.56443983
Link 7 12 25 0 5.76104007
Link 8 12 26 0 0.09595019
Link 9 12 27 0 3.91747795
Link 1 13 28 0 -0.95718253
Link 3 13 30 0 2.67310099
Link 4 13 31 0 0.86170537
Link 5 13 32 0 4.49235511
Link 6 13 33 0 0.46078371
Link 7 13 34 0 -4.18495742
Link 8 13 35 0 -2.47611927
Link 9 13 36 0 -0.13905759
Link 1 14 37 0 0.66066469
Link 2 14 38 0 -1.96612446
Link 3 14 39 0 0.11836604
Link 4 14 40 0 4.37632374
Link 5 14 41 0 -2.70114750
Link 6 14 42 0 4.28263191
Link 7 14 43 0 2.05523850
Link 8 14 44 0 -0.72878201
Link 9 14 45 0 4.94689779
Link 2 15 47 0 1.63954588
Link 3 15 48 0 0.96649068
Link 4 15 49 0 -2.19513535
Link 5 15 50 0 1.40151677
Link 6 15 51 0 -5.26261177
Link 7 15 52 0 2.02642903
Link 8 15 53 0 2.03347880
Link 9 15 54 0 -2.14189581
Link 1 16 55 0 2.33173620
Link 2 16 56 0 1.23169653
Link 3 16 57 0 -1.33872494
Link 4 16 58 0 -2.01985229
Link 5 16 59 0 -2.26899015
Link 6 16 60 0 2.85624256
Link 7 16 61 0 4.41183203
Link 8 16 62 0 -0.79029207
Link 9 16 63 0 1.15013581
Link 1 17 65 0 -1.69867550
Link 17 15 66 0 -1.42483291
Link 2 19 71 0 -2.09205909
Link 19 13 72 0 -1.83805353
Link 3 21 80 0 0.92873928
Link 21 11 81 0 0.51020844
GenomeEnd

GenomeStart 1913
Neuron 1 1 0.00000000 1 0.00000000 0.00000000 0.00000000 0.00000000
Neuron 2 1 0.00000000 1 0.00000000 0.00000000 0.00000000 0.00000000
Neuron 3 1 0.00000000 1 0.00000000 0.00000000 0.00000000 0.00000000
Neuron 4 1 0.00000000 1 0.00000000 0.00000000 0.00000000 0.00000000
Neuron 5 1 0.00000000 1 0.00000000 0.00000000 0.00000000 0.00000000
Neuron 6 1 0.00000000 1 0.00000000 0.00000000 0.00000000 0.00000000
Neuron 7 1 0.00000000 1 0.00000000 0.00000000 0.00000000 0.00000000
Neuron 8 1 0.00000000 1 0.00000000 0.00000000 0.00000000 0.00000000
Neuron 9 2 0.00000000 1 0.00000000 0.00000000 0.00000000 0.00000000
Neuron 10 4 1.00000000 1 4.90000000 0.00000000 0.00000000 0.00000000
Neuron 11 4 1.00000000 1 4.90000000 0.00000000 0.00000000 0.00000000
Neuron 12 4 1.00000000 1 4.90000000 0.00000000 0.00000000 0.00000000
Neuron 13 4 1.00000000 1 4.90000000 0.00000000 0.00000000 0.00000000
Neuron 14 4 1.00000000 1 4.90000000 0.00000000 0.00000000 0.00000000
Neuron 15 4 1.00000000 1 4.90000000 0.00000000 0.00000000 0.00000000
Neuron 16 4 1.00000000 1 4.90000000 0.00000000 0.00000000 0.00000000
Neuron 17 3 0.50000000 1 4.90000000 0.00000000 0.00000000 0.00000000
Neuron 19 3 0.50000000 1 4.90000000 0.00000000 0.00000000 0.00000000
Neuron 21 3 0.50000000 1 4.90000000 0.00000000 0.00000000 0.00000000
Link 1 10 1 0 -3.70638142
Link 2 10 2 0 -1.61844234
Link 3 10 3 0 -6.60483108
Link 4 10 4 0 -3.17143773
Link 5 10 5 0 -3.55044710
Link 6 10 6 0 -4.40821558
Link 7 10 7 0 -2.22103030
Link 8 10 8 0 -4.34815516
Link 9 10 9 0 -1.03813287
Link 1 11 10 0 -5.51632740
Link 2 11 11 0 0.44386120
Link 4 11 13 0 1.35886715
Link 5 11 14 0 1.82258065
Link 6 11 15 0 -3.47416608
Link 7 11 16 0 -1.85869930
Link 8 11 17 0 -1.96041749
Link 9 11 18 0 -0.13695181
Link 1 12 19 0 2.32480850
Link 2 12 20 0 2.52066103
Link 3 12 21 0 2.36228522
Link 4 12 22 0 -0.87746818
Link 5 12 23 0 -5.42246773
Link 6 12 24 0 4.56443983
Link 7 12 25 0 5.76104007
Link 8 12 26 0 0.09595019
Link 9 12 27 0 3.91747795
Link 1 13 28 0 -0.95718253
Link 3 13 30 0 2.67310099
Link 4 13 31 0 0.86170537
Link 5 13 32 0 4.49235511
Link 6 13 33 0 0.46078371
Link 7 13 34 0 -4.18495742
Link 8 13 35 0 -2.47611927
Link 9 13 36 0 -0.13905759
Link 1 14 37 0 0.66066469
Link 2 14 38 0 -1.96612446
Link 3 14 39 0 0.11836604
Link 4 14 40 0 4.37632374
Link 5 14 41 0 -2.70114750
Link 6 14 42 0 4.28263191
Link 7 14 43 0 2.05523850
Link 8 14 44 0 -0.72878201
Link 9 14 45 0 4.94689779
Link 2 15 47 0 1.63954588
Link 3 15 48 0 0.96649068
Link 4 15 49 0 -2.19513535
Link 5 15 50 0 1.40151677
Link 6 15 51 0 -5.26261177
Link 7 15 52 0 2.02642903
Link 8 15 53 0 2.03347880
Link 9 15 54 0 -2.14189581
Link 1 16 55 0 2.33173620
Link 2 16 56 0 1.23169653
Link 3 16 57 0 -1.33872494
Link 4 16 58 0 -2.01985229
Link 5 16 59 0 -2.26899015
Link 6 16 60 0 2.85624256
Link 7 16 61 0 4.41183203
Link 8 16 62 0 -0.79029207
Link 9 16 63 0 1.15013581
Link 1 17 65 0 -1.69867550
Link 17 15 66 0 -1.42483291
Link 2 19 71 0 -2.09205909
Link 19 13 72 0 -1.83805353
Link 3 21 80 0 0.92873928
Link 21 11 81 0 0.51020844
GenomeEnd

GenomeStart 1914
Neuron 1 1 0.00000000 1 0.00000000 0.00000000 0.00000000 0.00000000
Neuron 2 1 0.00000000 1 0.00000000 0.00000000 0.00000000 0.00000000
Neuron 3 1 0.00000000 1 0.00000000 0.00000000 0.00000000 0.00000000
Neuron 4 1 0.00000000 1 0.00000000 0.00000000 0.00000000 0.00000000
Neuron 5 1 0.00000000 1 0.00000000 0.00000000 0.00000000 0.00000000
Neuron 6 1 0.00000000 1 0.00000000 0.00000000 0.00000000 0.00000000
Neuron 7 1 0.00000000 1 0.00000000 0.00000000 0.00000000 0.00000000
Neuron 8 1 0.00000000 1 0.00000000 0.00000000 0.00000000 0.00000000
Neuron 9 2 0.00000000 1 0.00000000 0.00000000 0.00000000 0.00000000
Neuron 10 4 1.00000000 1 4.90000000 0.00000000 0.00000000 0.00000000
Neuron 11 4 1.00000000 1 4.90000000 0.00000000 0.00000000 0.00000000
Neuron 12 4 1.00000000 1 4.90000000 0.00000000 0.00000000 0.00000000
Neuron 13 4 1.00000000 1 4.90000000 0.00000000 0.00000000 0.00000000
Neuron 14 4 1.00000000 1 4.90000000 0.00000000 0.00000000 0.00000000
Neuron 15 4 1.00000000 1 4.90000000 0.00000000 0.00000000 0.00000000
Neuron 16 4 1.00000000 1 4.90000000 0.00000000 0.00000000 0.00000000
Neuron 17 3 0.50000000 1 4.90000000 0.00000000 0.00000000 0.00000000
Neuron 19 3 0.50000000 1 4.90000000 0.00000000 0.00000000 0.00000000
Neuron 21 3 0.50000000 1 4.90000000 0.00000000 0.00000000 0.00000000
Neuron 42 3 0.50000000 1 4.90000000 0.00000000 0.00000000 0.00000000
Link 1 10 1 0 -5.22818690
Link 3 10 3 0 -6.60483108
Link 4 10 4 0 -3.17143773
Link 5 10 5 0 -3.55044710
Link 6 10 6 0 -4.40821558
Link 7 10 7 0 -2.32280953
Link 8 10 8 0 -4.34815516
Link 9 10 9 0 -1.03813287
Link 1 11 10 0 -5.51632740
Link 2 11 11 0 0.44386120
Link 4 11 13 0 0.89193396
Link 5 11 14 0 1.50251778
Link 6 11 15 0 -3.47416608
Link 7 11 16 0 -1.85869930
Link 8 11 17 0 -1.96041749
Link 9 11 18 0 -0.13695181
Link 1 12 19 0 2.32480850
Link 2 12 20 0 2.52066103
Link 3 12 21 0 2.36228522
Link 4 12 22 0 -0.87746818
Link 5 12 23 0 -5.42246773
Link 6 12 24 0 4.56443983
Link 7 12 25 0 5.76104007
Link 8 12 26 0 0.09595019
Link 9 12 27 0 3.91747795
Link 1 13 28 0 -0.95718253
Link 3 13 30 0 2.67310099
Link 4 13 31 0 0.86170537
Link 5 13 32 0 4.49235511
Link 6 13 33 0 0.46078371
Link 7 13 34 0 -4.18495742
Link 8 13 35 0 -2.47611927
Link 9 13 36 0 -0.13905759
Link 1 14 37 0 0.66066469
Link 2 14 38 0 -1.96612446
Link 3 14 39 0 0.11836604
Link 4 14 40 0 4.37632374
Link 5 14 41 0 -2.70114750
Link 6 14 42 0 4.28263191
Link 7 14 43 0 2.05523850
Link 8 14 44 0 -0.72878201
Link 9 14 45 0 4.94689779
Link 2 15 47 0 1.63954588
Link 3 15 48 0 0.96649068
Link 4 15 49 0 -2.19513535
Link 5 15 50 0 1.40151677
Link 6 15 51 0 -5.26261177
Link 7 15 52 0 2.02642903
Link 8 15 53 0 2.03347880
Link 9 15 54 0 -2.14189581
Link 1 16 55 0 2.33173620
Link 2 16 56 0 1.23169653
Link 3 16 57 0 -1.33872494
Link 4 16 58 0 -2.01985229
Link 5 16 59 0 -2.97572253
Link 6 16 60 0 2.85624256
Link 7 16 61 0 4.41183203
Link 8 16 62 0 -0.79029207
Link 9 16 63 0 1.15013581
Link 1 17 65 0 -1.69867550
Link 17 15 66 0 -1.42483291
Link 2 19 71 0 -2.09205909
Link 19 13 72 0 -1.40392773
Link 3 21 80 0 -1.85430464
Link 21 11 81 0 0.51020844
Link 2 42 171 0 1.00000000
Link 42 10 172 0 -1.61844234
GenomeEnd

GenomeStart 1915
Neuron 1 1 0.00000000 1 0.00000000 0.00000000 0.00000000 0.00000000
Neuron 2 1 0.00000000 1 0.00000000 0.00000000 0.00000000 0.00000000
Neuron 3 1 0.00000000 1 0.00000000 0.00000000 0.00000000 0.00000000
Neuron 4 1 0.00000000 1 0.00000000 0.00000000 0.00000000 0.00000000
Neuron 5 1 0.00000000 1 0.00000000 0.00000000 0.00000000 0.00000000
Neuron 6 1 0.00000000 1 0.00000000 0.00000000 0.00000000 0.00000000
Neuron 7 1 0.00000000 1 0.00000000 0.00000000 0.00000000 0.00000000
Neuron 8 1 0.00000000 1 0.00000000 0.00000000 0.00000000 0.00000000
Neuron 9 2 0.00000000 1 0.00000000 0.00000000 0.00000000 0.00000000
Neuron 10 4 1.00000000 1 4.90000000 0.00000000 0.00000000 0.00000000
Neuron 11 4 1.00000000 1 4.90000000 0.00000000 0.00000000 0.00000000
Neuron 12 4 1.00000000 1 4.90000000 0.00000000 0.00000000 0.00000000
Neuron 13 4 1.00000000 1 4.90000000 0.00000000 0.00000000 0.00000000
Neuron 14 4 1.00000000 1 4.90000000 0.00000000 0.00000000 0.00000000
Neuron 15 4 1.00000000 1 4.90000000 0.00000000 0.00000000 0.00000000
Neuron 16 4 1.00000000 1 4.90000000 0.00000000 0.00000000 0.00000000
Neuron 17 3 0.50000000 1 4.90000000 0.00000000 0.00000000 0.00000000
Neuron 19 3 0.50000000 1 4.90000000 0.00000000 0.00000000 0.00000000
Neuron 21 3 0.50000000 1 4.90000000 0.00000000 0.00000000 0.00000000
Neuron 42 3 0.50000000 1 4.90000000 0.00000000 0.00000000 0.00000000
Link 1 10 1 0 -5.22818690
Link 3 10 3 0 -6.60483108
Link 4 10 4 0 -3.17143773
Link 5 10 5 0 -3.55044710
Link 6 10 6 0 -4.40821558
Link 7 10 7 0 -2.32280953
Link 8 10 8 0 -4.34815516
Link 9 10 9 0 -1.03813287
Link 1 11 10 0 -4.61381878
Link 2 11 11 0 0.44386120
Link 4 11 13 0 0.89193396
Link 5 11 14 0 1.50251778
Link 6 11 15 0 -3.47416608
Link 7 11 16 0 -1.85869930
Link 8 11 17 0 -1.96041749
Link 9 11 18 0 -0.30022584
Link 1 12 19 0 2.32480850
Link 2 12 20 0 2.52066103
Link 3 12 21 0 2.36228522
Link 4 12 22 0 0.96867275
Link 5 12 23 0 -5.42246773
Link 6 12 24 0 4.56443983
Link 7 12 25 0 6.74976348
Link 8 12 26 0 0.09595019
Link 9 12 27 0 3.91747795
Link 1 13 28 0 -0.95718253
Link 3 13 30 0 2.67310099
Link 4 13 31 0 0.86170537
Link 5 13 32 0 4.49235511
Link 6 13 33 0 0.46078371
Link 7 13 34 0 -2.93804742
Link 8 13 35 0 -2.47611927
Link 9 13 36 0 -0.13905759
Link 1 14 37 0 0.66066469
Link 2 14 38 0 -1.96612446
Link 3 14 39 0 0.11836604
Link 4 14 40 0 4.37632374
Link 5 14 41 0 -2.70114750
Link 6 14 42 0 4.28263191
Link 7 14 43 0 2.05523850
Link 8 14 44 0 -0.72878201
Link 9 14 45 0 4.94689779
Link 2 15 47 0 1.63954588
Link 3 15 48 0 0.96649068
Link 4 15 49 0 -2.19513535
Link 5 15 50 0 1.40151677
Link 6 15 51 0 -5.26261177
Link 7 15 52 0 2.02642903
Link 8 15 53 0 2.03347880
Link 9 15 54 0 -2.14189581
Link 1 16 55 0 2.33173620
Link 2 16 56 0 1.23169653
Link 3 16 57 0 -1.33872494
Link 4 16 58 0 -3.94450209
Link 5 16 59 0 -2.97572253
Link 6 16 60 0 2.85624256
Link 7 16 61 0 4.41183203
Link 8 16 62 0 -0.79029207
Link 9 16 63 0 1.15013581
Link 1 17 65 0 -1.69867550
Link 17 15 66 0 -1.42483291
Link 2 19 71 0 -2.09205909
Link 19 13 72 0 -1.40392773
Link 3 21 80 0 -1.85430464
Link 21 11 81 0 0.51020844
Link 2 42 171 0 2.55531480
Link 42 10 172 0 -3.34452345
GenomeEnd

GenomeStart 1917
Neuron 1 1 0.00000000 1 0.00000000 0.00000000 0.00000000 0.00000000
Neuron 2 1 0.00000000 1 0.00000000 0.00000000 0.00000000 0.00000000
Neuron 3 1 0.00000000 1 0.00000000 0.00000000 0.00000000 0.00000000
Neuron 4 1 0.00000000 1 0.00000000 0.00000000 0.00000000 0.00000000
Neuron 5 1 0.00000000 1 0.00000000 0.00000000 0.00000000 0.00000000
Neuron 6 1 0.00000000 1 0.00000000 0.00000000 0.00000000 0.00000000
Neuron 7 1 0.00000000 1 0.00000000 0.00000000 0.00000000 0.00000000
Neuron 8 1 0.00000000 1 0.00000000 0.00000000 0.00000000 0.00000000
Neuron 9 2 0.00000000 1 0.00000000 0.00000000 0.00000000 0.00000000
Neuron 10 4 1.00000000 1 4.90000000 0.00000000 0.00000000 0.00000000
Neuron 11 4 1.00000000 1 4.90000000 0.00000000 0.00000000 0.00000000
Neuron 12 4 1.00000000 1 4.90000000 0.00000000 0.00000000 0.00000000
Neuron 13 4 1.00000000 1 4.90000000 0.00000000 0.00000000 0.00000000
Neuron 14 4 1.00000000 1 4.90000000 0.00000000 0.00000000 0.00000000
Neuron 15 4 1.00000000 1 4.90000000 0.00000000 0.00000000 0.00000000
Neuron 16 4 1.00000000 1 4.90000000 0.00000000 0.00000000 0.00000000
Neuron 17 3 0.50000000 1 4.90000000 0.00000000 0.00000000 0.00000000
Neuron 23 3 0.50000000 1 4.90000000 0.00000000 0.00000000 0.00000000
Neuron 29 3 0.50000000 1 4.90000000 0.00000000 0.00000000 0.00000000
Neuron 31 3 0.50000000 1 4.90000000 0.00000000 0.00000000 0.00000000
Link 1 10 1 0 -1.05565813
Link 2 10 2 0 -0.69350261
Link 3 10 3 0 3.63534959
Link 4 10 4 0 -2.35044023
Link 5 10 5 0 -1.88227866
Link 6 10 6 0 1.21109653
Link 7 10 7 0 -1.57289346
Link 8 10 8 0 -0.28418836
Link 9 10 9 0 -6.68248543
Link 1 11 10 0 0.01659826
Link 2 11 11 0 -1.08162939
Link 3 11 12 0 -4.31098361
Link 5 11 14 0 -1.68199713
Link 6 11 15 0 -0.19899213
Link 7 11 16 0 0.25789666
Link 8 11 17 0 -3.55187002
Link 9 11 18 0 1.77600940
Link 1 12 19 0 -1.44701224
Link 3 12 21 0 1.33921324
Link 4 12 22 0 1.14027833
Link 5 12 23 0 -0.53784295
Link 6 12 24 0 -1.11202964
Link 7 12 25 0 1.18729209
Link 8 12 26 0 -2.81908628
Link 9 12 27 0 -0.97907193
Link 1 13 28 0 -1.98223441
Link 2 13 29 0 -0.39489807
Link 3 13 30 0 1.03630940
Link 4 13 31 0 -4.42194891
Link 5 13 32 0 1.14760277
Link 6 13 33 0 -1.92203665
Link 7 13 34 0 0.69670324
Link 8 13 35 0 2.33371227
Link 9 13 36 0 0.14751122
Link 1 14 37 0 -2.17114780
Link 2 14 38 0 4.20912427
Link 3 14 39 0 0.65095981
Link 4 14 40 0 -1.87538530
Link 5 14 41 0 3.44067202
Link 6 14 42 0 -0.56104464
Link 7 14 43 0 0.53103351
Link 8 14 44 0 -2.28870510
Link 9 14 45 0 2.77321696
Link 2 15 47 0 2.23240608
Link 3 15 48 0 0.54111606
Link 4 15 49 0 0.87604908
Link 5 15 50 0 -2.34082309
Link 6 15 51 0 2.23783075
Link 7 15 52 0 -4.23503449
Link 8 15 53 0 4.49812311
Link 9 15 54 0 -6.26388210
Link 1 16 55 0 -0.26326792
Link 2 16 56 0 -2.80765709
Link 3 16 57 0 2.79202018
Link 4 16 58 0 0.04559465
Link 5 16 59 0 4.63729133
Link 6 16 60 0 1.03867458
Link 7 16 61 0 1.93977172
Link 9 16 63 0 0.95983001
Link 1 17 65 0 1.80762658
Link 17 15 66 0 -1.99444563
Link 2 23 90 0 0.67891476
Link 23 12 91 0 -3.71295816
Link 8 29 112 0 2.87162389
Link 29 16 113 0 1.18985565
Link 4 31 124 0 0.37753685
Link 31 11 125 0 -1.54271065
Link 31 12 156 0 -1.46708579
GenomeEnd

GenomeStart 1918
Neuron 1 1 0.00000000 1 0.00000000 0.00000000 0.00000000 0.00000000
Neuron 2 1 0.00000000 1 0.00000000 0.00000000 0.00000000 0.00000000
Neuron 3 1 0.00000000 1 0.00000000 0.00000000 0.00000000 0.00000000
Neuron 4 1 0.00000000 1 0.00000000 0.00000000 0.00000000 0.00000000
Neuron 5 1 0.00000000 1 0.00000000 0.00000000 0.00000000 0.00000000
Neuron 6 1 0.00000000 1 0.00000000 0.00000000 0.00000000 0.00000000
Neuron 7 1 0.00000000 1 0.00000000 0.00000000 0.00000000 0.00000000
Neuron 8 1 0.00000000 1 0.00000000 0.00000000 0.00000000 0.00000000
Neuron 9 2 0.00000000 1 0.00000000 0.00000000 0.00000000 0.00000000
Neuron 10 4 1.00000000 1 4.90000000 0.00000000 0.00000000 0.00000000
Neuron 11 4 1.00000000 1 4.90000000 0.00000000 0.00000000 0.00000000
Neuron 12 4 1.00000000 1 4.90000000 0.00000000 0.00000000 0.00000000
Neuron 13 4 1.00000000 1 4.90000000 0.00000000 0.00000000 0.00000000
Neuron 14 4 1.00000000 1 4.90000000 0.00000000 0.00000000 0.00000000
Neuron 15 4 1.00000000 1 4.90000000 0.00000000 0.00000000 0.00000000
Neuron 16 4 1.00000000 1 4.90000000 0.00000000 0.00000000 0.00000000
Neuron 17 3 0.50000000 1 4.90000000 0.00000000 0.00000000 0.00000000
Neuron 19 3 0.50000000 1 4.90000000 0.00000000 0.00000000 0.00000000
Neuron 21 3 0.50000000 1 4.90000000 0.00000000 0.00000000 0.00000000
Neuron 27 3 0.50000000 1 4.90000000 0.00000000 0.00000000 0.00000000
Link 1 10 1 0 -4.91071810
Link 2 10 2 0 -1.39565722
Link 3 10 3 0 -5.16702780
Link 4 10 4 0 -3.17143773
Link 5 10 5 0 -3.55044710
Link 6 10 6 0 -0.25093844
Link 7 10 7 0 -2.74213385
Link 8 10 8 0 -3.91692862
Link 9 10 9 0 -0.08603167
Link 1 11 10 0 -3.52774133
Link 2 11 11 0 -1.49517808
Link 4 11 13 0 -1.92062135
Link 5 11 14 0 1.74468215
Link 6 11 15 0 -1.37481307
Link 7 11 16 0 -0.84975738
Link 8 11 17 0 -1.73152867
Link 9 11 18 0 0.14412366
Link 1 12 19 0 2.32480850
Link 2 12 20 0 2.35479293
Link 3 12 21 0 5.02311777
Link 4 12 22 0 1.40253914
Link 5 12 23 0 5.25247963
Link 7 12 25 0 -0.59701835
Link 8 12 26 0 1.73255104
Link 9 12 27 0 2.82583087
Link 1 13 28 0 -0.33948790
Link 3 13 30 0 2.71575060
Link 4 13 31 0 2.54670857
Link 5 13 32 0 2.13029877
Link 6 13 33 0 0.30124820
Link 7 13 34 0 -4.63678396
Link 8 13 35 0 -1.34754479
Link 9 13 36 0 0.53547777
Link 1 14 37 0 3.91363262
Link 2 14 38 0 -1.96612446
Link 3 14 39 0 -0.47323527
Link 4 14 40 0 4.27446822
Link 5 14 41 0 -1.45912046
Link 6 14 42 0 2.90029603
Link 7 14 43 0 0.80225532
Link 8 14 44 0 -2.77150792
Link 9 14 45 0 4.15684987
Link 2 15 47 0 1.10310678
Link 3 15 48 0 1.72235786
Link 4 15 49 0 -2.03979613
Link 5 15 50 0 0.65381329
Link 6 15 51 0 -3.52909940
Link 7 15 52 0 2.87415693
Link 8 15 53 0 1.55899228
Link 9 15 54 0 -1.26143681
Link 1 16 55 0 -1.99342326
Link 2 16 56 0 -2.87978759
Link 3 16 57 0 -1.45403913
Link 4 16 58 0 -0.69618824
Link 5 16 59 0 -2.57509079
Link 6 16 60 0 1.96960356
Link 7 16 61 0 4.15860470
Link 8 16 62 0 -0.42818995
Link 9 16 63 0 2.11612293
Link 1 17 65 0 -0.89283426
Link 17 15 66 0 -1.86033204
Link 2 19 71 0 -1.69333476
Link 19 13 72 0 -0.40581988
Link 3 21 80 0 -0.31479843
Link 21 11 81 0 -0.47572253
Link 6 27 103 0 -4.66933195
Link 27 12 104 0 3.74700156
GenomeEnd

GenomeStart 1919
Neuron 1 1 0.00000000 1 0.00000000 0.00000000 0.00000000 0.00000000
Neuron 2 1 0.00000000 1 0.00000000 0.00000000 0.00000000 0.00000000
Neuron 3 1 0.00000000 1 0.00000000 0.00000000 0.00000000 0.00000000
Neuron 4 1 0.00000000 1 0.00000000 0.00000000 0.00000000 0.00000000
Neuron 5 1 0.00000000 1 0.00000000 0.00000000 0.00000000 0.00000000
Neuron 6 1 0.00000000 1 0.00000000 0.00000000 0.00000000 0.00000000
Neuron 7 1 0.00000000 1 0.00000000 0.00000000 0.00000000 0.00000000
Neuron 8 1 0.00000000 1 0.00000000 0.00000000 0.00000000 0.00000000
Neuron 9 2 0.00000000 1 0.00000000 0.00000000 0.00000000 0.00000000
Neuron 10 4 1.00000000 1 4.90000000 0.00000000 0.00000000 0.00000000
Neuron 11 4 1.00000000 1 4.90000000 0.00000000 0.00000000 0.00000000
Neuron 12 4 1.00000000 1 4.90000000 0.00000000 0.00000000 0.00000000
Neuron 13 4 1.00000000 1 4.90000000 0.00000000 0.00000000 0.00000000
Neuron 14 4 1.00000000 1 4.90000000 0.00000000 0.00000000 0.00000000
Neuron 15 4 1.00000000 1 4.90000000 0.00000000 0.00000000 0.00000000
Neuron 16 4 1.00000000 1 4.90000000 0.00000000 0.00000000 0.00000000
Neuron 17 3 0.50000000 1 4.90000000 0.00000000 0.00000000 0.00000000
Neuron 19 3 0.50000000 1 4.90000000 0.00000000 0.00000000 0.00000000
Neuron 21 3 0.50000000 1 4.90000000 0.00000000 0.00000000 0.00000000
Neuron 27 3 0.50000000 1 4.90000000 0.00000000 0.00000000 0.00000000
Link 1 10 1 0 -4.91071810
Link 2 10 2 0 -1.39565722
Link 3 10 3 0 -5.16702780
Link 4 10 4 0 -3.17143773
Link 5 10 5 0 -1.59405805
Link 6 10 6 0 -0.25093844
Link 7 10 7 0 -2.74213385
Link 8 10 8 0 -3.91692862
Link 9 10 9 0 -0.08603167
Link 1 11 10 0 -3.52774133
Link 2 11 11 0 -1.49517808
Link 4 11 13 0 0.03645437
Link 5 11 14 0 1.74468215
Link 6 11 15 0 -1.66634113
Link 7 11 16 0 -0.84975738
Link 8 11 17 0 -1.73152867
Link 9 11 18 0 0.14412366
Link 1 12 19 0 2.32480850
Link 2 12 20 0 2.35479293
Link 3 12 21 0 5.02311777
Link 4 12 22 0 1.40253914
Link 5 12 23 0 5.25247963
Link 7 12 25 0 -0.59701835
Link 8 12 26 0 -5.03061007
Link 9 12 27 0 2.82583087
Link 1 13 28 0 -0.33948790
Link 3 13 30 0 2.71575060
Link 4 13 31 0 2.54670857
Link 5 13 32 0 2.53297525
Link 6 13 33 0 0.66830957
Link 7 13 34 0 -4.63678396
Link 8 13 35 0 -1.34754479
Link 9 13 36 0 0.53547777
Link 1 14 37 0 4.01289407
Link 2 14 38 0 -1.96612446
Link 3 14 39 0 0.74399548
Link 4 14 40 0 4.27446822
Link 5 14 41 0 1.31144139
Link 6 14 42 0 2.90029603
Link 7 14 43 0 0.77669607
Link 8 14 44 0 1.18198187
Link 9 14 45 0 4.15684987
Link 2 15 47 0 2.23717459
Link 3 15 48 0 1.72235786
Link 4 15 49 0 -0.53530991
Link 5 15 50 0 0.65381329
Link 6 15 51 0 -3.52909940
Link 7 15 52 0 2.87415693
Link 8 15 53 0 1.55899228
Link 9 15 54 0 -1.26143681
Link 1 16 55 0 -2.22544023
Link 2 16 56 0 -3.11516160
Link 3 16 57 0 -2.37905515
Link 4 16 58 0 -0.27373577
Link 5 16 59 0 -2.53045747
Link 6 16 60 0 2.38457899
Link 7 16 61 0 4.15860470
Link 8 16 62 0 -0.42818995
Link 9 16 63 0 2.11612293
Link 1 17 65 0 -0.89283426
Link 17 15 66 0 -1.86033204
Link 2 19 71 0 -1.69333476
Link 19 13 72 0 0.06630146
Link 3 21 80 0 -1.52775659
Link 21 11 81 0 -3.51261940
Link 6 27 103 0 -4.85023041
Link 27 12 104 0 3.70954009
GenomeEnd

GenomeStart 1920
Neuron 1 1 0.00000000 1 0.00000000 0.00000000 0.00000000 0.00000000
Neuron 2 1 0.00000000 1 0.00000000 0.00000000 0.00000000 0.00000000
Neuron 3 1 0.00000000 1 0.00000000 0.00000000 0.00000000 0.00000000
Neuron 4 1 0.00000000 1 0.00000000 0.00000000 0.00000000 0.00000000
Neuron 5 1 0.00000000 1 0.00000000 0.00000000 0.00000000 0.00000000
Neuron 6 1 0.00000000 1 0.00000000 0.00000000 0.00000000 0.00000000
Neuron 7 1 0.00000000 1 0.00000000 0.00000000 0.00000000 0.00000000
Neuron 8 1 0.00000000 1 0.00000000 0.00000000 0.00000000 0.00000000
Neuron 9 2 0.00000000 1 0.00000000 0.00000000 0.00000000 0.00000000
Neuron 10 4 1.00000000 1 4.90000000 0.00000000 0.00000000 0.00000000
Neuron 11 4 1.00000000 1 4.90000000 0.00000000 0.00000000 0.00000000
Neuron 12 4 1.00000000 1 4.90000000 0.00000000 0.00000000 0.00000000
Neuron 13 4 1.00000000 1 4.90000000 0.00000000 0.00000000 0.00000000
Neuron 14 4 1.00000000 1 4.90000000 0.00000000 0.00000000 0.00000000
Neuron 15 4 1.00000000 1 4.90000000 0.00000000 0.00000000 0.00000000
Neuron 16 4 1.00000000 1 4.90000000 0.00000000 0.00000000 0.00000000
Neuron 17 3 0.50000000 1 4.90000000 0.00000000 0.00000000 0.00000000
Neuron 19 3 0.50000000 1 4.90000000 0.00000000 0.00000000 0.00000000
Neuron 21 3 0.50000000 1 4.90000000 0.00000000 0.00000000 0.00000000
Neuron 27 3 0.50000000 1 4.90000000 0.00000000 0.00000000 0.00000000
Link 1 10 1 0 -4.91071810
Link 2 10 2 0 -1.39565722
Link 3 10 3 0 -5.16702780
Link 4 10 4 0 -3.17143773
Link 5 10 5 0 -3.51321452
Link 6 10 6 0 -0.25093844
Link 7 10 7 0 -2.74427015
Link 8 10 8 0 -3.91692862
Link 9 10 9 0 -0.08603167
Link 1 11 10 0 -3.52774133
Link 2 11 11 0 -1.49517808
Link 4 11 13 0 -1.60269478
Link 5 11 14 0 -2.01477096
Link 6 11 15 0 -1.37481307
Link 7 11 16 0 -0.84975738
Link 8 11 17 0 -2.68164617
Link 9 11 18 0 0.39887692
Link 1 12 19 0 2.32480850
Link 2 12 20 0 2.35479293
Link 3 12 21 0 5.02311777
Link 4 12 22 0 1.40253914
Link 5 12 23 0 4.68468276
Link 7 12 25 0 -0.59701835
Link 8 12 26 0 1.73255104
Link 9 12 27 0 2.82583087
Link 1 13 28 0 -2.10666219
Link 3 13 30 0 2.71575060
Link 4 13 31 0 2.54670857
Link 5 13 32 0 2.13029877
Link 6 13 33 0 0.30124820
Link 7 13 34 0 -4.34975738
Link 8 13 35 0 -0.24018067
Link 9 13 36 0 0.53547777
Link 1 14 37 0 3.19186987
Link 2 14 38 0 -1.96612446
Link 3 14 39 0 -1.42342906
Link 4 14 40 0 6.21918394
Link 5 14 41 0 -1.45912046
Link 6 14 42 0 2.90029603
Link 7 14 43 0 0.80225532
Link 8 14 44 0 -2.77150792
Link 9 14 45 0 4.15684987
Link 2 15 47 0 -0.04423658
Link 3 15 48 0 1.72235786
Link 4 15 49 0 -2.03979613
Link 5 15 50 0 0.65381329
Link 6 15 51 0 -3.52909940
Link 7 15 52 0 2.87415693
Link 8 15 53 0 0.22205268
Link 9 15 54 0 -1.26143681
Link 1 16 55 0 -3.29874569
Link 2 16 56 0 -2.87978759
Link 3 16 57 0 -1.45403913
Link 4 16 58 0 -1.33867916
Link 5 16 59 0 -2.57509079
Link 6 16 60 0 1.96960356
Link 7 16 61 0 4.02951140
Link 8 16 62 0 -0.42818995
Link 9 16 63 0 0.73683889
Link 1 17 65 0 1.18143254
Link 17 15 66 0 -1.86033204
Link 2 19 71 0 -1.88933989
Link 19 13 72 0 -0.40581988
Link 3 21 80 0 -0.31479843
Link 21 11 81 0 1.80657369
Link 6 27 103 0 -0.82399976
Link 27 12 104 0 -0.78572954
GenomeEnd

GenomeStart 1922
Neuron 1 1 0.00000000 1 0.00000000 0.00000000 0.00000000 0.00000000
Neuron 2 1 0.00000000 1 0.00000000 0.00000000 0.00000000 0.00000000
Neuron 3 1 0.00000000 1 0.00000000 0.00000000 0.00000000 0.00000000
Neuron 4 1 0.00000000 1 0.00000000 0.00000000 0.00000000 0.00000000
Neuron 5 1 0.00000000 1 0.00000000 0.00000000 0.00000000 0.00000000
Neuron 6 1 0.00000000 1 0.00000000 0.00000000 0.00000000 0.00000000
Neuron 7 1 0.00000000 1 0.00000000 0.00000000 0.00000000 0.00000000
Neuron 8 1 0.00000000 1 0.00000000 0.00000000 0.00000000 0.00000000
Neuron 9 2 0.00000000 1 0.00000000 0.00000000 0.00000000 0.00000000
Neuron 10 4 1.00000000 1 4.90000000 0.00000000 0.00000000 0.00000000
Neuron 11 4 1.00000000 1 4.90000000 0.00000000 0.00000000 0.00000000
Neuron 12 4 1.00000000 1 4.90000000 0.00000000 0.00000000 0.00000000
Neuron 13 4 1.00000000 1 4.90000000 0.00000000 0.00000000 0.00000000
Neuron 14 4 1.00000000 1 4.90000000 0.00000000 0.00000000 0.00000000
Neuron 15 4 1.00000000 1 4.90000000 0.00000000 0.00000000 0.00000000
Neuron 16 4 1.00000000 1 4.90000000 0.00000000 0.00000000 0.00000000
Neuron 17 3 0.50000000 1 4.90000000 0.00000000 0.00000000 0.00000000
Neuron 19 3 0.50000000 1 4.90000000 0.00000000 0.00000000 0.00000000
Neuron 21 3 0.50000000 1 4.90000000 0.00000000 0.00000000 0.00000000
Neuron 27 3 0.50000000 1 4.90000000 0.00000000 0.00000000 0.00000000
Link 1 10 1 0 -4.91071810
Link 2 10 2 0 -1.39565722
Link 3 10 3 0 -5.16702780
Link 4 10 4 0 -3.17143773
Link 5 10 5 0 -1.59405805
Link 6 10 6 0 -0.25093844
Link 7 10 7 0 -2.74213385
Link 8 10 8 0 -3.91692862
Link 9 10 9 0 -0.08603167
Link 1 11 10 0 -3.52774133
Link 2 11 11 0 -1.49517808
Link 4 11 13 0 0.03645437
Link 5 11 14 0 1.74468215
Link 6 11 15 0 -1.66634113
Link 7 11 16 0 -0.84975738
Link 8 11 17 0 -1.73152867
Link 9 11 18 0 0.14412366
Link 1 12 19 0 2.32480850
Link 2 12 20 0 2.35479293
Link 3 12 21 0 5.02311777
Link 4 12 22 0 1.40253914
Link 5 12 23 0 5.25247963
Link 7 12 25 0 -0.59701835
Link 8 12 26 0 -5.03061007
Link 9 12 27 0 2.82583087
Link 1 13 28 0 -0.33948790
Link 3 13 30 0 2.71575060
Link 4 13 31 0 2.54670857
Link 5 13 32 0 2.53297525
Link 6 13 33 0 0.66830957
Link 7 13 34 0 -4.63678396
Link 8 13 35 0 -1.34754479
Link 9 13 36 0 0.53547777
Link 1 14 37 0 4.01289407
Link 2 14 38 0 -1.96612446
Link 3 14 39 0 0.74399548
Link 4 14 40 0 4.27446822
Link 5 14 41 0 1.31144139
Link 6 14 42 0 2.90029603
Link 7 14 43 0 0.77669607
Link 8 14 44 0 1.18198187
Link 9 14 45 0 4.15684987
Link 2 15 47 0 2.23717459
Link 3 15 48 0 1.72235786
Link 4 15 49 0 -0.53530991
Link 5 15 50 0 0.65381329
Link 6 15 51 0 -3.52909940
Link 7 15 52 0 2.87415693
Link 8 15 53 0 1.55899228
Link 9 15 54 0 -1.26143681
Link 1 16 55 0 -2.22544023
Link 2 16 56 0 -3.11516160
Link 3 16 57 0 -2.37905515
Link 4 16 58 0 -0.27373577
Link 5 16 59 0 -2.53045747
Link 6 16 60 0 2.38457899
Link 7 16 61 0 4.15860470
Link 8 16 62 0 -0.42818995
Link 9 16 63 0 2.11612293
Link 1 17 65 0 -0.89283426
Link 17 15 66 0 -1.86033204
Link 2 19 71 0 -1.69333476
Link 19 13 72 0 0.06630146
Link 3 21 80 0 -1.52775659
Link 21 11 81 0 -3.51261940
Link 6 27 103 0 -4.85023041
Link 27 12 104 0 3.70954009
GenomeEnd

GenomeStart 1923
Neuron 1 1 0.00000000 1 0.00000000 0.00000000 0.00000000 0.00000000
Neuron 2 1 0.00000000 1 0.00000000 0.00000000 0.00000000 0.00000000
Neuron 3 1 0.00000000 1 0.00000000 0.00000000 0.00000000 0.00000000
Neuron 4 1 0.00000000 1 0.00000000 0.00000000 0.00000000 0.00000000
Neuron 5 1 0.00000000 1 0.00000000 0.00000000 0.00000000 0.00000000
Neuron 6 1 0.00000000 1 0.00000000 0.00000000 0.00000000 0.00000000
Neuron 7 1 0.00000000 1 0.00000000 0.00000000 0.00000000 0.00000000
Neuron 8 1 0.00000000 1 0.00000000 0.00000000 0.00000000 0.00000000
Neuron 9 2 0.00000000 1 0.00000000 0.00000000 0.00000000 0.00000000
Neuron 10 4 1.00000000 1 4.90000000 0.00000000 0.00000000 0.00000000
Neuron 11 4 1.00000000 1 4.90000000 0.00000000 0.00000000 0.00000000
Neuron 12 4 1.00000000 1 4.90000000 0.00000000 0.00000000 0.00000000
Neuron 13 4 1.00000000 1 4.90000000 0.00000000 0.00000000 0.00000000
Neuron 14 4 1.00000000 1 4.90000000 0.00000000 0.00000000 0.00000000
Neuron 15 4 1.00000000 1 4.90000000 0.00000000 0.00000000 0.00000000
Neuron 16 4 1.00000000 1 4.90000000 0.00000000 0.00000000 0.00000000
Neuron 17 3 0.50000000 1 4.90000000 0.00000000 0.00000000 0.00000000
Neuron 19 3 0.50000000 1 4.90000000 0.00000000 0.00000000 0.00000000
Neuron 21 3 0.50000000 1 4.90000000 0.00000000 0.00000000 0.00000000
Neuron 27 3 0.50000000 1 4.90000000 0.00000000 0.00000000 0.00000000
Link 1 10 1 0 -4.91071810
Link 2 10 2 0 -1.39565722
Link 3 10 3 0 -5.16702780
Link 4 10 4 0 -3.17143773
Link 5 10 5 0 -3.51321452
Link 6 10 6 0 -0.25093844
Link 7 10 7 0 -2.74427015
Link 8 10 8 0 -3.91692862
Link 9 10 9 0 -0.08603167
Link 1 11 10 0 -3.52774133
Link 2 11 11 0 -1.49517808
Link 4 11 13 0 -1.60269478
Link 5 11 14 0 -2.01477096
Link 6 11 15 0 -1.37481307
Link 7 11 16 0 -0.84975738
Link 8 11 17 0 -2.68164617
Link 9 11 18 0 0.39887692
Link 1 12 19 0 2.32480850
Link 2 12 20 0 2.35479293
Link 3 12 21 0 5.02311777
Link 4 12 22 0 1.40253914
Link 5 12 23 0 4.68468276
Link 7 12 25 0 -0.59701835
Link 8 12 26 0 1.73255104
Link 9 12 27 0 2.82583087
Link 1 13 28 0 -2.10666219
Link 3 13 30 0 2.71575060
Link 4 13 31 0 2.54670857
Link 5 13 32 0 2.13029877
Link 6 13 33 0 0.30124820
Link 7 13 34 0 -4.34975738
Link 8 13 35 0 -0.24018067
Link 9 13 36 0 0.53547777
Link 1 14 37 0 3.19186987
Link 2 14 38 0 -1.96612446
Link 3 14 39 0 -1.42342906
Link 4 14 40 0 6.21918394
Link 5 14 41 0 -1.45912046
Link 6 14 42 0 2.90029603
Link 7 14 43 0 0.80225532
Link 8 14 44 0 -2.77150792
Link 9 14 45 0 4.15684987
Link 2 15 47 0 -0.04423658
Link 3 15 48 0 1.72235786
Link 4 15 49 0 -2.03979613
Link 5 15 50 0 0.65381329
Link 6 15 51 0 -3.52909940
Link 7 15 52 0 2.87415693
Link 8 15 53 0 0.22205268
Link 9 15 54 0 -1.26143681
Link 1 16 55 0 -3.29874569
Link 2 16 56 0 -2.87978759
Link 3 16 57 0 -1.45403913
Link 4 16 58 0 -1.33867916
Link 5 16 59 0 -2.57509079
Link 6 16 60 0 1.96960356
Link 7 16 61 0 4.02951140
Link 8 16 62 0 -0.42818995
Link 9 16 63 0 0.73683889
Link 1 17 65 0 1.18143254
Link 17 15 66 0 -1.86033204
Link 2 19 71 0 -1.88933989
Link 19 13 72 0 -0.40581988
Link 3 21 80 0 -0.31479843
Link 21 11 81 0 1.80657369
Link 6 27 103 0 -0.82399976
Link 27 12 104 0 -0.78572954
GenomeEnd

GenomeStart 1926
Neuron 1 1 0.00000000 1 0.00000000 0.00000000 0.00000000 0.00000000
Neuron 2 1 0.00000000 1 0.00000000 0.00000000 0.00000000 0.00000000
Neuron 3 1 0.00000000 1 0.00000000 0.00000000 0.00000000 0.00000000
Neuron 4 1 0.00000000 1 0.00000000 0.00000000 0.00000000 0.00000000
Neuron 5 1 0.00000000 1 0.00000000 0.00000000 0.00000000 0.00000000
Neuron 6 1 0.00000000 1 0.00000000 0.00000000 0.00000000 0.00000000
Neuron 7 1 0.00000000 1 0.00000000 0.00000000 0.00000000 0.00000000
Neuron 8 1 0.00000000 1 0.00000000 0.00000000 0.00000000 0.00000000
Neuron 9 2 0.00000000 1 0.00000000 0.00000000 0.00000000 0.00000000
Neuron 10 4 1.00000000 1 4.90000000 0.00000000 0.00000000 0.00000000
Neuron 11 4 1.00000000 1 4.90000000 0.00000000 0.00000000 0.00000000
Neuron 12 4 1.00000000 1 4.90000000 0.00000000 0.00000000 0.00000000
Neuron 13 4 1.00000000 1 4.90000000 0.00000000 0.00000000 0.00000000
Neuron 14 4 1.00000000 1 4.90000000 0.00000000 0.00000000 0.00000000
Neuron 15 4 1.00000000 1 4.90000000 0.00000000 0.00000000 0.00000000
Neuron 16 4 1.00000000 1 4.90000000 0.00000000 0.00000000 0.00000000
Neuron 17 3 0.50000000 1 4.90000000 0.00000000 0.00000000 0.00000000
Neuron 23 3 0.50000000 1 4.90000000 0.00000000 0.00000000 0.00000000
Neuron 29 3 0.50000000 1 4.90000000 0.00000000 0.00000000 0.00000000
Neuron 31 3 0.50000000 1 4.90000000 0.00000000 0.00000000 0.00000000
Link 1 10 1 0 0.05723747
Link 2 10 2 0 -0.85329752
Link 3 10 3 0 1.90691855
Link 4 10 4 0 0.17535935
Link 5 10 5 0 -2.30756554
Link 6 10 6 0 -3.42381054
Link 7 10 7 0 4.05944243
Link 8 10 8 0 -2.72199164
Link 9 10 9 0 -6.92541276
Link 1 11 10 0 -1.25291451
Link 2 11 11 0 -4.27195807
Link 3 11 12 0 4.53765984
Link 5 11 14 0 -0.70717490
Link 6 11 15 0 -0.07060457
Link 7 11 16 0 1.66521958
Link 8 11 17 0 -0.65297403
Link 9 11 18 0 3.14291818
Link 1 12 19 0 3.14499344
Link 3 12 21 0 0.28308207
Link 4 12 22 0 1.46049379
Link 5 12 23 0 0.82775353
Link 6 12 24 0 1.10447248
Link 7 12 25 0 -2.35425886
Link 8 12 26 0 3.85393841
Link 9 12 27 0 1.69817194
Link 1 13 28 0 -0.34924619
Link 2 13 29 0 1.67084262
Link 3 13 30 0 -1.29900510
Link 4 13 31 0 -3.67432173
Link 5 13 32 0 1.16171758
Link 6 13 33 0 -1.11954100
Link 7 13 34 0 0.79338969
Link 8 13 35 0 -0.31861324
Link 9 13 36 0 -1.00517288
Link 1 14 37 0 3.63306070
Link 2 14 38 0 1.24753563
Link 3 14 39 0 0.25001526
Link 4 14 40 0 4.31354717
Link 5 14 41 0 3.84180731
Link 6 14 42 0 -0.45022431
Link 7 14 43 0 1.62524796
Link 8 14 44 0 2.58146916
Link 9 14 45 0 3.26032289
Link 2 15 47 0 2.31860180
Link 3 15 48 0 -2.90432447
Link 4 15 49 0 2.42654196
Link 5 15 50 0 -2.35074160
Link 6 15 51 0 2.49830622
Link 7 15 52 0 -4.65124973
Link 8 15 53 0 3.44283884
Link 9 15 54 0 -4.36873988
Link 1 16 55 0 -0.33180486
Link 2 16 56 0 -1.84301279
Link 3 16 57 0 2.56766717
Link 4 16 58 0 -0.84131901
Link 5 16 59 0 6.00831629
Link 6 16 60 0 -0.64766381
Link 7 16 61 0 -0.56196783
Link 9 16 63 0 1.34641560
Link 1 17 65 0 3.31936858
Link 17 15 66 0 -1.55879391
Link 2 23 90 0 -1.19289224
Link 23 12 91 0 0.00419630
Link 8 29 112 0 -2.74611652
Link 29 16 113 0 -1.52984710
Link 4 31 124 0 -0.85641041
Link 31 11 125 0 -0.66505936
GenomeEnd

GenomeStart 1927
Neuron 1 1 0.00000000 1 0.00000000 0.00000000 0.00000000 0.00000000
Neuron 2 1 0.00000000 1 0.00000000 0.00000000 0.00000000 0.00000000
Neuron 3 1 0.00000000 1 0.00000000 0.00000000 0.00000000 0.00000000
Neuron 4 1 0.00000000 1 0.00000000 0.00000000 0.00000000 0.00000000
Neuron 5 1 0.00000000 1 0.00000000 0.00000000 0.00000000 0.00000000
Neuron 6 1 0.00000000 1 0.00000000 0.00000000 0.00000000 0.00000000
Neuron 7 1 0.00000000 1 0.00000000 0.00000000 0.00000000 0.00000000
Neuron 8 1 0.00000000 1 0.00000000 0.00000000 0.00000000 0.00000000
Neuron 9 2 0.00000000 1 0.00000000 0.00000000 0.00000000 0.00000000
Neuron 10 4 1.00000000 1 4.90000000 0.00000000 0.00000000 0.00000000
Neuron 11 4 1.00000000 1 4.90000000 0.00000000 0.00000000 0.00000000
Neuron 12 4 1.00000000 1 4.90000000 0.00000000 0.00000000 0.00000000
Neuron 13 4 1.00000000 1 4.90000000 0.00000000 0.00000000 0.00000000
Neuron 14 4 1.00000000 1 4.90000000 0.00000000 0.00000000 0.00000000
Neuron 15 4 1.00000000 1 4.90000000 0.00000000 0.00000000 0.00000000
Neuron 16 4 1.00000000 1 4.90000000 0.00000000 0.00000000 0.00000000
Neuron 17 3 0.50000000 1 4.90000000 0.00000000 0.00000000 0.00000000
Neuron 19 3 0.50000000 1 4.90000000 0.00000000 0.00000000 0.00000000
Neuron 22 3 0.50000000 1 4.90000000 0.00000000 0.00000000 0.00000000
Neuron 27 3 0.50000000 1 4.90000000 0.00000000 0.00000000 0.00000000
Neuron 37 3 0.75000000 1 4.90000000 0.00000000 0.00000000 0.00000000
Link 1 10 1 0 -3.38967559
Link 2 10 2 0 -3.31559191
Link 3 10 3 0 2.00009156
Link 4 10 4 0 0.64165166
Link 5 10 5 0 -0.06161687
Link 6 10 6 0 -0.97143468
Link 7 10 7 0 -0.98716696
Link 8 10 8 0 -1.96749778
Link 9 10 9 0 -0.26738792
Link 1 11 10 0 1.11009552
Link 2 11 11 0 -0.32731102
Link 3 11 12 0 -0.39028596
Link 4 11 13 0 -1.27881710
Link 5 11 14 0 0.45992920
Link 6 11 15 0 -2.72008423
Link 7 11 16 0 -1.32035280
Link 8 11 17 0 2.30317087
Link 9 11 18 0 -0.94857631
Link 1 12 19 0 0.66940825
Link 2 12 20 0 0.51924192
Link 3 12 21 0 -3.65330973
Link 4 12 22 0 -2.24340037
Link 5 12 23 0 1.82174139
Link 7 12 25 0 -0.53064058
Link 8 12 26 0 1.42020936
Link 9 12 27 0 -1.40807825
Link 1 13 28 0 -4.04913480
Link 3 13 30 0 -1.67746513
Link 4 13 31 0 -0.93350017
Link 5 13 32 0 0.02192754
Link 6 13 33 0 -4.95422224
Link 7 13 34 0 2.19785150
Link 8 13 35 0 -2.64998321
Link 9 13 36 0 -3.15518662
Link 1 14 37 0 -0.06134220
Link 2 14 38 0 2.90623188
Link 3 14 39 0 1.28249458
Link 4 14 40 0 -3.05594043
Link 5 14 41 0 -2.20094912
Link 6 14 42 0 1.72975859
Link 7 14 43 0 -1.62045655
Link 8 14 44 0 -0.04220710
Link 9 14 45 0 1.69380779
Link 2 15 47 0 -1.11398664
Link 4 15 49 0 0.15997803
Link 5 15 50 0 -1.25826289
Link 6 15 51 0 0.93804742
Link 7 15 52 0 -4.84859767
Link 8 15 53 0 0.12836085
Link 9 15 54 0 3.56955168
Link 1 16 55 0 -3.97476119
Link 2 16 56 0 -3.89594715
Link 3 16 57 0 3.17294839
Link 4 16 58 0 -2.73970763
Link 5 16 59 0 1.51879940
Link 6 16 60 0 1.75887325
Link 7 16 61 0 5.30637532
Link 8 16 62 0 -0.25049593
Link 9 16 63 0 2.04707480
Link 1 17 65 0 0.65422529
Link 17 15 66 0 1.82734154
Link 2 19 71 0 -1.81846064
Link 19 13 72 0 -2.34301279
Link 3 19 76 0 -0.62555314
Link 3 22 86 0 3.07339702
Link 6 27 103 0 1.08682516
Link 27 12 104 0 2.43360698
Link 22 37 146 0 0.08574175
Link 37 15 147 0 3.79351176
GenomeEnd

GenomeStart 1928
Neuron 1 1 0.00000000 1 0.00000000 0.00000000 0.00000000 0.00000000
Neuron 2 1 0.00000000 1 0.00000000 0.00000000 0.00000000 0.00000000
Neuron 3 1 0.00000000 1 0.00000000 0.00000000 0.00000000 0.00000000
Neuron 4 1 0.00000000 1 0.00000000 0.00000000 0.00000000 0.00000000
Neuron 5 1 0.00000000 1 0.00000000 0.00000000 0.00000000 0.00000000
Neuron 6 1 0.00000000 1 0.00000000 0.00000000 0.00000000 0.00000000
Neuron 7 1 0.00000000 1 0.00000000 0.00000000 0.00000000 0.00000000
Neuron 8 1 0.00000000 1 0.00000000 0.00000000 0.00000000 0.00000000
Neuron 9 2 0.00000000 1 0.00000000 0.00000000 0.00000000 0.00000000
Neuron 10 4 1.00000000 1 4.90000000 0.00000000 0.00000000 0.00000000
Neuron 11 4 1.00000000 1 4.90000000 0.00000000 0.00000000 0.00000000
Neuron 12 4 1.00000000 1 4.90000000 0.00000000 0.00000000 0.00000000
Neuron 13 4 1.00000000 1 4.90000000 0.00000000 0.00000000 0.00000000
Neuron 14 4 1.00000000 1 4.90000000 0.00000000 0.00000000 0.00000000
Neuron 15 4 1.00000000 1 4.90000000 0.00000000 0.00000000 0.00000000
Neuron 16 4 1.00000000 1 4.90000000 0.00000000 0.00000000 0.00000000
Neuron 17 3 0.50000000 1 4.90000000 0.00000000 0.00000000 0.00000000
Neuron 19 3 0.50000000 1 4.90000000 0.00000000 0.00000000 0.00000000
Link 1 10 1 0 -1.23659474
Link 2 10 2 0 -0.61575671
Link 3 10 3 0 0.62446974
Link 4 10 4 0 -0.00328074
Link 5 10 5 0 0.20023194
Link 6 10 6 0 -0.55302591
Link 7 10 7 0 -1.45242164
Link 8 10 8 0 -1.41961425
Link 9 10 9 0 -0.83701590
Link 1 11 10 0 -0.03274636
Link 2 11 11 0 -0.64142277
Link 3 11 12 0 -3.25370037
Link 4 11 13 0 -2.03765984
Link 5 11 14 0 1.36022523
Link 6 11 15 0 1.88454848
Link 7 11 16 0 -1.57145909
Link 8 11 17 0 -4.40858180
Link 9 11 18 0 -0.36732078
Link 1 12 19 0 -1.73096408
Link 2 12 20 0 -3.02810755
Link 3 12 21 0 0.51370281
Link 4 12 22 0 -0.01130710
Link 5 12 23 0 3.47759942
Link 6 12 24 0 1.34696493
Link 7 12 25 0 -0.01908933
Link 8 12 26 0 -1.16391492
Link 9 12 27 0 -1.64429151
Link 1 13 28 0 2.48847926
Link 3 13 30 0 2.45092624
Link 4 13 31 0 -2.01286355
Link 5 13 32 0 0.77802362
Link 6 13 33 0 0.07136753
Link 7 13 34 0 -0.78189947
Link 8 13 35 0 -2.04608295
Link 9 13 36 0 2.34492020
Link 1 14 37 0 -2.17804499
Link 2 14 38 0 2.54100161
Link 3 14 39 0 -1.63853877
Link 4 14 40 0 0.66740928
Link 5 14 41 0 1.21437727
Link 6 14 42 0 4.46269112
Link 7 14 43 0 0.33761101
Link 8 14 44 0 -0.79494614
Link 9 14 45 0 3.89806818
Link 2 15 47 0 3.17532884
Link 3 15 48 0 1.64239937
Link 4 15 49 0 -0.42971587
Link 5 15 50 0 -0.48403882
Link 6 15 51 0 -0.92747277
Link 7 15 52 0 -2.74900052
Link 8 15 53 0 -0.17926573
Link 9 15 54 0 1.24108097
Link 1 16 55 0 -0.71784112
Link 2 16 56 0 -1.76438185
Link 3 16 57 0 0.28772851
Link 4 16 58 0 -1.13620411
Link 5 16 59 0 0.62063967
Link 6 16 60 0 -1.18127995
Link 7 16 61 0 1.32970672
Link 8 16 62 0 -0.18457595
Link 9 16 63 0 0.63905759
Link 1 17 65 0 1.19516587
Link 17 15 66 0 1.86777856
Link 2 19 71 0 0.88448744
Link 19 13 72 0 3.30533769
Link 3 19 76 0 -3.08069094
Link 4 19 161 0 0.80642109
GenomeEnd

GenomeStart 1929
Neuron 1 1 0.00000000 1 0.00000000 0.00000000 0.00000000 0.00000000
Neuron 2 1 0.00000000 1 0.00000000 0.00000000 0.00000000 0.00000000
Neuron 3 1 0.00000000 1 0.00000000 0.00000000 0.00000000 0.00000000
Neuron 4 1 0.00000000 1 0.00000000 0.00000000 0.00000000 0.00000000
Neuron 5 1 0.00000000 1 0.00000000 0.00000000 0.00000000 0.00000000
Neuron 6 1 0.00000000 1 0.00000000 0.00000000 0.00000000 0.00000000
Neuron 7 1 0.00000000 1 0.00000000 0.00000000 0.00000000 0.00000000
Neuron 8 1 0.00000000 1 0.00000000 0.00000000 0.00000000 0.00000000
Neuron 9 2 0.00000000 1 0.00000000 0.00000000 0.00000000 0.00000000
Neuron 10 4 1.00000000 1 4.90000000 0.00000000 0.00000000 0.00000000
Neuron 11 4 1.00000000 1 4.90000000 0.00000000 0.00000000 0.00000000
Neuron 12 4 1.00000000 1 4.90000000 0.00000000 0.00000000 0.00000000
Neuron 13 4 1.00000000 1 4.90000000 0.00000000 0.00000000 0.00000000
Neuron 14 4 1.00000000 1 4.90000000 0.00000000 0.00000000 0.00000000
Neuron 15 4 1.00000000 1 4.90000000 0.00000000 0.00000000 0.00000000
Neuron 16 4 1.00000000 1 4.90000000 0.00000000 0.00000000 0.00000000
Neuron 17 3 0.50000000 1 4.90000000 0.00000000 0.00000000 0.00000000
Neuron 23 3 0.50000000 1 4.90000000 0.00000000 0.00000000 0.00000000
Neuron 29 3 0.50000000 1 4.90000000 0.00000000 0.00000000 0.00000000
Link 1 10 1 0 0.18610187
Link 2 10 2 0 -0.74431593
Link 3 10 3 0 3.95220802
Link 4 10 4 0 -3.60043641
Link 5 10 5 0 -1.66750084
Link 6 10 6 0 -2.19093905
Link 7 10 7 0 -4.31086154
Link 8 10 8 0 0.08616901
Link 9 10 9 0 -1.38508255
Link 1 11 10 0 -0.94924772
Link 2 11 11 0 -5.52519303
